{"type":"LSTM","options":{"inputSize":20,"inputRange":20,"hiddenLayers":[20,20],"outputSize":20,"decayRate":0.999,"smoothEps":1e-8,"regc":0.000001,"clipval":5,"maxPredictionLength":100,"dataFormatter":{"indexTable":{"N":0,"o":1,"t":2," ":3,"m":4,"u":5,"c":6,"h":7,".":8,"W":9,"a":10,"'":11,"s":12,"g":13,"i":14,"n":15,"?":16,"stop-input":17,"start-output":18,"unrecognized":19},"characterTable":{"0":"N","1":"o","2":"t","3":" ","4":"m","5":"u","6":"c","7":"h","8":".","9":"W","10":"a","11":"'","12":"s","13":"g","14":"i","15":"n","16":"?","17":null,"18":null,"19":null},"values":["Not much..","What's going on?"],"characters":["N","o","t"," ","m","u","c","h",".","W","a","'","s","g","i","n","?","stop-input","start-output","unrecognized"],"specialIndexes":[17,18,19]}},"input":{"rows":21,"columns":20,"weights":{"0":1.952346682548523,"1":-1.8967111110687256,"2":1.3701224327087402,"3":0.7123318910598755,"4":-0.30996841192245483,"5":1.0785319805145264,"6":-1.550442099571228,"7":-0.8966206312179565,"8":0.23730047047138214,"9":2.0768778324127197,"10":-1.153830647468567,"11":-0.06512121111154556,"12":0.22643865644931793,"13":-0.9682043194770813,"14":0.505904495716095,"15":-1.0603797435760498,"16":-0.6704443693161011,"17":0.8279832601547241,"18":-0.2987510561943054,"19":3.351417303085327,"20":-0.4985390305519104,"21":-0.25280117988586426,"22":0.377367228269577,"23":-1.0150341987609863,"24":0.07936090230941772,"25":-0.9444109201431274,"26":-0.45594218373298645,"27":-0.4485519528388977,"28":1.299161434173584,"29":0.005459497682750225,"30":-1.0348258018493652,"31":-1.2448382377624512,"32":-0.2810620069503784,"33":0.9569045305252075,"34":-1.21517014503479,"35":-1.047241449356079,"36":0.7769255042076111,"37":-1.190418004989624,"38":-1.3251261711120605,"39":0.6177046895027161,"40":0.9195919036865234,"41":1.2941266298294067,"42":-0.4280627369880676,"43":4.083432674407959,"44":0.4666403532028198,"45":-0.6525026559829712,"46":-0.2891544997692108,"47":-0.22628840804100037,"48":-1.8807034492492676,"49":0.8409377336502075,"50":0.5655732154846191,"51":1.040652871131897,"52":1.6339364051818848,"53":-2.261385202407837,"54":0.4944624602794647,"55":1.595476508140564,"56":-1.3397650718688965,"57":0.1224401667714119,"58":1.653457760810852,"59":-3.1889123916625977,"60":1.0575624704360962,"61":0.24758490920066833,"62":-2.26304292678833,"63":1.0921485424041748,"64":0.8673188090324402,"65":-2.3642075061798096,"66":-0.8107466697692871,"67":0.2562677264213562,"68":-0.3407455384731293,"69":0.21541143953800201,"70":0.1353468894958496,"71":0.40369632840156555,"72":-0.2151525467634201,"73":1.0635088682174683,"74":4.43475866317749,"75":0.30934107303619385,"76":-0.5695094466209412,"77":1.7772254943847656,"78":3.0902037620544434,"79":-0.8804950714111328,"80":0.46311521530151367,"81":0.4725726246833801,"82":0.11684869229793549,"83":-0.3955637216567993,"84":0.43641144037246704,"85":-0.6060383319854736,"86":-0.4630812704563141,"87":-0.6804194450378418,"88":0.8317574262619019,"89":-0.2227073758840561,"90":-0.09045565128326416,"91":-0.27505233883857727,"92":-0.1569312959909439,"93":-0.02981681004166603,"94":-0.6013869643211365,"95":-0.6656128764152527,"96":0.014178591780364513,"97":-1.0220035314559937,"98":-0.40712302923202515,"99":0.3442668318748474,"100":-1.9656120538711548,"101":-0.8916316628456116,"102":0.4042418599128723,"103":0.3122425079345703,"104":1.8494184017181396,"105":-0.7256205677986145,"106":-1.309678554534912,"107":-2.559718132019043,"108":0.1576877385377884,"109":-0.852986216545105,"110":-0.5284863710403442,"111":0.025570163503289223,"112":0.2968391478061676,"113":0.33445125818252563,"114":0.04334462061524391,"115":0.018539736047387123,"116":1.5848246812820435,"117":0.3289757966995239,"118":-1.7759937047958374,"119":1.5107908248901367,"120":1.596681833267212,"121":-0.7644188404083252,"122":0.920330822467804,"123":2.4937634468078613,"124":-0.14296773076057434,"125":1.6003180742263794,"126":-0.5857623815536499,"127":-1.0301207304000854,"128":-2.10870361328125,"129":2.2415881156921387,"130":0.37989944219589233,"131":1.2353341579437256,"132":1.4714889526367188,"133":-1.2923816442489624,"134":0.12347915768623352,"135":0.15072382986545563,"136":-0.6728761196136475,"137":0.44100716710090637,"138":1.2500989437103271,"139":0.543669581413269,"140":0.9301500916481018,"141":-0.6129056811332703,"142":1.099410057067871,"143":-0.9520622491836548,"144":-1.4801065921783447,"145":0.36699363589286804,"146":-2.007784128189087,"147":0.13986597955226898,"148":1.1901370286941528,"149":1.6646745204925537,"150":-2.0050368309020996,"151":-1.1444965600967407,"152":-1.643875241279602,"153":0.7567548751831055,"154":0.2751242220401764,"155":-1.5966137647628784,"156":0.7752119898796082,"157":-0.33181554079055786,"158":-0.8890987634658813,"159":-0.050244953483343124,"160":-2.2152795791625977,"161":1.2892409563064575,"162":-1.290268898010254,"163":-0.43621617555618286,"164":2.2268381118774414,"165":0.8339128494262695,"166":2.7500009536743164,"167":1.9967032670974731,"168":-2.1656911373138428,"169":-1.5327622890472412,"170":1.9513705968856812,"171":1.2547858953475952,"172":1.0147173404693604,"173":-0.978622555732727,"174":1.0482878684997559,"175":0.023007143288850784,"176":-0.04433532431721687,"177":0.3510132431983948,"178":-0.8707761764526367,"179":-1.9116449356079102,"180":-1.0390081405639648,"181":-0.41133177280426025,"182":-0.971342146396637,"183":-0.4717385768890381,"184":1.176227331161499,"185":-0.4237109124660492,"186":1.50346839427948,"187":-2.3156914710998535,"188":0.9081130027770996,"189":-1.1208122968673706,"190":-0.997334897518158,"191":-0.5915029048919678,"192":-0.1433122456073761,"193":0.5253722071647644,"194":-1.7545958757400513,"195":-0.8792400360107422,"196":1.7194359302520752,"197":-1.7548378705978394,"198":-1.503553032875061,"199":1.0921536684036255,"200":-0.4402211308479309,"201":0.8391356468200684,"202":-1.0949310064315796,"203":0.8889168500900269,"204":0.04184333607554436,"205":-0.5723953247070312,"206":-0.30277177691459656,"207":-1.8201005458831787,"208":-0.8835533261299133,"209":0.054101135581731796,"210":-0.8593412041664124,"211":0.7741705775260925,"212":-0.5106638073921204,"213":0.10487651079893112,"214":0.8847302794456482,"215":-1.2251511812210083,"216":1.911793828010559,"217":-0.45723989605903625,"218":1.3634965419769287,"219":-1.3435742855072021,"220":1.222367763519287,"221":0.34923115372657776,"222":-0.1521482765674591,"223":-0.4260753393173218,"224":-1.9931519031524658,"225":2.8907880783081055,"226":-0.8678812980651855,"227":1.3211501836776733,"228":0.13705778121948242,"229":0.6984935998916626,"230":0.08286665380001068,"231":-1.4712724685668945,"232":-0.5658379793167114,"233":-0.6617769002914429,"234":-1.3575760126113892,"235":-0.8322142958641052,"236":0.20061618089675903,"237":-0.852911114692688,"238":-1.3524625301361084,"239":-0.9400001764297485,"240":-0.5214024782180786,"241":0.06306961923837662,"242":-0.41232237219810486,"243":-0.20361925661563873,"244":0.6817476749420166,"245":0.39243727922439575,"246":0.42214328050613403,"247":-0.09267421066761017,"248":0.4653548002243042,"249":-0.5987282991409302,"250":-0.3482050895690918,"251":-0.7416671514511108,"252":-0.10317880660295486,"253":0.2785051763057709,"254":-0.7565531730651855,"255":-0.4442293345928192,"256":0.4058653712272644,"257":-0.7223826050758362,"258":-0.4512251913547516,"259":0.11373049020767212,"260":0.672467052936554,"261":-0.9008463025093079,"262":1.284609317779541,"263":-0.041237298399209976,"264":0.48346859216690063,"265":0.2732710838317871,"266":-0.9318780899047852,"267":0.2761603891849518,"268":0.12753087282180786,"269":0.02014017477631569,"270":-0.30664297938346863,"271":-0.37559863924980164,"272":-0.9127445816993713,"273":0.12418965995311737,"274":0.5884904861450195,"275":-0.17777933180332184,"276":-0.49184855818748474,"277":0.7646883130073547,"278":-0.11573914438486099,"279":0.4518919289112091,"280":-0.5088028907775879,"281":1.4509782791137695,"282":-0.5471588373184204,"283":-1.2691559791564941,"284":0.09666382521390915,"285":-0.14635340869426727,"286":0.521914541721344,"287":-0.5097383260726929,"288":1.2893612384796143,"289":-0.3999621570110321,"290":-0.7390649318695068,"291":-0.9529479742050171,"292":-0.9880632758140564,"293":1.1210813522338867,"294":-1.3187355995178223,"295":-0.5438283085823059,"296":1.4536449909210205,"297":-1.3034346103668213,"298":-0.5468593835830688,"299":-0.9372779130935669,"300":-1.494168996810913,"301":-0.4112897217273712,"302":-1.059969186782837,"303":0.7476041316986084,"304":2.537170648574829,"305":-2.7469136714935303,"306":0.23920761048793793,"307":-0.321959912776947,"308":-0.3932311236858368,"309":-1.5856024026870728,"310":-0.6164202690124512,"311":0.4601862132549286,"312":0.21238398551940918,"313":-0.40929919481277466,"314":1.5940561294555664,"315":1.015817642211914,"316":-0.22230300307273865,"317":0.8488545417785645,"318":0.7836230397224426,"319":0.0019065093947574496,"320":1.3166613578796387,"321":-1.1868759393692017,"322":1.5011255741119385,"323":-0.6900249719619751,"324":-0.7071242928504944,"325":-1.0752077102661133,"326":-1.7912132740020752,"327":0.1813395768404007,"328":0.874847412109375,"329":1.1566252708435059,"330":-0.7081698775291443,"331":-0.7668102979660034,"332":-1.0718222856521606,"333":0.8404225707054138,"334":0.5130161643028259,"335":-0.7382832169532776,"336":0.8534111976623535,"337":-0.10708677768707275,"338":0.034080181270837784,"339":1.8435417413711548,"340":0.5946508049964905,"341":0.8361796140670776,"342":-0.29012346267700195,"343":1.876073956489563,"344":-0.4077984690666199,"345":0.42103156447410583,"346":0.35208818316459656,"347":1.202086329460144,"348":-1.4552580118179321,"349":-0.17318095266819,"350":1.0376091003417969,"351":0.3302346169948578,"352":1.2351508140563965,"353":-1.8045209646224976,"354":1.24594247341156,"355":1.0014171600341797,"356":-2.0328421592712402,"357":-0.01871948502957821,"358":1.603690266609192,"359":-0.6816498637199402,"360":-1.6640642881393433,"361":1.034262776374817,"362":-0.2120075821876526,"363":0.08688204735517502,"364":0.9631611108779907,"365":-1.5927767753601074,"366":2.0042848587036133,"367":-0.8550401926040649,"368":0.5529482364654541,"369":-3.2474400997161865,"370":0.8022903800010681,"371":0.7830356955528259,"372":3.101412534713745,"373":-0.8099175095558167,"374":-1.5544381141662598,"375":0.7980985045433044,"376":-0.6691343188285828,"377":-0.2631542980670929,"378":-0.54422527551651,"379":-0.3403879404067993,"380":-1.521725058555603,"381":0.8649488091468811,"382":-1.4278240203857422,"383":-0.0024128290824592113,"384":2.672250509262085,"385":-1.9930862188339233,"386":1.2163947820663452,"387":2.1412923336029053,"388":1.257908582687378,"389":-3.1319243907928467,"390":0.010416826233267784,"391":0.6541016101837158,"392":-0.4594624638557434,"393":0.6075929403305054,"394":-0.3910010755062103,"395":1.1600333452224731,"396":1.3066908121109009,"397":-1.2045851945877075,"398":-0.3667716085910797,"399":-0.21087656915187836,"400":-0.5449594259262085,"401":-0.061906758695840836,"402":-0.5470016598701477,"403":1.2805763483047485,"404":0.8286173939704895,"405":-0.9096486568450928,"406":0.5699067115783691,"407":0.9074953198432922,"408":-3.2475247383117676,"409":-0.024392403662204742,"410":1.4783977270126343,"411":1.6490745544433594,"412":-1.6113337278366089,"413":1.1283806562423706,"414":2.2041804790496826,"415":3.031794548034668,"416":-0.8255237340927124,"417":1.0721110105514526,"418":1.1235724687576294,"419":0.9270846247673035}},"hiddenLayers":[{"inputMatrix":{"rows":20,"columns":20,"weights":{"0":-1.6150877475738525,"1":1.4727727174758911,"2":-1.3715215921401978,"3":-0.03571803867816925,"4":2.596184492111206,"5":-1.82356595993042,"6":-0.8698002696037292,"7":-1.5246165990829468,"8":1.9040361642837524,"9":-2.037830114364624,"10":-0.6205966472625732,"11":0.16184519231319427,"12":0.4831278324127197,"13":1.0263196229934692,"14":0.6565715670585632,"15":-0.7260728478431702,"16":1.6786720752716064,"17":-0.4565577507019043,"18":-0.6425614953041077,"19":-1.505312204360962,"20":-0.9632270932197571,"21":0.39895251393318176,"22":-0.40628212690353394,"23":0.851426362991333,"24":3.2060980796813965,"25":-0.048344120383262634,"26":0.12737008929252625,"27":1.3810564279556274,"28":0.5061670541763306,"29":-2.2851967811584473,"30":-0.5349864363670349,"31":1.2307708263397217,"32":-0.043233081698417664,"33":-0.1863808035850525,"34":1.1064646244049072,"35":0.675240159034729,"36":-0.4055090844631195,"37":0.7989626526832581,"38":0.10280110687017441,"39":0.5823026299476624,"40":-2.5008206367492676,"41":0.040148839354515076,"42":-0.5011677145957947,"43":-1.480567216873169,"44":2.7763187885284424,"45":-1.5568711757659912,"46":1.2629588842391968,"47":0.6627660393714905,"48":1.2668044567108154,"49":-2.4588844776153564,"50":-0.4461882710456848,"51":-0.5564400553703308,"52":-1.140244483947754,"53":2.5647013187408447,"54":1.2193139791488647,"55":-0.15648755431175232,"56":1.217943787574768,"57":0.8145283460617065,"58":-0.9395429491996765,"59":0.8063258528709412,"60":-0.7364740371704102,"61":-0.6066444516181946,"62":-0.18544556200504303,"63":-0.6300964951515198,"64":1.887829065322876,"65":-2.8831212520599365,"66":-0.7544990181922913,"67":-2.8523943424224854,"68":1.1441998481750488,"69":-3.091336488723755,"70":-0.0337396115064621,"71":-0.32206612825393677,"72":0.3010827898979187,"73":-0.09931960701942444,"74":-1.3191866874694824,"75":-0.4492250680923462,"76":1.9490667581558228,"77":-1.071424961090088,"78":-1.2397915124893188,"79":1.0742899179458618,"80":-3.644044876098633,"81":0.7861020565032959,"82":-2.5816903114318848,"83":1.4216266870498657,"84":1.235766053199768,"85":-2.677867889404297,"86":3.4541118144989014,"87":1.7161223888397217,"88":-1.2601736783981323,"89":-1.899727463722229,"90":0.9937297105789185,"91":1.7729742527008057,"92":0.3776357173919678,"93":0.48082202672958374,"94":0.6390668749809265,"95":2.8755040168762207,"96":0.9215430021286011,"97":0.031076908111572266,"98":0.760484516620636,"99":-0.7522969841957092,"100":1.110906958580017,"101":-0.6472147107124329,"102":1.295230746269226,"103":2.5835118293762207,"104":-1.2714978456497192,"105":0.030048681423068047,"106":0.5130844116210938,"107":2.1351845264434814,"108":0.24105414748191833,"109":1.174444317817688,"110":0.3652005195617676,"111":-0.6749380826950073,"112":1.0363997220993042,"113":-1.2990139722824097,"114":-2.006272077560425,"115":0.38574355840682983,"116":-1.686956763267517,"117":-1.6172220706939697,"118":0.40235838294029236,"119":-0.4628870189189911,"120":-1.1707438230514526,"121":0.2980043590068817,"122":-0.9743027687072754,"123":1.0574204921722412,"124":0.025239992886781693,"125":1.0347203016281128,"126":4.352397441864014,"127":1.1265461444854736,"128":-1.1843178272247314,"129":-1.01785409450531,"130":2.8417208194732666,"131":0.724571943283081,"132":2.602475166320801,"133":-3.0074920654296875,"134":-0.8019373416900635,"135":2.0052876472473145,"136":-0.8735883831977844,"137":0.8989354372024536,"138":-0.526471734046936,"139":-0.2031353861093521,"140":0.6796990036964417,"141":-0.836616575717926,"142":0.5396024584770203,"143":-1.2611937522888184,"144":-0.6513051390647888,"145":1.8161379098892212,"146":-1.0382527112960815,"147":-0.6420168280601501,"148":1.464092493057251,"149":0.2885749042034149,"150":-1.1165000200271606,"151":-2.0420315265655518,"152":-1.7152389287948608,"153":0.8059831857681274,"154":-0.16461285948753357,"155":-3.7273831367492676,"156":0.6897248029708862,"157":-0.5323950052261353,"158":-1.9977301359176636,"159":1.217260718345642,"160":-0.2598888576030731,"161":2.047384023666382,"162":-1.3987152576446533,"163":-0.6329326629638672,"164":-0.901935338973999,"165":1.7738208770751953,"166":0.72630375623703,"167":-1.3517252206802368,"168":0.05385783314704895,"169":1.105370283126831,"170":-0.8301852345466614,"171":-0.5887868404388428,"172":-0.08515246957540512,"173":0.39521315693855286,"174":-2.558403730392456,"175":-1.0135481357574463,"176":0.8809217214584351,"177":-1.2572643756866455,"178":-0.31377750635147095,"179":-0.4367603659629822,"180":-3.596529960632324,"181":0.003976537846028805,"182":-2.0882370471954346,"183":-0.30988937616348267,"184":2.955857992172241,"185":-2.2193350791931152,"186":1.4776766300201416,"187":-2.7809720039367676,"188":0.3740297853946686,"189":-3.2408344745635986,"190":-0.2657095491886139,"191":0.0038785317447036505,"192":-0.4085615575313568,"193":0.5125051736831665,"194":-0.3925040662288666,"195":0.24797597527503967,"196":1.8461273908615112,"197":-1.4697694778442383,"198":-1.575501799583435,"199":1.1937940120697021,"200":1.464587688446045,"201":0.0515282079577446,"202":2.062032699584961,"203":-1.097612977027893,"204":-0.8765244483947754,"205":1.073001503944397,"206":-1.512016773223877,"207":-0.7790235877037048,"208":0.644564688205719,"209":1.5989315509796143,"210":-1.3870422840118408,"211":-1.0974493026733398,"212":-1.5541540384292603,"213":1.1485114097595215,"214":-0.5526184439659119,"215":-1.1335026025772095,"216":0.02709372341632843,"217":0.3774625360965729,"218":-1.455751895904541,"219":-0.015272303484380245,"220":-1.4552818536758423,"221":-1.446826696395874,"222":0.9617408514022827,"223":-1.6159007549285889,"224":3.1324315071105957,"225":1.2616748809814453,"226":1.6452196836471558,"227":-2.009774923324585,"228":1.0105080604553223,"229":-0.24032728374004364,"230":-0.9008280634880066,"231":0.6575576066970825,"232":1.5739697217941284,"233":-0.6172731518745422,"234":-1.1729260683059692,"235":-1.0084009170532227,"236":0.4548968970775604,"237":0.03929397463798523,"238":-2.124882936477661,"239":1.0015530586242676,"240":0.11126182973384857,"241":-1.3437526226043701,"242":-1.2644227743148804,"243":-3.08833384513855,"244":0.1867935210466385,"245":0.3588150441646576,"246":-0.25206345319747925,"247":0.7280307412147522,"248":1.4056648015975952,"249":0.9767484664916992,"250":-2.1619184017181396,"251":-1.139219045639038,"252":-3.221254587173462,"253":3.128275156021118,"254":-0.7025088667869568,"255":-1.4491480588912964,"256":0.6465886235237122,"257":-0.6863700151443481,"258":-2.226196765899658,"259":0.5484158992767334,"260":-2.3851191997528076,"261":0.5873825550079346,"262":-1.2295863628387451,"263":-1.5706058740615845,"264":0.011772969737648964,"265":1.3998754024505615,"266":1.9415751695632935,"267":0.8096569776535034,"268":-0.07619524002075195,"269":-1.8769522905349731,"270":0.8499281406402588,"271":-0.3189616799354553,"272":-1.2012429237365723,"273":1.1616272926330566,"274":-1.532848596572876,"275":0.39263829588890076,"276":0.3462631404399872,"277":-0.9815106987953186,"278":-1.371529459953308,"279":-1.5437772274017334,"280":2.574350595474243,"281":-1.6203458309173584,"282":0.672619104385376,"283":0.9905602931976318,"284":-0.7814928889274597,"285":-0.4354872405529022,"286":-1.3940171003341675,"287":0.12151387333869934,"288":0.6082106828689575,"289":1.9089828729629517,"290":-1.6249728202819824,"291":-0.6391147375106812,"292":-0.9977240562438965,"293":-1.5776722431182861,"294":-0.13209258019924164,"295":0.7988155484199524,"296":-0.9860734343528748,"297":1.3970712423324585,"298":1.0797204971313477,"299":1.2906752824783325,"300":-0.12802593410015106,"301":-0.8661198616027832,"302":0.8279710412025452,"303":-1.124070405960083,"304":0.9326275587081909,"305":-0.08991862088441849,"306":-0.7787309885025024,"307":-3.247427463531494,"308":1.1810662746429443,"309":0.806973397731781,"310":-1.6633045673370361,"311":-0.33530741930007935,"312":-0.7415392994880676,"313":1.4339665174484253,"314":-0.3947395980358124,"315":-2.285252809524536,"316":1.3394705057144165,"317":-0.6737421154975891,"318":-1.2275203466415405,"319":1.4031949043273926,"320":-1.4563010931015015,"321":2.344860076904297,"322":-0.6375159025192261,"323":-0.25456616282463074,"324":2.95061993598938,"325":-1.6357762813568115,"326":1.1189416646957397,"327":-0.5463430285453796,"328":-0.2610849440097809,"329":-2.16499924659729,"330":-0.5400545001029968,"331":-1.3971152305603027,"332":-0.33536431193351746,"333":0.49686843156814575,"334":-2.0433108806610107,"335":-1.3437731266021729,"336":2.4789133071899414,"337":-2.0781450271606445,"338":-1.730507731437683,"339":-0.5235161781311035,"340":-0.3277519941329956,"341":-1.6385828256607056,"342":0.6340173482894897,"343":-3.002277374267578,"344":0.5285619497299194,"345":-1.0067251920700073,"346":0.932533860206604,"347":-3.6130428314208984,"348":1.946789026260376,"349":-1.1734602451324463,"350":-0.7603147625923157,"351":0.07187935709953308,"352":-0.7960694432258606,"353":1.2264076471328735,"354":-0.3957062363624573,"355":-1.6436536312103271,"356":2.474064588546753,"357":-1.2433948516845703,"358":-1.5129567384719849,"359":2.005065441131592,"360":-0.936471700668335,"361":-0.23702122271060944,"362":0.5952388048171997,"363":0.23724840581417084,"364":0.4042515754699707,"365":-1.023361325263977,"366":-0.2722923457622528,"367":-2.2131621837615967,"368":2.576493740081787,"369":-1.5621625185012817,"370":-1.1506154537200928,"371":-0.2659033238887787,"372":0.4402572810649872,"373":0.7510575652122498,"374":-3.6092846393585205,"375":0.10194408148527145,"376":1.007185697555542,"377":-1.2852919101715088,"378":-1.1694962978363037,"379":0.02134409174323082,"380":-1.3477210998535156,"381":-0.568171501159668,"382":1.0457559823989868,"383":-0.9246107935905457,"384":-0.06275109946727753,"385":0.39636725187301636,"386":-0.3568347692489624,"387":-1.1602308750152588,"388":0.7477859258651733,"389":-0.04047993943095207,"390":-1.5995486974716187,"391":-2.510711193084717,"392":0.7779831886291504,"393":-0.488015353679657,"394":-2.647554874420166,"395":-0.44950371980667114,"396":0.4742860198020935,"397":-1.3662593364715576,"398":-2.8770909309387207,"399":0.7258324027061462}},"inputHidden":{"rows":20,"columns":20,"weights":{"0":1.3018651008605957,"1":-0.7762947082519531,"2":0.6486810445785522,"3":0.30194973945617676,"4":-0.1713210493326187,"5":0.9121150374412537,"6":0.23450429737567902,"7":-0.06731206923723221,"8":0.46275097131729126,"9":-0.3515632152557373,"10":-0.16409648954868317,"11":-0.660541296005249,"12":-0.9528371095657349,"13":-0.655165433883667,"14":-1.2692316770553589,"15":-0.33298394083976746,"16":0.6242045164108276,"17":-0.9081551432609558,"18":-0.13201265037059784,"19":-1.0776951313018799,"20":2.3122079372406006,"21":0.6586689352989197,"22":0.18359114229679108,"23":0.593708336353302,"24":-1.5417455434799194,"25":0.5165733695030212,"26":-0.076856330037117,"27":-0.28011295199394226,"28":0.8982324600219727,"29":-0.27180540561676025,"30":2.103015899658203,"31":-1.5729426145553589,"32":1.1347929239273071,"33":-1.5235012769699097,"34":0.7804912328720093,"35":-0.09655268490314484,"36":-1.12244713306427,"37":-0.7307025194168091,"38":-0.99509596824646,"39":0.8532689809799194,"40":0.660958468914032,"41":-1.2046518325805664,"42":0.36012643575668335,"43":1.1674381494522095,"44":0.969971239566803,"45":0.0671520009636879,"46":1.4237487316131592,"47":-0.1370122879743576,"48":2.5457277297973633,"49":-1.2693932056427002,"50":1.853934407234192,"51":0.8644939064979553,"52":2.7732255458831787,"53":-0.5189506411552429,"54":-0.8126465082168579,"55":-3.0650904178619385,"56":-0.21599054336547852,"57":-1.2002588510513306,"58":1.7873077392578125,"59":0.44708240032196045,"60":-0.6671099066734314,"61":-0.2694248557090759,"62":0.1488644778728485,"63":0.19982163608074188,"64":-1.3769553899765015,"65":-0.7618471384048462,"66":1.492800235748291,"67":-2.651815891265869,"68":-0.6055318713188171,"69":-0.5325945615768433,"70":-0.793280303478241,"71":-0.19972316920757294,"72":-1.137467861175537,"73":0.418885737657547,"74":-1.4456061124801636,"75":-1.2192267179489136,"76":-0.668380081653595,"77":-2.159227132797241,"78":-1.5452052354812622,"79":0.9175028204917908,"80":1.49396550655365,"81":-2.0315325260162354,"82":0.44222551584243774,"83":-0.5402677655220032,"84":-0.1448066681623459,"85":0.4417329728603363,"86":1.07858145236969,"87":-1.5036334991455078,"88":-0.14073972404003143,"89":0.5701289176940918,"90":0.34119072556495667,"91":0.8612353801727295,"92":0.13581912219524384,"93":0.09926224499940872,"94":-0.07940380275249481,"95":-0.665438711643219,"96":-0.17102809250354767,"97":-0.8737391233444214,"98":-1.5629557371139526,"99":-0.3027164340019226,"100":1.3541960716247559,"101":-1.5489602088928223,"102":-0.3850311040878296,"103":0.39953261613845825,"104":-0.9242354035377502,"105":-2.9111502170562744,"106":0.7762196660041809,"107":-0.7871453166007996,"108":-1.21540367603302,"109":-2.8047218322753906,"110":-0.36830198764801025,"111":1.3593051433563232,"112":-2.296360731124878,"113":1.1135789155960083,"114":1.7237818241119385,"115":-0.3864065110683441,"116":-2.8408408164978027,"117":0.9696227312088013,"118":0.26428183913230896,"119":1.3279567956924438,"120":0.9022793173789978,"121":-1.5017437934875488,"122":2.04744553565979,"123":1.9117183685302734,"124":-0.879635751247406,"125":-1.527858853340149,"126":-1.414871335029602,"127":-1.1268726587295532,"128":-0.23201800882816315,"129":-1.0770331621170044,"130":0.45169055461883545,"131":0.3394763171672821,"132":-0.8693147301673889,"133":-1.2486857175827026,"134":0.5067796111106873,"135":-1.5409067869186401,"136":0.5823951363563538,"137":-0.3822420835494995,"138":2.0121936798095703,"139":0.23271915316581726,"140":0.2654031813144684,"141":0.08888354152441025,"142":-0.9024838805198669,"143":-0.8687484860420227,"144":-0.7638413906097412,"145":1.4530223608016968,"146":0.6004830598831177,"147":2.012796401977539,"148":-0.08360318094491959,"149":0.7118234634399414,"150":-3.643045425415039,"151":-0.3243321180343628,"152":-2.8850650787353516,"153":0.3605947494506836,"154":-1.7569615840911865,"155":2.212737560272217,"156":-1.9542027711868286,"157":-2.6600840091705322,"158":0.8035538196563721,"159":2.64963436126709,"160":-0.23947127163410187,"161":0.9360820651054382,"162":-0.8473320603370667,"163":0.2391943335533142,"164":-1.5705902576446533,"165":-1.1622865200042725,"166":2.264805555343628,"167":-1.027474045753479,"168":-0.39165815711021423,"169":-0.9236112833023071,"170":0.127626433968544,"171":-0.7953928709030151,"172":-0.3117861747741699,"173":0.5729093551635742,"174":0.253277063369751,"175":0.38670969009399414,"176":-1.4836468696594238,"177":0.8935451507568359,"178":1.1445223093032837,"179":0.43883398175239563,"180":-1.3415523767471313,"181":-1.6512945890426636,"182":-0.9612705111503601,"183":-0.9640626311302185,"184":-0.37362945079803467,"185":0.5811699032783508,"186":-0.32354792952537537,"187":0.8812127113342285,"188":-0.30199843645095825,"189":-2.0775203704833984,"190":2.3299362659454346,"191":-1.885379672050476,"192":-0.6084966659545898,"193":0.5009585618972778,"194":-0.48249655961990356,"195":-0.5261906385421753,"196":0.9720320105552673,"197":-0.44998887181282043,"198":0.9597308039665222,"199":-0.6369209289550781,"200":0.11800146102905273,"201":-1.3462791442871094,"202":0.358845055103302,"203":0.6817175149917603,"204":0.7227910161018372,"205":0.3712884485721588,"206":-0.531429648399353,"207":0.9566138982772827,"208":-2.436361789703369,"209":0.8681478500366211,"210":-0.31621676683425903,"211":0.5022491216659546,"212":-2.263197660446167,"213":-0.15835842490196228,"214":-1.356303095817566,"215":1.4411286115646362,"216":0.04299343004822731,"217":-1.1237789392471313,"218":1.507601261138916,"219":0.28644222021102905,"220":-1.0683995485305786,"221":-0.6633136868476868,"222":0.7953470349311829,"223":-0.28514528274536133,"224":1.0924413204193115,"225":2.1525707244873047,"226":0.47314080595970154,"227":3.3648014068603516,"228":0.44610166549682617,"229":1.7279444932937622,"230":-1.1476795673370361,"231":-0.016012391075491905,"232":-2.026679277420044,"233":-0.2707582116127014,"234":-2.592545986175537,"235":0.32299545407295227,"236":0.9227603077888489,"237":-0.02174059860408306,"238":0.584325909614563,"239":1.462140679359436,"240":-0.7709804177284241,"241":-3.0104291439056396,"242":-1.2947590351104736,"243":-0.1892813742160797,"244":1.180018424987793,"245":0.6919072270393372,"246":-0.9214687943458557,"247":1.9974703788757324,"248":1.468930959701538,"249":0.6437766551971436,"250":1.071598768234253,"251":1.015932321548462,"252":-0.0971616804599762,"253":-0.8648859262466431,"254":-1.4180587530136108,"255":0.7227800488471985,"256":1.6135828495025635,"257":-1.2621796131134033,"258":1.0758583545684814,"259":-1.171770453453064,"260":1.7814409732818604,"261":-0.5269380807876587,"262":0.8839181661605835,"263":0.4341461956501007,"264":1.0384581089019775,"265":2.3243722915649414,"266":-0.2985621392726898,"267":1.7581000328063965,"268":-0.45854565501213074,"269":2.160893201828003,"270":-1.1332190036773682,"271":-1.1644459962844849,"272":-1.0475714206695557,"273":1.0608354806900024,"274":-0.4159916043281555,"275":-1.0547891855239868,"276":0.17539606988430023,"277":-1.2799134254455566,"278":-0.9610897302627563,"279":-1.3838858604431152,"280":-1.9599270820617676,"281":-0.32234877347946167,"282":-0.24515540897846222,"283":-0.4669899642467499,"284":0.5317975878715515,"285":0.5584533214569092,"286":-1.3380569219589233,"287":2.6056294441223145,"288":2.481438636779785,"289":1.968712329864502,"290":-0.18395008146762848,"291":0.46485111117362976,"292":0.3013438284397125,"293":0.9022290110588074,"294":-2.3192050457000732,"295":-0.48003947734832764,"296":-1.7803083658218384,"297":1.6325887441635132,"298":-2.8077170848846436,"299":1.0684990882873535,"300":1.2361576557159424,"301":0.6823508739471436,"302":0.19868190586566925,"303":0.3066677451133728,"304":-0.6440544724464417,"305":0.7298030853271484,"306":0.04536601901054382,"307":0.5079241991043091,"308":-0.1467846930027008,"309":0.2553550899028778,"310":-0.022070014849305153,"311":0.6594200134277344,"312":-0.20848532021045685,"313":-0.8419809341430664,"314":0.22558915615081787,"315":-0.08983033895492554,"316":0.1202813982963562,"317":-1.1563435792922974,"318":1.0105185508728027,"319":0.6911187171936035,"320":-0.5296609997749329,"321":0.9710635542869568,"322":0.096066415309906,"323":0.8695666193962097,"324":-2.3060734272003174,"325":-0.42200762033462524,"326":-0.7777158617973328,"327":-1.29156494140625,"328":1.8731451034545898,"329":-0.9673736095428467,"330":-1.2060483694076538,"331":-1.0475437641143799,"332":0.8904968500137329,"333":-1.408013939857483,"334":0.6102441549301147,"335":0.37073999643325806,"336":-0.5447360277175903,"337":0.619547426700592,"338":-0.01798318140208721,"339":-0.0366457998752594,"340":-1.6757913827896118,"341":3.1001479625701904,"342":-1.6570125818252563,"343":-1.448685646057129,"344":1.4933046102523804,"345":-0.13937710225582123,"346":0.4323844313621521,"347":2.246803045272827,"348":-0.8772969841957092,"349":-2.4619932174682617,"350":0.3605564832687378,"351":-0.11124412715435028,"352":-0.48318809270858765,"353":-0.6040882468223572,"354":3.5166420936584473,"355":-1.1102244853973389,"356":0.9095357060432434,"357":0.40921804308891296,"358":0.35149940848350525,"359":-1.2743879556655884,"360":0.00985135231167078,"361":1.4596772193908691,"362":0.2695632874965668,"363":0.17077340185642242,"364":-1.7303420305252075,"365":-0.7720928192138672,"366":2.084247589111328,"367":-1.2169290781021118,"368":-0.6869980096817017,"369":-2.1477413177490234,"370":-0.14915521442890167,"371":-0.6639524102210999,"372":-1.7023981809616089,"373":-0.22662973403930664,"374":0.33454421162605286,"375":-0.8520645499229431,"376":-0.5743841528892517,"377":-2.875314950942993,"378":-0.42860567569732666,"379":-0.9776698350906372,"380":-0.24979211390018463,"381":0.4915620684623718,"382":-0.7292705774307251,"383":2.4585530757904053,"384":-0.3932366669178009,"385":-0.9147176742553711,"386":1.254220724105835,"387":-1.2549898624420166,"388":1.438238263130188,"389":0.6497278809547424,"390":-1.3137620687484741,"391":-0.3291354179382324,"392":0.4952065348625183,"393":-1.6619458198547363,"394":-0.5255133509635925,"395":-0.0828273668885231,"396":-2.857558250427246,"397":-1.4973310232162476,"398":2.1486194133758545,"399":2.49765682220459}},"inputBias":{"rows":20,"columns":1,"weights":{"0":-1.544002890586853,"1":-2.142310857772827,"2":-0.6534740328788757,"3":-4.107430934906006,"4":-1.2285634279251099,"5":-0.669474720954895,"6":-0.4019215703010559,"7":-0.3529726266860962,"8":0.8157333135604858,"9":-0.19573046267032623,"10":-0.3840424716472626,"11":3.0257863998413086,"12":-0.3892318904399872,"13":-0.5624723434448242,"14":0.4609912037849426,"15":-0.7236377000808716,"16":-2.1184158325195312,"17":1.2045613527297974,"18":-0.22264373302459717,"19":-1.9636728763580322}},"forgetMatrix":{"rows":20,"columns":20,"weights":{"0":-1.8538938760757446,"1":1.6937483549118042,"2":-1.7412303686141968,"3":-0.04690892621874809,"4":-0.07087040692567825,"5":0.09238030761480331,"6":-0.1987958550453186,"7":0.8867322206497192,"8":1.0246225595474243,"9":-0.5487131476402283,"10":-0.7677465081214905,"11":-1.678318738937378,"12":-0.5019193291664124,"13":1.022581934928894,"14":-0.6324471831321716,"15":-0.3021947741508484,"16":0.522537112236023,"17":-1.5803958177566528,"18":-0.7960106730461121,"19":-1.4518113136291504,"20":-0.09443610906600952,"21":-0.13241226971149445,"22":0.46999824047088623,"23":2.4950835704803467,"24":-0.30362850427627563,"25":-0.6477367877960205,"26":1.720949411392212,"27":-1.6939713954925537,"28":-2.377481698989868,"29":-0.4994877874851227,"30":1.1520683765411377,"31":0.24433016777038574,"32":2.5151681900024414,"33":-1.7266789674758911,"34":0.7697515487670898,"35":0.6176856160163879,"36":-0.3906107246875763,"37":1.4178537130355835,"38":0.276426762342453,"39":-0.5418018102645874,"40":-0.9211472868919373,"41":1.5090045928955078,"42":-0.2234988808631897,"43":1.5702672004699707,"44":0.5368829965591431,"45":0.06802535057067871,"46":0.7150115370750427,"47":3.0052642822265625,"48":-1.5325385332107544,"49":0.1999800056219101,"50":1.345578670501709,"51":0.7156103253364563,"52":0.6495409607887268,"53":-1.202751874923706,"54":0.12021090090274811,"55":1.7020033597946167,"56":-0.3834279775619507,"57":0.1832953840494156,"58":0.00273934961296618,"59":-1.7913389205932617,"60":-1.5431935787200928,"61":0.7125238180160522,"62":-1.4012501239776611,"63":1.0607374906539917,"64":0.9285556674003601,"65":-0.0023002787493169308,"66":1.7899583578109741,"67":1.566733717918396,"68":-1.0746662616729736,"69":-1.3221880197525024,"70":0.5861387848854065,"71":0.36694392561912537,"72":0.6239578723907471,"73":-0.7923548817634583,"74":0.8690667152404785,"75":1.328803300857544,"76":-1.356537938117981,"77":1.309273362159729,"78":0.07041134685277939,"79":-1.830683708190918,"80":1.4760987758636475,"81":1.038960337638855,"82":0.28665924072265625,"83":0.9893510341644287,"84":-2.3324122428894043,"85":-0.11437159031629562,"86":-0.4053044319152832,"87":1.831695556640625,"88":-1.321545958518982,"89":1.6127190589904785,"90":0.9205669164657593,"91":1.2066278457641602,"92":1.2820155620574951,"93":-0.7937740683555603,"94":0.05620809271931648,"95":0.14553630352020264,"96":-0.07426004111766815,"97":-0.6151777505874634,"98":1.9885140657424927,"99":-0.3962128162384033,"100":-1.4343197345733643,"101":2.495478868484497,"102":-1.5056612491607666,"103":-0.9337422251701355,"104":0.6717694401741028,"105":-0.18889446556568146,"106":1.6213061809539795,"107":0.6120297312736511,"108":1.2647751569747925,"109":-1.4769299030303955,"110":0.3502168357372284,"111":0.16211621463298798,"112":0.692282497882843,"113":1.0849316120147705,"114":0.016069892793893814,"115":-0.8181677460670471,"116":0.3494265377521515,"117":0.037867333739995956,"118":0.9139198064804077,"119":-3.3498499393463135,"120":-0.2526484727859497,"121":-0.8443297743797302,"122":0.9726595878601074,"123":0.3051827847957611,"124":0.674170970916748,"125":-2.4899160861968994,"126":-1.031073808670044,"127":-1.376916527748108,"128":0.6401216983795166,"129":-0.15713444352149963,"130":-2.001471519470215,"131":-1.1778764724731445,"132":-1.8538557291030884,"133":2.002756357192993,"134":-0.5702711343765259,"135":-0.5563303828239441,"136":1.312131404876709,"137":-1.4770193099975586,"138":-0.41330310702323914,"139":1.5690988302230835,"140":-0.6168538928031921,"141":-0.5423463582992554,"142":1.2697091102600098,"143":1.6433343887329102,"144":0.04406198486685753,"145":-0.21341170370578766,"146":-0.5369888544082642,"147":0.172649085521698,"148":0.33988532423973083,"149":0.6677642464637756,"150":1.0402765274047852,"151":4.419418811798096,"152":2.635632276535034,"153":0.23851169645786285,"154":1.003075122833252,"155":3.0511655807495117,"156":-2.5354816913604736,"157":0.23221354186534882,"158":1.6203444004058838,"159":0.8040672540664673,"160":-0.17805932462215424,"161":1.818832278251648,"162":-1.7963154315948486,"163":0.001286617130972445,"164":-1.5948463678359985,"165":0.1103082075715065,"166":3.1142971515655518,"167":2.5582809448242188,"168":-0.1450742930173874,"169":-1.8443958759307861,"170":0.7247999906539917,"171":-0.0727798193693161,"172":0.45021048188209534,"173":-0.6873299479484558,"174":-0.04806174337863922,"175":1.2354949712753296,"176":-0.32291680574417114,"177":0.4581288993358612,"178":-0.27462098002433777,"179":-2.6977853775024414,"180":-2.071183919906616,"181":0.4056602418422699,"182":-1.2613894939422607,"183":2.240166425704956,"184":-0.07398345321416855,"185":-1.5169492959976196,"186":2.7484569549560547,"187":0.8770451545715332,"188":-2.1991000175476074,"189":-0.3939798176288605,"190":1.240693211555481,"191":2.1736013889312744,"192":0.8569081425666809,"193":-0.6843217611312866,"194":1.1214197874069214,"195":2.9105145931243896,"196":0.531109094619751,"197":0.09878722578287125,"198":2.640010356903076,"199":-2.007399797439575,"200":-1.924452781677246,"201":1.688130259513855,"202":-1.9951683282852173,"203":0.5293093323707581,"204":1.2020739316940308,"205":-2.772249460220337,"206":1.4507676362991333,"207":0.5317111015319824,"208":-0.49832552671432495,"209":-1.103532075881958,"210":0.5097715258598328,"211":-1.6042271852493286,"212":-0.22185483574867249,"213":-0.1562429517507553,"214":-1.6303378343582153,"215":0.008264584466814995,"216":0.9284199476242065,"217":-0.8789442777633667,"218":0.46747496724128723,"219":-0.7709316611289978,"220":-0.4593923091888428,"221":-0.05177490785717964,"222":0.48204779624938965,"223":-0.8930306434631348,"224":1.122600793838501,"225":-1.110237956047058,"226":-0.8182094693183899,"227":-1.605910301208496,"228":1.0165258646011353,"229":-0.1909470111131668,"230":-1.6919163465499878,"231":-0.14981020987033844,"232":-1.3841062784194946,"233":2.5315582752227783,"234":-0.1514444500207901,"235":-0.34858301281929016,"236":2.7804031372070312,"237":-0.47480538487434387,"238":-0.4671950936317444,"239":0.6962901949882507,"240":1.318590760231018,"241":-0.64955735206604,"242":2.0159900188446045,"243":0.2487429529428482,"244":-0.17423181235790253,"245":0.6855186223983765,"246":-1.6739284992218018,"247":2.824676752090454,"248":-0.26835882663726807,"249":1.206446647644043,"250":-0.061202093958854675,"251":-1.055850625038147,"252":-0.43735483288764954,"253":0.3233379125595093,"254":1.4418079853057861,"255":-0.3671024441719055,"256":-1.643595576286316,"257":1.3835067749023438,"258":1.4883419275283813,"259":0.4174332320690155,"260":-1.0609227418899536,"261":0.41027969121932983,"262":-0.05418922379612923,"263":-1.825587272644043,"264":0.2913769781589508,"265":-0.22626835107803345,"266":0.4179126024246216,"267":-0.34985703229904175,"268":1.814298391342163,"269":-0.2835078835487366,"270":-1.286129355430603,"271":-1.8312186002731323,"272":-1.2168326377868652,"273":2.001819610595703,"274":-2.422795057296753,"275":-1.9282476902008057,"276":1.1027605533599854,"277":-2.5186846256256104,"278":-1.9140851497650146,"279":-0.248341903090477,"280":0.5171915292739868,"281":0.2982292175292969,"282":0.7723076939582825,"283":1.0663446187973022,"284":-1.436800241470337,"285":-0.5905317664146423,"286":-0.43274587392807007,"287":-0.4162188768386841,"288":0.7045100331306458,"289":1.4091553688049316,"290":-0.8572535514831543,"291":-2.097079038619995,"292":-0.5596042275428772,"293":-1.6613104343414307,"294":-0.3994540274143219,"295":-0.01549883745610714,"296":-1.3749806880950928,"297":-0.9573115110397339,"298":0.151363343000412,"299":-1.1713637113571167,"300":-1.2787591218948364,"301":1.4095890522003174,"302":-1.8339946269989014,"303":1.678997278213501,"304":0.806350827217102,"305":-2.045295000076294,"306":1.5205787420272827,"307":0.6089087128639221,"308":-1.434199333190918,"309":-0.5351046323776245,"310":0.3953414857387543,"311":0.6815894246101379,"312":-0.4487716853618622,"313":-0.20381858944892883,"314":1.8496345281600952,"315":0.7269477844238281,"316":0.20163573324680328,"317":0.16304083168506622,"318":2.0236856937408447,"319":-1.9798346757888794,"320":-0.48148488998413086,"321":1.7236837148666382,"322":-1.1782413721084595,"323":-0.10934324562549591,"324":0.33685538172721863,"325":-1.1109862327575684,"326":1.5724331140518188,"327":1.1100884675979614,"328":-0.7522740364074707,"329":-2.158285140991211,"330":1.1920526027679443,"331":-0.019487928599119186,"332":1.9986859560012817,"333":-1.140697956085205,"334":-1.9715484380722046,"335":1.2929377555847168,"336":0.11823132634162903,"337":-0.9457884430885315,"338":-0.5918681025505066,"339":-1.970739722251892,"340":1.3149194717407227,"341":-1.7923635244369507,"342":0.787212073802948,"343":1.5632097721099854,"344":0.4932999312877655,"345":-2.269195079803467,"346":-2.390594482421875,"347":-0.11582424491643906,"348":-0.10945022851228714,"349":1.4984078407287598,"350":-0.6014676690101624,"351":1.0358225107192993,"352":-1.4406492710113525,"353":0.9541035294532776,"354":1.8405320644378662,"355":0.5120267868041992,"356":-0.058989014476537704,"357":1.0839757919311523,"358":2.164860486984253,"359":1.75330650806427,"360":0.12108059227466583,"361":1.3473820686340332,"362":-1.3718163967132568,"363":2.0266940593719482,"364":-1.3003040552139282,"365":1.4573237895965576,"366":0.491045743227005,"367":1.4720754623413086,"368":-2.261535406112671,"369":-0.05432625487446785,"370":1.4817577600479126,"371":0.12254170328378677,"372":0.5016304850578308,"373":-1.5362629890441895,"374":1.1309763193130493,"375":-0.24648959934711456,"376":-1.7618376016616821,"377":1.27854323387146,"378":1.1094517707824707,"379":-1.6457332372665405,"380":0.9331917762756348,"381":-0.6585832834243774,"382":1.864725947380066,"383":-1.5563292503356934,"384":-0.08650023490190506,"385":2.340869188308716,"386":-0.6332772970199585,"387":2.2184810638427734,"388":0.9328156113624573,"389":0.7427459955215454,"390":0.2588866055011749,"391":-1.2222774028778076,"392":-0.349549800157547,"393":0.13991592824459076,"394":1.1290980577468872,"395":-0.18004824221134186,"396":-1.5311074256896973,"397":1.5748473405838013,"398":-0.7290535569190979,"399":-1.539612889289856}},"forgetHidden":{"rows":20,"columns":20,"weights":{"0":-1.6171354055404663,"1":-0.1262165755033493,"2":-0.47861045598983765,"3":-0.1976233869791031,"4":0.543094277381897,"5":-0.5042940974235535,"6":0.21147821843624115,"7":0.3635595440864563,"8":0.3615502119064331,"9":0.45579448342323303,"10":0.7159066200256348,"11":-2.095606803894043,"12":0.3576742112636566,"13":0.6155599355697632,"14":-0.4098978340625763,"15":0.704979658126831,"16":-1.2089650630950928,"17":2.0536646842956543,"18":-1.2946922779083252,"19":1.4995759725570679,"20":1.3519411087036133,"21":0.9250773787498474,"22":1.0590018033981323,"23":0.884523332118988,"24":-0.3411795496940613,"25":1.0857270956039429,"26":-3.5006983280181885,"27":-0.6760614514350891,"28":1.8252992630004883,"29":0.45486027002334595,"30":1.4581948518753052,"31":-0.4609385132789612,"32":-0.6370323896408081,"33":2.713794469833374,"34":-0.9379721283912659,"35":-1.5518122911453247,"36":0.73381507396698,"37":-0.4074520170688629,"38":2.140471935272217,"39":-1.7387117147445679,"40":-1.166494369506836,"41":0.722697377204895,"42":-0.5496677756309509,"43":-0.2480234056711197,"44":0.3051108419895172,"45":0.05768774449825287,"46":0.33579686284065247,"47":0.19582101702690125,"48":-0.35877668857574463,"49":0.7916140556335449,"50":-1.5083686113357544,"51":-0.7962798476219177,"52":-0.9184511303901672,"53":-0.15926703810691833,"54":-1.3968719244003296,"55":0.24207904934883118,"56":-1.6410534381866455,"57":-0.3157030940055847,"58":-0.9255009293556213,"59":0.39498254656791687,"60":-0.05816401541233063,"61":1.3685771226882935,"62":-0.196547269821167,"63":-0.3796880543231964,"64":-1.1983274221420288,"65":-0.8893893957138062,"66":0.0515495240688324,"67":0.297133207321167,"68":-1.012089490890503,"69":-0.4409556984901428,"70":-0.7410982847213745,"71":-1.2759047746658325,"72":0.3081730306148529,"73":-0.9570140838623047,"74":-0.2669942080974579,"75":0.33482885360717773,"76":-0.8024948835372925,"77":-0.15466956794261932,"78":-0.5607158541679382,"79":0.7617480158805847,"80":0.7610508799552917,"81":2.1889894008636475,"82":1.2246310710906982,"83":-0.16713477671146393,"84":0.30418989062309265,"85":-0.4486439526081085,"86":-0.31755945086479187,"87":0.36810681223869324,"88":-1.4198230504989624,"89":-0.885369062423706,"90":0.6184775829315186,"91":-1.8123821020126343,"92":-0.59051513671875,"93":-1.0432343482971191,"94":1.3766192197799683,"95":-0.7608352899551392,"96":-1.6681067943572998,"97":0.6354202628135681,"98":2.5822641849517822,"99":-2.0332677364349365,"100":0.11079620569944382,"101":-1.084863305091858,"102":-0.11910098791122437,"103":0.3283233344554901,"104":-1.1177140474319458,"105":0.7171960473060608,"106":-1.7833577394485474,"107":-0.05319266393780708,"108":-1.044867753982544,"109":0.2955476939678192,"110":0.23247000575065613,"111":0.34514880180358887,"112":0.2999090850353241,"113":0.1252969354391098,"114":-0.3399691581726074,"115":-0.2314194142818451,"116":2.816591501235962,"117":1.5783586502075195,"118":1.0074248313903809,"119":-0.522722065448761,"120":-1.3326916694641113,"121":-0.23275044560432434,"122":-0.8969380855560303,"123":0.08567926287651062,"124":1.1419298648834229,"125":1.701206922531128,"126":-0.6343189477920532,"127":0.5206391215324402,"128":-0.8492338061332703,"129":1.8916146755218506,"130":-1.3368254899978638,"131":0.18257829546928406,"132":-1.6525585651397705,"133":1.9062474966049194,"134":-0.09077209234237671,"135":-0.3675140142440796,"136":0.6264089345932007,"137":0.6796576976776123,"138":-0.6129184365272522,"139":-0.18246816098690033,"140":1.5452035665512085,"141":0.418096125125885,"142":-2.3437342643737793,"143":-0.5420969724655151,"144":1.5100082159042358,"145":0.9296034574508667,"146":1.3945987224578857,"147":-1.104196548461914,"148":-0.0726851224899292,"149":-0.5674540400505066,"150":-2.006153106689453,"151":-0.09395263344049454,"152":-0.9583883881568909,"153":-2.0907866954803467,"154":-0.21410198509693146,"155":1.4980661869049072,"156":0.1613272875547409,"157":1.1768074035644531,"158":-0.6361845135688782,"159":0.35209810733795166,"160":-0.40765219926834106,"161":0.9324477314949036,"162":0.6299912333488464,"163":0.0063612801022827625,"164":0.6735062003135681,"165":-1.100306749343872,"166":-0.0858621671795845,"167":-0.28340405225753784,"168":0.08232904225587845,"169":-0.38213032484054565,"170":0.5284174680709839,"171":-0.8014665246009827,"172":-1.2444876432418823,"173":-1.2439924478530884,"174":-0.12029979377985,"175":1.3114533424377441,"176":-0.812405526638031,"177":-0.13882148265838623,"178":-0.03463228419423103,"179":0.9726656079292297,"180":1.1445153951644897,"181":-1.0252443552017212,"182":-0.0868782252073288,"183":0.48225027322769165,"184":-0.20651878416538239,"185":1.1227531433105469,"186":0.8159866333007812,"187":-1.232311487197876,"188":-0.11620188504457474,"189":1.3516311645507812,"190":-0.18192486464977264,"191":-0.6863098740577698,"192":0.7937198281288147,"193":-0.5231220126152039,"194":-1.0539056062698364,"195":-0.6839116811752319,"196":0.1600659042596817,"197":-1.2770898342132568,"198":-0.22635965049266815,"199":-0.9269396662712097,"200":0.8222072720527649,"201":0.6147599816322327,"202":0.15315112471580505,"203":0.2997816205024719,"204":-1.2349514961242676,"205":-0.5078808665275574,"206":0.434793621301651,"207":-0.77524334192276,"208":1.7808239459991455,"209":-0.6746183037757874,"210":2.3545830249786377,"211":-2.1470022201538086,"212":2.3183395862579346,"213":-0.9530354142189026,"214":0.9095165729522705,"215":-0.4754561185836792,"216":0.26606252789497375,"217":-1.0502437353134155,"218":0.37665948271751404,"219":0.40645045042037964,"220":-0.7473829388618469,"221":0.7864859104156494,"222":-1.7955410480499268,"223":0.031613126397132874,"224":-0.742641806602478,"225":0.014004025608301163,"226":1.6346713304519653,"227":2.3943140506744385,"228":-1.3629751205444336,"229":-0.29152098298072815,"230":3.6320669651031494,"231":0.8021272420883179,"232":-0.6024816036224365,"233":2.3081490993499756,"234":-0.45750197768211365,"235":-1.3399020433425903,"236":1.062785029411316,"237":-0.5703224539756775,"238":-1.3194892406463623,"239":0.211473748087883,"240":0.6958104372024536,"241":1.3671839237213135,"242":-0.9942392110824585,"243":-1.2074708938598633,"244":0.6166786551475525,"245":0.5170860290527344,"246":0.4578556418418884,"247":0.8783180117607117,"248":0.5604984760284424,"249":-0.3997022211551666,"250":0.1160668283700943,"251":-1.5206117630004883,"252":1.3793483972549438,"253":-1.704370141029358,"254":0.9007870554924011,"255":0.36934390664100647,"256":0.3309875726699829,"257":0.10379739850759506,"258":0.01695442758500576,"259":-0.7408873438835144,"260":-1.788844347000122,"261":-1.2479327917099,"262":-0.39223530888557434,"263":1.1361552476882935,"264":0.14998526871204376,"265":0.03847631439566612,"266":0.21563951671123505,"267":-0.5026848912239075,"268":-0.6778845191001892,"269":-0.9593658447265625,"270":-1.178770899772644,"271":0.024978073313832283,"272":-0.38644811511039734,"273":0.013059974648058414,"274":0.1934717297554016,"275":0.09937619417905807,"276":-0.48739299178123474,"277":0.01712735742330551,"278":-0.5111562609672546,"279":-0.00025403453037142754,"280":0.006291085854172707,"281":-1.0154271125793457,"282":-2.455085277557373,"283":-0.233646959066391,"284":2.3889172077178955,"285":1.6468241214752197,"286":1.5044978857040405,"287":2.6813106536865234,"288":-3.5060482025146484,"289":0.7083882689476013,"290":-0.4875037968158722,"291":-1.3725414276123047,"292":0.21779708564281464,"293":0.9656461477279663,"294":-0.482774943113327,"295":1.332884430885315,"296":0.2966742217540741,"297":-0.9155674576759338,"298":-0.32118111848831177,"299":0.29055407643318176,"300":-0.12191522121429443,"301":-1.108970046043396,"302":1.456264853477478,"303":1.1911044120788574,"304":1.3595800399780273,"305":-1.1139984130859375,"306":-0.5800648927688599,"307":-0.005339798051863909,"308":0.5274122953414917,"309":-0.21956458687782288,"310":-0.8231030106544495,"311":0.24928878247737885,"312":-0.8075199127197266,"313":-0.8146830797195435,"314":-0.3288271427154541,"315":0.07742925733327866,"316":-0.36979246139526367,"317":0.28581148386001587,"318":1.2979061603546143,"319":0.8364642262458801,"320":-0.42180174589157104,"321":2.6771302223205566,"322":-0.28996098041534424,"323":0.9155217409133911,"324":0.7128909230232239,"325":0.6531680822372437,"326":1.0780144929885864,"327":0.019945334643125534,"328":0.6928167939186096,"329":0.26866769790649414,"330":-0.0017825707327574492,"331":0.03550811856985092,"332":0.6607192158699036,"333":0.6524410843849182,"334":0.6673017144203186,"335":-0.829628586769104,"336":1.0608422756195068,"337":0.5733405947685242,"338":0.07175078988075256,"339":0.7330145239830017,"340":0.4596133828163147,"341":-1.3158248662948608,"342":0.47420552372932434,"343":-1.2308886051177979,"344":-0.43990200757980347,"345":-1.868695616722107,"346":-1.2216182947158813,"347":-0.2786751389503479,"348":-0.06805961579084396,"349":1.717799186706543,"350":1.1167105436325073,"351":0.05520550534129143,"352":0.933198094367981,"353":-2.2154722213745117,"354":-1.4913357496261597,"355":0.5554410815238953,"356":2.3167879581451416,"357":0.7989664077758789,"358":0.01014733500778675,"359":-2.2326486110687256,"360":0.8765807151794434,"361":2.4344708919525146,"362":-0.8940955996513367,"363":0.48919811844825745,"364":-0.7206434011459351,"365":-0.9888396263122559,"366":1.0368685722351074,"367":0.560832679271698,"368":-0.2860009968280792,"369":-1.1295907497406006,"370":0.5300971269607544,"371":-0.9339205026626587,"372":-0.2141130119562149,"373":-0.1149798184633255,"374":-0.36263307929039,"375":-0.8148553967475891,"376":-0.5718099474906921,"377":1.1837671995162964,"378":0.3674103617668152,"379":0.5257691740989685,"380":1.3818085193634033,"381":-0.570263683795929,"382":-0.009159094654023647,"383":1.41146719455719,"384":-0.3003538250923157,"385":1.307543396949768,"386":1.196089506149292,"387":0.832213282585144,"388":-0.6487181186676025,"389":-0.5891236066818237,"390":0.2716987133026123,"391":-0.5118732452392578,"392":0.432219535112381,"393":1.0477335453033447,"394":0.053752582520246506,"395":-1.2595415115356445,"396":0.5137829780578613,"397":1.05295991897583,"398":0.22252340614795685,"399":-1.2787702083587646}},"forgetBias":{"rows":20,"columns":1,"weights":{"0":0,"1":0,"2":0,"3":0,"4":0,"5":0,"6":0,"7":0,"8":0,"9":0,"10":0,"11":0,"12":0,"13":0,"14":0,"15":0,"16":0,"17":0,"18":0,"19":0}},"outputMatrix":{"rows":20,"columns":20,"weights":{"0":-1.6184078454971313,"1":0.09592994302511215,"2":0.2936619520187378,"3":-0.7215943932533264,"4":1.9526444673538208,"5":-1.918249249458313,"6":0.013481616042554379,"7":-4.157707214355469,"8":2.5653576850891113,"9":-2.301313638687134,"10":-1.5266342163085938,"11":0.15773163735866547,"12":0.7160623669624329,"13":0.15278001129627228,"14":-1.1309924125671387,"15":-0.20082807540893555,"16":1.850182294845581,"17":-1.5881117582321167,"18":0.1351785510778427,"19":0.4371547996997833,"20":-2.519373893737793,"21":0.7411933541297913,"22":-0.3162217438220978,"23":-1.026369571685791,"24":3.1694653034210205,"25":-1.1421993970870972,"26":1.8630181550979614,"27":2.257498264312744,"28":0.345145046710968,"29":-3.6630733013153076,"30":0.14673662185668945,"31":0.20762020349502563,"32":-0.8267148733139038,"33":1.020824909210205,"34":-0.3709072470664978,"35":-0.17271612584590912,"36":-0.8061158061027527,"37":0.7285978198051453,"38":-0.8483147025108337,"39":0.23387180268764496,"40":-0.2775877118110657,"41":0.4088786542415619,"42":-2.320544958114624,"43":-0.33353349566459656,"44":0.7074198126792908,"45":-1.300598382949829,"46":0.5059316754341125,"47":1.4555448293685913,"48":-0.9491510987281799,"49":-1.3673429489135742,"50":1.631117582321167,"51":0.8920280933380127,"52":-0.10342817008495331,"53":-0.21335899829864502,"54":2.443476438522339,"55":1.4712668657302856,"56":-0.47074198722839355,"57":1.5349674224853516,"58":-0.07994826883077621,"59":-0.1205311119556427,"60":1.1594616174697876,"61":-0.6764670014381409,"62":0.6084664463996887,"63":-0.05595066025853157,"64":-0.433976411819458,"65":-2.16121506690979,"66":-2.3745312690734863,"67":-1.9125728607177734,"68":0.6540630459785461,"69":1.4087483882904053,"70":-1.1192731857299805,"71":-1.9884663820266724,"72":0.7674192786216736,"73":-0.9783265590667725,"74":0.5917204022407532,"75":-1.1617140769958496,"76":-0.2296009063720703,"77":-0.3916790187358856,"78":-0.7870084047317505,"79":0.9763453006744385,"80":-1.6775729656219482,"81":-0.35987570881843567,"82":-1.3811219930648804,"83":-0.1522282361984253,"84":0.3681655526161194,"85":-2.290588855743408,"86":2.2862343788146973,"87":2.250304698944092,"88":-1.0508489608764648,"89":-2.7444334030151367,"90":1.3340567350387573,"91":0.9326701760292053,"92":-0.2945278584957123,"93":0.6588327288627625,"94":1.0954488515853882,"95":1.3208990097045898,"96":-0.9420830011367798,"97":0.9966878294944763,"98":0.9706658124923706,"99":3.132917881011963,"100":-0.8891383409500122,"101":3.10209059715271,"102":-2.6092655658721924,"103":-0.6862095594406128,"104":0.1438927948474884,"105":1.6993887424468994,"106":1.63851797580719,"107":2.677492618560791,"108":1.016203761100769,"109":-1.4160021543502808,"110":0.7311325073242188,"111":-0.9864439368247986,"112":1.2793277502059937,"113":-0.3817262351512909,"114":0.2812245786190033,"115":-1.0006827116012573,"116":-0.6890145540237427,"117":-0.2655846178531647,"118":0.6858000159263611,"119":-3.855175495147705,"120":-2.7857508659362793,"121":0.021729204803705215,"122":-2.447322368621826,"123":1.6207026243209839,"124":2.9848079681396484,"125":-2.6918294429779053,"126":1.04422128200531,"127":-1.557111382484436,"128":-0.9688510894775391,"129":-2.4386539459228516,"130":0.2506895065307617,"131":-0.020252469927072525,"132":0.06912753731012344,"133":-0.02572168968617916,"134":-0.2675681710243225,"135":0.5133971571922302,"136":2.4964027404785156,"137":-0.708934485912323,"138":-0.5201305150985718,"139":0.7454640865325928,"140":-1.1548593044281006,"141":0.12980560958385468,"142":-1.504978895187378,"143":1.5008947849273682,"144":1.2555032968521118,"145":-1.7782751321792603,"146":1.032869815826416,"147":0.9167983531951904,"148":-0.4737272262573242,"149":-1.6819053888320923,"150":-0.37485769391059875,"151":0.20561183989048004,"152":0.14651909470558167,"153":0.19591866433620453,"154":1.1957592964172363,"155":0.49475687742233276,"156":1.028977632522583,"157":-0.16230042278766632,"158":0.26340124011039734,"159":-0.4056724011898041,"160":-1.4654401540756226,"161":-2.020841360092163,"162":0.25914716720581055,"163":0.8421274423599243,"164":-0.5656755566596985,"165":0.16293857991695404,"166":-0.2134075164794922,"167":-2.273599863052368,"168":0.508930504322052,"169":0.21845851838588715,"170":-1.9455293416976929,"171":0.3305737376213074,"172":-0.5219131112098694,"173":1.425817608833313,"174":-0.7382312417030334,"175":-0.47208669781684875,"176":2.0725598335266113,"177":-0.7854884266853333,"178":0.07118798792362213,"179":0.4386556148529053,"180":-2.7741594314575195,"181":2.7617220878601074,"182":-3.2348544597625732,"183":2.263521671295166,"184":2.5287022590637207,"185":-1.8878253698349,"186":1.0557879209518433,"187":0.9767957329750061,"188":-1.0441977977752686,"189":-0.3400747776031494,"190":0.8212693333625793,"191":2.073575019836426,"192":0.5728732943534851,"193":-0.8086070418357849,"194":2.0702338218688965,"195":0.5243504643440247,"196":0.04524808004498482,"197":-0.02018263377249241,"198":0.8963938355445862,"199":-2.475644826889038,"200":-0.3267754018306732,"201":-3.1480648517608643,"202":0.7797305583953857,"203":-0.48460617661476135,"204":-0.012362204492092133,"205":-0.8661587834358215,"206":-0.5305630564689636,"207":1.3021072149276733,"208":-1.2446377277374268,"209":0.7978766560554504,"210":0.022874506190419197,"211":0.48202818632125854,"212":-1.2100193500518799,"213":0.6020014882087708,"214":2.67692232131958,"215":0.30902400612831116,"216":-0.43320801854133606,"217":1.8346136808395386,"218":0.36951524019241333,"219":0.7089729905128479,"220":-2.026928424835205,"221":-0.21645596623420715,"222":-0.677745521068573,"223":0.5846336483955383,"224":2.0676257610321045,"225":-1.3790744543075562,"226":3.7055015563964844,"227":-0.5743908286094666,"228":-1.1090627908706665,"229":-0.6878637671470642,"230":1.6582895517349243,"231":0.9511218070983887,"232":0.7413948774337769,"233":-0.10902587324380875,"234":-0.19243240356445312,"235":1.44534432888031,"236":-0.32361459732055664,"237":0.30897945165634155,"238":1.1985514163970947,"239":0.3572640120983124,"240":2.312650680541992,"241":-1.3752775192260742,"242":-0.08957350254058838,"243":-1.6525218486785889,"244":-1.1376922130584717,"245":1.6443215608596802,"246":-0.6623051166534424,"247":1.4746142625808716,"248":1.610251545906067,"249":1.7914581298828125,"250":-1.7162050008773804,"251":-2.461625099182129,"252":-2.179476261138916,"253":1.5051937103271484,"254":-0.49614572525024414,"255":-0.7291651964187622,"256":-0.14506864547729492,"257":-0.6563522219657898,"258":-2.5030581951141357,"259":1.5171486139297485,"260":-1.0899614095687866,"261":1.117653250694275,"262":-0.6376263499259949,"263":-1.40534245967865,"264":-2.0055902004241943,"265":1.2033023834228516,"266":0.5650084018707275,"267":-0.26074934005737305,"268":2.546916961669922,"269":-0.6928368806838989,"270":-0.7466639876365662,"271":-2.128319263458252,"272":0.4444814920425415,"273":0.25432276725769043,"274":-2.9913065433502197,"275":-0.4188928008079529,"276":1.1522022485733032,"277":-3.0178935527801514,"278":-3.6825509071350098,"279":-1.1186023950576782,"280":0.13100725412368774,"281":-0.9105809330940247,"282":0.5363301634788513,"283":0.8040499687194824,"284":0.873354434967041,"285":0.6530924439430237,"286":-1.1670958995819092,"287":-0.34216567873954773,"288":-1.1443730592727661,"289":2.3210413455963135,"290":-0.9505651593208313,"291":1.1137975454330444,"292":-1.1837157011032104,"293":0.661217212677002,"294":5.496236324310303,"295":-0.13908913731575012,"296":-1.924959421157837,"297":3.8918612003326416,"298":0.40793412923812866,"299":0.1202596053481102,"300":0.6987497210502625,"301":-2.7940480709075928,"302":2.3109288215637207,"303":0.0492250882089138,"304":1.2671293020248413,"305":-0.24037957191467285,"306":-2.8342843055725098,"307":-1.3601635694503784,"308":0.5066041350364685,"309":1.1562132835388184,"310":-1.253027081489563,"311":0.5694846510887146,"312":-1.0962990522384644,"313":1.0132553577423096,"314":2.207827091217041,"315":-0.8165749907493591,"316":-0.850608766078949,"317":2.1840481758117676,"318":-0.6195110082626343,"319":2.904085636138916,"320":-0.8656784892082214,"321":-0.0911613404750824,"322":-1.0265110731124878,"323":-2.5440542697906494,"324":0.16177856922149658,"325":-0.04412495717406273,"326":-0.4477444589138031,"327":-0.3207835555076599,"328":1.0514495372772217,"329":-0.5322225689888,"330":-2.088132858276367,"331":-1.7149585485458374,"332":-0.7497021555900574,"333":1.7731413841247559,"334":-1.592650055885315,"335":-2.0739834308624268,"336":4.138167381286621,"337":-1.3781362771987915,"338":-2.0586085319519043,"339":1.1041405200958252,"340":3.627678871154785,"341":-0.9623823761940002,"342":-0.1269625872373581,"343":-2.378939390182495,"344":-2.5031895637512207,"345":3.0257387161254883,"346":-1.2332091331481934,"347":-0.4001350998878479,"348":0.4356025755405426,"349":2.1804635524749756,"350":-1.013116717338562,"351":-2.1438190937042236,"352":0.8534030914306641,"353":-0.2836715281009674,"354":-1.0824370384216309,"355":-2.4604883193969727,"356":-0.1464206874370575,"357":-0.4807994067668915,"358":-0.5181220173835754,"359":1.000084400177002,"360":-1.4098553657531738,"361":1.822779655456543,"362":-1.3812916278839111,"363":1.9638018608093262,"364":-0.2988915741443634,"365":-3.372598648071289,"366":1.9201518297195435,"367":1.8315743207931519,"368":-2.340162754058838,"369":-0.32139915227890015,"370":0.7302515506744385,"371":1.976389765739441,"372":0.461825966835022,"373":-0.9837031364440918,"374":0.6184718012809753,"375":1.646636962890625,"376":-0.26271459460258484,"377":0.6377704739570618,"378":1.5119011402130127,"379":-1.715788722038269,"380":2.063476800918579,"381":-1.6205874681472778,"382":1.4395831823349,"383":-1.53351891040802,"384":-0.2610757052898407,"385":1.058266520500183,"386":-3.6144890785217285,"387":-1.3508830070495605,"388":1.9679847955703735,"389":0.631389856338501,"390":-2.3069629669189453,"391":-2.230569839477539,"392":-0.49738940596580505,"393":0.23106122016906738,"394":-0.4257180094718933,"395":-3.4543097019195557,"396":-0.3596779704093933,"397":-0.49693265557289124,"398":-1.7909387350082397,"399":0.7601980566978455}},"outputHidden":{"rows":20,"columns":20,"weights":{"0":-1.0221660137176514,"1":-0.4298931956291199,"2":-1.1605603694915771,"3":-1.3000434637069702,"4":1.044711947441101,"5":-1.211500644683838,"6":0.5101116895675659,"7":0.4762987196445465,"8":-2.282874345779419,"9":-1.3711626529693604,"10":-0.09712283313274384,"11":-1.0556793212890625,"12":-0.7853745818138123,"13":-0.38990485668182373,"14":0.06972617655992508,"15":-0.325222373008728,"16":-0.33986446261405945,"17":-1.0961368083953857,"18":-0.0541674867272377,"19":-1.1708378791809082,"20":0.7999696731567383,"21":0.7085046768188477,"22":-1.7588598728179932,"23":-0.9376417398452759,"24":-2.0511739253997803,"25":-1.4330897331237793,"26":1.6953582763671875,"27":-0.1505320519208908,"28":-0.2689606249332428,"29":-1.3848873376846313,"30":2.0624661445617676,"31":-1.439682960510254,"32":0.4404557943344116,"33":-2.176438093185425,"34":1.3135508298873901,"35":-1.1600944995880127,"36":-1.3831560611724854,"37":0.44082847237586975,"38":-3.0578155517578125,"39":-0.14080634713172913,"40":-1.380764126777649,"41":-1.3932883739471436,"42":-2.518131971359253,"43":-0.3319188952445984,"44":1.2387688159942627,"45":0.1554984748363495,"46":1.8941850662231445,"47":1.560726284980774,"48":-0.027465151622891426,"49":1.8715121746063232,"50":-2.5793488025665283,"51":0.5213640928268433,"52":-1.383423924446106,"53":-2.233705997467041,"54":-3.567389726638794,"55":1.971057653427124,"56":-0.721207857131958,"57":-1.5942165851593018,"58":-1.6742016077041626,"59":-1.8589709997177124,"60":-0.8959416151046753,"61":-0.28418853878974915,"62":-0.7182943820953369,"63":0.6373378038406372,"64":1.090550422668457,"65":-1.3073590993881226,"66":0.044047415256500244,"67":0.3884529769420624,"68":-2.5334854125976562,"69":-0.2736551761627197,"70":-0.9779365062713623,"71":-0.7222757935523987,"72":-3.088625907897949,"73":-0.9566117525100708,"74":-1.2725646495819092,"75":1.8931039571762085,"76":-0.8293517827987671,"77":-1.851436734199524,"78":-2.004270553588867,"79":1.135694980621338,"80":-0.41031575202941895,"81":-1.3593567609786987,"82":-1.6926350593566895,"83":-3.8165676593780518,"84":0.11698123067617416,"85":0.6803903579711914,"86":0.14439278841018677,"87":2.0868513584136963,"88":-2.9669973850250244,"89":0.11854802817106247,"90":-2.488969564437866,"91":1.9761897325515747,"92":-1.646424412727356,"93":-1.34811270236969,"94":-1.2886425256729126,"95":0.8919909596443176,"96":1.6595228910446167,"97":0.03697206452488899,"98":-1.9680204391479492,"99":-2.175828218460083,"100":0.5798579454421997,"101":-0.5838099122047424,"102":1.3907604217529297,"103":1.387085199356079,"104":-0.11609162390232086,"105":-0.024303190410137177,"106":0.9287120699882507,"107":-1.0682142972946167,"108":0.19337572157382965,"109":-0.4671193063259125,"110":1.1545690298080444,"111":-1.2040090560913086,"112":0.7963101267814636,"113":-1.248409628868103,"114":0.09513946622610092,"115":-0.20908766984939575,"116":-2.3947978019714355,"117":-0.5440161228179932,"118":3.829869270324707,"119":3.32928466796875,"120":0.5309688448905945,"121":-2.7184174060821533,"122":3.377173662185669,"123":2.041922092437744,"124":-1.4251407384872437,"125":-1.5190647840499878,"126":-0.2741570770740509,"127":0.1391061544418335,"128":-0.16212260723114014,"129":-0.41119715571403503,"130":1.7241899967193604,"131":0.9656859636306763,"132":-0.506618857383728,"133":-1.380082607269287,"134":0.7728604078292847,"135":-1.4612598419189453,"136":-0.8370276689529419,"137":1.0815500020980835,"138":0.7554264664649963,"139":1.2581709623336792,"140":1.2246946096420288,"141":-1.1159619092941284,"142":0.8592929244041443,"143":-2.533175230026245,"144":-0.4201788604259491,"145":-0.35848426818847656,"146":1.7958590984344482,"147":0.5316280126571655,"148":1.1130930185317993,"149":0.23173153400421143,"150":-1.1719046831130981,"151":-3.1911323070526123,"152":0.24215564131736755,"153":-3.6647679805755615,"154":-1.688652753829956,"155":0.2934797406196594,"156":-2.996381998062134,"157":-1.2714335918426514,"158":-0.40436843037605286,"159":2.844238758087158,"160":-2.5276081562042236,"161":0.3936747610569,"162":-2.0172934532165527,"163":-1.3596144914627075,"164":-0.8548628687858582,"165":-1.459450125694275,"166":2.484870433807373,"167":-0.5430935621261597,"168":0.759250283241272,"169":-2.5200161933898926,"170":1.6581045389175415,"171":-2.6901705265045166,"172":-0.0179852657020092,"173":-1.8040708303451538,"174":1.679198145866394,"175":2.3683903217315674,"176":0.5149822235107422,"177":0.07925157248973846,"178":-0.8447108864784241,"179":0.37520962953567505,"180":2.558095932006836,"181":-1.4434192180633545,"182":1.9764617681503296,"183":0.8834664821624756,"184":-2.1450140476226807,"185":1.7428016662597656,"186":0.4029806852340698,"187":-0.7045617699623108,"188":0.36226940155029297,"189":1.341922402381897,"190":0.9639295935630798,"191":-0.7608469724655151,"192":0.15912221372127533,"193":-1.7200063467025757,"194":-1.9042613506317139,"195":-1.7489877939224243,"196":-0.600432276725769,"197":0.21407891809940338,"198":0.43394559621810913,"199":-0.10406090319156647,"200":0.6447060108184814,"201":-0.28854072093963623,"202":-3.1221306324005127,"203":-0.42642083764076233,"204":-1.5109446048736572,"205":0.9586515426635742,"206":-2.066122531890869,"207":1.341675877571106,"208":-0.746519148349762,"209":0.2407902628183365,"210":-0.7646210789680481,"211":-1.2989401817321777,"212":0.1081199124455452,"213":0.7443028688430786,"214":-0.9534651637077332,"215":1.5044841766357422,"216":-0.6295192837715149,"217":-2.098666191101074,"218":-0.6151394844055176,"219":-0.466399610042572,"220":-0.7781156301498413,"221":-2.222153902053833,"222":0.48854807019233704,"223":0.5037370920181274,"224":-0.315815269947052,"225":2.562793016433716,"226":1.6819313764572144,"227":1.4464669227600098,"228":-0.4395914375782013,"229":1.4463133811950684,"230":-0.12917716801166534,"231":-0.4448187053203583,"232":-0.20425747334957123,"233":2.540560245513916,"234":-1.1035100221633911,"235":-0.6177266240119934,"236":-0.1943630874156952,"237":-0.3386055529117584,"238":-0.11091255396604538,"239":2.0187532901763916,"240":-0.426641583442688,"241":-0.7672000527381897,"242":-1.8854031562805176,"243":-1.7578506469726562,"244":1.0167884826660156,"245":0.2768438458442688,"246":0.28791797161102295,"247":3.3383524417877197,"248":-0.48729729652404785,"249":0.8547359704971313,"250":0.1307114064693451,"251":0.8976413607597351,"252":-1.141676902770996,"253":-0.25794336199760437,"254":-1.505516529083252,"255":0.659298837184906,"256":0.3012208342552185,"257":-0.11805513501167297,"258":1.0559635162353516,"259":-0.9714878797531128,"260":-0.3944852948188782,"261":-0.7045212984085083,"262":-0.12664194405078888,"263":-0.4927923083305359,"264":0.3834041655063629,"265":0.4374147653579712,"266":1.1012922525405884,"267":1.248056173324585,"268":-1.9226040840148926,"269":-0.03548718988895416,"270":-2.2074952125549316,"271":0.4435260593891144,"272":-1.9989428520202637,"273":1.6275817155838013,"274":-0.7762433290481567,"275":1.0403565168380737,"276":-0.17085720598697662,"277":-1.8378586769104004,"278":0.6160150766372681,"279":-1.6867810487747192,"280":-1.0455436706542969,"281":-1.7678238153457642,"282":-1.4678503274917603,"283":-0.6727567911148071,"284":-0.06434450298547745,"285":2.3373098373413086,"286":-1.5906264781951904,"287":1.1848596334457397,"288":1.494734764099121,"289":1.9972566366195679,"290":-0.9135682582855225,"291":-0.8019782900810242,"292":0.5116770267486572,"293":0.7759078145027161,"294":-0.8764384984970093,"295":0.9149430394172668,"296":0.03708207607269287,"297":0.7798689603805542,"298":-1.6276593208312988,"299":1.5074659585952759,"300":0.4213430881500244,"301":-0.7635016441345215,"302":-0.5271142721176147,"303":1.33807373046875,"304":-0.2970745861530304,"305":0.47499677538871765,"306":-2.798675298690796,"307":-0.38360628485679626,"308":1.6157077550888062,"309":0.9459095001220703,"310":-0.35377171635627747,"311":-0.9513933658599854,"312":-0.3303467035293579,"313":0.8579760789871216,"314":1.9651919603347778,"315":0.4234989285469055,"316":-0.5267455577850342,"317":-0.5204406380653381,"318":-0.1792762130498886,"319":1.3568021059036255,"320":-0.9672702550888062,"321":1.4357097148895264,"322":-1.0355026721954346,"323":-0.41732317209243774,"324":-0.8143841028213501,"325":-0.005168216302990913,"326":0.47134268283843994,"327":-0.6411485075950623,"328":0.23038752377033234,"329":-0.1253063827753067,"330":-1.0985912084579468,"331":-0.5161160230636597,"332":-1.5575302839279175,"333":-0.9292417168617249,"334":0.5392197966575623,"335":2.5186119079589844,"336":0.1413448452949524,"337":-0.5111390352249146,"338":-0.32238656282424927,"339":0.013678794726729393,"340":2.5958619117736816,"341":3.4241087436676025,"342":1.169274926185608,"343":1.25410795211792,"344":-0.030609633773565292,"345":-0.45272505283355713,"346":-1.4118152856826782,"347":0.32857218384742737,"348":-1.5855175256729126,"349":-0.6616356372833252,"350":0.9608109593391418,"351":2.4413068294525146,"352":0.46568554639816284,"353":-0.4733940362930298,"354":0.592981219291687,"355":0.3606223165988922,"356":-2.143714666366577,"357":-3.0831589698791504,"358":0.06921197474002838,"359":-2.2429616451263428,"360":0.5294933319091797,"361":0.5374114513397217,"362":-0.5757925510406494,"363":-0.26126745343208313,"364":-1.1421842575073242,"365":0.3324648439884186,"366":2.302978515625,"367":-0.23794859647750854,"368":-0.2632271945476532,"369":-1.221898078918457,"370":0.2617824077606201,"371":-0.03903725743293762,"372":0.061552513390779495,"373":-0.8863294720649719,"374":0.26814350485801697,"375":1.0224395990371704,"376":0.5458727478981018,"377":-1.2615303993225098,"378":-0.8104844093322754,"379":-0.6054176092147827,"380":-1.6782591342926025,"381":-1.4158347845077515,"382":-0.66179358959198,"383":0.35875368118286133,"384":2.06801700592041,"385":-0.21691295504570007,"386":-1.0651936531066895,"387":-0.24703910946846008,"388":-0.13835182785987854,"389":1.7824432849884033,"390":0.08890669047832489,"391":-0.7457441687583923,"392":-1.7979451417922974,"393":0.40050655603408813,"394":0.4947049617767334,"395":-0.2796851694583893,"396":-0.8324530720710754,"397":-0.16109801828861237,"398":0.09022193402051926,"399":1.4178268909454346}},"outputBias":{"rows":20,"columns":1,"weights":{"0":-1.1640031337738037,"1":-2.195517063140869,"2":-0.41858068108558655,"3":-0.5885372757911682,"4":-1.5055478811264038,"5":-0.8661159873008728,"6":-0.37727758288383484,"7":0.10975268483161926,"8":0.46060648560523987,"9":-0.33381161093711853,"10":0.4160902798175812,"11":2.2374491691589355,"12":-0.4269048869609833,"13":0.20473246276378632,"14":0.7755020260810852,"15":-1.6049987077713013,"16":-0.5810033679008484,"17":2.00950026512146,"18":-0.2506808936595917,"19":-0.12470097094774246}},"cellActivationMatrix":{"rows":20,"columns":20,"weights":{"0":0.35923439264297485,"1":0.022076833993196487,"2":-0.6339232921600342,"3":-2.0084228515625,"4":-0.6647809743881226,"5":-0.87200528383255,"6":0.2533265948295593,"7":0.9510025978088379,"8":0.28206461668014526,"9":-0.36649876832962036,"10":0.5482009053230286,"11":-0.6187681555747986,"12":0.20366917550563812,"13":-0.598339319229126,"14":-0.8771501183509827,"15":0.2514360547065735,"16":1.2719594240188599,"17":-0.8300355076789856,"18":0.09507504105567932,"19":1.9782500267028809,"20":0.4157451093196869,"21":-1.1790539026260376,"22":0.34649714827537537,"23":-0.22097262740135193,"24":-0.48263663053512573,"25":2.499415636062622,"26":-0.8371285200119019,"27":-1.1815123558044434,"28":-0.7340209484100342,"29":1.3229643106460571,"30":-0.487382173538208,"31":-0.4431357681751251,"32":-1.9979040622711182,"33":1.185759425163269,"34":0.26409199833869934,"35":-1.6992932558059692,"36":0.5648187398910522,"37":-0.16923600435256958,"38":-0.46917232871055603,"39":0.3574283719062805,"40":0.49453479051589966,"41":1.3387466669082642,"42":0.44719159603118896,"43":2.1827175617218018,"44":-1.706059455871582,"45":0.18879632651805878,"46":-0.08478778600692749,"47":0.7136509418487549,"48":-1.7937642335891724,"49":1.3239140510559082,"50":2.4929699897766113,"51":0.6390783786773682,"52":1.2331880331039429,"53":-2.5352118015289307,"54":-1.1077440977096558,"55":1.562509536743164,"56":-0.8992530703544617,"57":-0.4435844421386719,"58":0.0719231441617012,"59":-1.5247433185577393,"60":0.41082945466041565,"61":1.5264233350753784,"62":0.13923174142837524,"63":0.3712382912635803,"64":-0.9012050032615662,"65":-0.22521279752254486,"66":0.7319502830505371,"67":0.7443022131919861,"68":-0.9986273646354675,"69":0.3344520926475525,"70":1.9643852710723877,"71":0.006478162482380867,"72":0.9504267573356628,"73":-1.7374130487442017,"74":-1.2534860372543335,"75":1.2403137683868408,"76":-0.3403110206127167,"77":-1.1255104541778564,"78":-0.824471652507782,"79":-0.48646169900894165,"80":-0.6214689016342163,"81":1.371393084526062,"82":-0.8330100178718567,"83":0.5543218851089478,"84":0.8927860260009766,"85":-0.981198787689209,"86":1.6906250715255737,"87":1.420509934425354,"88":-0.7589243054389954,"89":-1.0498853921890259,"90":0.34880027174949646,"91":1.42500901222229,"92":0.5816794037818909,"93":0.028036460280418396,"94":0.12801635265350342,"95":1.3236629962921143,"96":-0.3679659068584442,"97":0.7731153964996338,"98":0.4490576386451721,"99":-0.3471294045448303,"100":1.7031453847885132,"101":0.17420190572738647,"102":-0.17292393743991852,"103":1.5498703718185425,"104":-2.708775758743286,"105":1.0866479873657227,"106":-0.13399259746074677,"107":1.7071971893310547,"108":-1.665836215019226,"109":1.9725399017333984,"110":0.6485588550567627,"111":-0.09575608372688293,"112":0.1390090435743332,"113":-1.0986584424972534,"114":-1.012868046760559,"115":0.5733078122138977,"116":-1.2848114967346191,"117":0.026921942830085754,"118":0.7188670039176941,"119":0.6265690922737122,"120":-1.1087040901184082,"121":2.0204315185546875,"122":-1.487260103225708,"123":-1.2104401588439941,"124":0.5727477073669434,"125":1.7859598398208618,"126":1.3541834354400635,"127":-0.8061715960502625,"128":0.9682163596153259,"129":-1.4330271482467651,"130":-0.21525175869464874,"131":-0.3920588195323944,"132":0.7332994937896729,"133":-0.25286316871643066,"134":-1.578153371810913,"135":-2.1638615131378174,"136":0.823168933391571,"137":-1.8344672918319702,"138":-1.1575173139572144,"139":-0.5474653840065002,"140":0.6342507004737854,"141":-1.3087177276611328,"142":-0.290652334690094,"143":-1.6542054414749146,"144":0.9704803228378296,"145":-1.0189484357833862,"146":0.03844829648733139,"147":-1.0343528985977173,"148":1.8503317832946777,"149":-0.5610150098800659,"150":-2.5811219215393066,"151":-1.8191949129104614,"152":-1.6464351415634155,"153":1.2001478672027588,"154":-0.4576696455478668,"155":-0.3448866307735443,"156":0.027076732367277145,"157":0.22184224426746368,"158":-0.9545981884002686,"159":3.143434762954712,"160":-0.8403527140617371,"161":1.9382256269454956,"162":-0.2712819278240204,"163":-0.8535467386245728,"164":-1.3813127279281616,"165":-0.8661869764328003,"166":-0.44022929668426514,"167":0.08725716918706894,"168":0.9799218773841858,"169":0.10395163297653198,"170":-0.5958840250968933,"171":-0.5479222536087036,"172":-0.2108398973941803,"173":1.068518042564392,"174":-1.9704163074493408,"175":-1.006435513496399,"176":2.1369166374206543,"177":-2.398043632507324,"178":-0.5157299041748047,"179":-0.6959757804870605,"180":-1.46537184715271,"181":0.06955340504646301,"182":-1.6818593740463257,"183":0.940272331237793,"184":1.0168498754501343,"185":0.006289076991379261,"186":1.4835985898971558,"187":1.1096346378326416,"188":-0.9341651797294617,"189":-0.6642903685569763,"190":-0.2773285210132599,"191":2.6941659450531006,"192":-1.248932957649231,"193":0.5756168961524963,"194":0.7900100946426392,"195":1.3657814264297485,"196":0.7693661451339722,"197":0.9434000253677368,"198":1.3373769521713257,"199":-0.22372108697891235,"200":1.3667279481887817,"201":-1.0152947902679443,"202":1.538633942604065,"203":-1.7845768928527832,"204":-0.021448083221912384,"205":1.8166099786758423,"206":-2.1908841133117676,"207":0.45316264033317566,"208":1.744033694267273,"209":0.36399051547050476,"210":-1.8605639934539795,"211":-2.939809560775757,"212":-0.8720247149467468,"213":1.0493558645248413,"214":-1.4184545278549194,"215":-1.3473284244537354,"216":0.08985010534524918,"217":-1.523970365524292,"218":-2.454798698425293,"219":1.7792874574661255,"220":0.11891156435012817,"221":0.2647521495819092,"222":1.193385124206543,"223":1.9444084167480469,"224":-1.3593716621398926,"225":-0.305140882730484,"226":0.19739577174186707,"227":2.690838575363159,"228":-2.4655416011810303,"229":0.6581945419311523,"230":2.5866453647613525,"231":1.0031594038009644,"232":1.329102873802185,"233":-1.857315182685852,"234":0.2025252878665924,"235":1.2106136083602905,"236":-1.9836615324020386,"237":-0.33406415581703186,"238":1.1017616987228394,"239":-0.5294451117515564,"240":0.2075238674879074,"241":-0.5547360777854919,"242":0.5848458409309387,"243":-2.1089847087860107,"244":0.3176802098751068,"245":0.45937681198120117,"246":-0.8218747973442078,"247":0.3421611487865448,"248":2.300262212753296,"249":0.2862243354320526,"250":-3.015465497970581,"251":-3.0373153686523438,"252":-1.9565767049789429,"253":2.5283029079437256,"254":-0.7170168161392212,"255":-2.9896504878997803,"256":1.381774663925171,"257":-0.9481683373451233,"258":-2.191584348678589,"259":1.1775002479553223,"260":0.6760900616645813,"261":0.7886696457862854,"262":-1.5916767120361328,"263":-0.00737112108618021,"264":-0.33652910590171814,"265":2.6648056507110596,"266":-0.4124833345413208,"267":0.5779141783714294,"268":-1.3462998867034912,"269":0.7607923150062561,"270":-0.23747579753398895,"271":0.5630305409431458,"272":-0.10924429446458817,"273":-0.6412832140922546,"274":1.4827957153320312,"275":-0.9344596862792969,"276":0.40604713559150696,"277":1.1294583082199097,"278":0.6841592192649841,"279":-1.835227370262146,"280":1.4936929941177368,"281":-0.8028433322906494,"282":2.6623404026031494,"283":-2.297502040863037,"284":-0.012500160373747349,"285":0.444399893283844,"286":-1.2723069190979004,"287":-0.5623341202735901,"288":1.4042381048202515,"289":1.0274912118911743,"290":-2.0452687740325928,"291":-2.4641807079315186,"292":-0.962169349193573,"293":1.1539825201034546,"294":-1.050402045249939,"295":-2.2745108604431152,"296":0.2757890820503235,"297":-1.2872271537780762,"298":-2.2411928176879883,"299":1.7146400213241577,"300":-0.6057149171829224,"301":2.270026922225952,"302":-2.326826572418213,"303":0.27787795662879944,"304":-0.016060497611761093,"305":-1.9267364740371704,"306":2.354647636413574,"307":0.1767536997795105,"308":0.6088054776191711,"309":-0.7076056003570557,"310":-0.626085102558136,"311":1.8078792095184326,"312":-0.6355176568031311,"313":1.310403823852539,"314":0.7688823342323303,"315":0.37263813614845276,"316":0.7728989124298096,"317":-0.7255614399909973,"318":1.5008471012115479,"319":-1.6853593587875366,"320":1.9670543670654297,"321":0.5750478506088257,"322":1.2771174907684326,"323":0.44867581129074097,"324":-1.2254830598831177,"325":-0.29028022289276123,"326":-2.139439344406128,"327":-1.4099783897399902,"328":0.028902102261781693,"329":1.2201370000839233,"330":-1.0621978044509888,"331":-0.3367324769496918,"332":0.030004218220710754,"333":-1.0654499530792236,"334":-1.146426796913147,"335":-1.9365777969360352,"336":1.1459574699401855,"337":-0.9869460463523865,"338":-1.2518976926803589,"339":0.2389904111623764,"340":2.3415048122406006,"341":-1.4929758310317993,"342":1.783918023109436,"343":-0.07379335910081863,"344":-2.0973587036132812,"345":1.3077360391616821,"346":-2.1572678089141846,"347":0.8446561694145203,"348":0.6494152545928955,"349":3.059169054031372,"350":-1.566512107849121,"351":-1.8220094442367554,"352":-0.5913704037666321,"353":1.3048624992370605,"354":-0.3644249737262726,"355":-1.1731475591659546,"356":0.11549132317304611,"357":-0.4381270706653595,"358":-2.9166767597198486,"359":1.3073201179504395,"360":-0.19131609797477722,"361":-1.082218885421753,"362":1.1470590829849243,"363":-0.6427693367004395,"364":1.113229751586914,"365":-0.14835254848003387,"366":0.37174853682518005,"367":0.22647574543952942,"368":2.0083396434783936,"369":-0.09106940031051636,"370":-0.37198299169540405,"371":-2.2119619846343994,"372":-0.5977120399475098,"373":0.4473370611667633,"374":-1.720879077911377,"375":-0.616811215877533,"376":0.821524441242218,"377":-1.79344642162323,"378":-2.193382978439331,"379":0.6789611577987671,"380":-0.5667327046394348,"381":0.1466507613658905,"382":-1.6245994567871094,"383":-0.13896572589874268,"384":-1.6898102760314941,"385":0.7676807045936584,"386":2.4407577514648438,"387":2.4832632541656494,"388":-0.935667097568512,"389":-0.41270434856414795,"390":1.1241159439086914,"391":1.1015558242797852,"392":0.1567704826593399,"393":0.0988934263586998,"394":-1.6343860626220703,"395":1.2815614938735962,"396":-0.7524433732032776,"397":-0.35547882318496704,"398":0.009511047042906284,"399":-1.5936061143875122}},"cellActivationHidden":{"rows":20,"columns":20,"weights":{"0":-0.8285927176475525,"1":0.711506724357605,"2":1.039142370223999,"3":1.334560751914978,"4":0.4972042143344879,"5":0.8552443981170654,"6":-0.5159907937049866,"7":0.18829776346683502,"8":-2.0661354064941406,"9":2.1467537879943848,"10":-0.041149843484163284,"11":1.957391381263733,"12":-2.485947847366333,"13":0.739450216293335,"14":-0.5277995467185974,"15":0.052541472017765045,"16":1.9762018918991089,"17":0.479591429233551,"18":-1.5476737022399902,"19":-1.8312468528747559,"20":0.7319270372390747,"21":-1.035889983177185,"22":-0.9567176103591919,"23":2.1871776580810547,"24":-2.7687203884124756,"25":-0.8698955178260803,"26":0.11576882004737854,"27":-0.9757236242294312,"28":2.8314099311828613,"29":-1.679561734199524,"30":0.38300931453704834,"31":-0.9506635665893555,"32":2.036362886428833,"33":-0.008578158915042877,"34":2.1837158203125,"35":-1.8597291707992554,"36":-1.1932951211929321,"37":0.5665678977966309,"38":2.918698310852051,"39":1.719925045967102,"40":-0.7305211424827576,"41":1.3946412801742554,"42":-1.4988996982574463,"43":-2.5651566982269287,"44":1.899489164352417,"45":0.3403414487838745,"46":-0.768646240234375,"47":0.16797900199890137,"48":0.7345035076141357,"49":1.5516302585601807,"50":-0.8817031383514404,"51":0.05395883694291115,"52":-0.8972697854042053,"53":-0.32897141575813293,"54":0.49515217542648315,"55":-0.04560728371143341,"56":1.408483624458313,"57":-1.118671178817749,"58":-0.5559664368629456,"59":-1.9475443363189697,"60":-0.2581002712249756,"61":-0.7596009373664856,"62":-0.8398786783218384,"63":0.18831367790699005,"64":2.4570162296295166,"65":-0.6557868719100952,"66":1.3510406017303467,"67":0.1657274216413498,"68":-1.766402244567871,"69":0.3323066234588623,"70":-2.4142940044403076,"71":2.066638469696045,"72":-2.349827289581299,"73":1.2343899011611938,"74":0.04810791090130806,"75":-0.37442654371261597,"76":2.8673651218414307,"77":1.5586408376693726,"78":-0.3882003724575043,"79":-0.2061310112476349,"80":-0.6041443943977356,"81":0.5152869820594788,"82":0.3123643100261688,"83":0.09899529814720154,"84":0.3932477831840515,"85":-1.6406162977218628,"86":1.3266353607177734,"87":-0.33804255723953247,"88":0.7952012419700623,"89":-1.1504874229431152,"90":2.2374489307403564,"91":-0.4447639584541321,"92":1.591126799583435,"93":-1.3786816596984863,"94":0.7966421246528625,"95":-0.667640209197998,"96":-1.1973854303359985,"97":-0.46173375844955444,"98":0.8846692442893982,"99":1.869860291481018,"100":-2.0646371841430664,"101":0.865962564945221,"102":-1.4354689121246338,"103":-1.0446877479553223,"104":0.7146697044372559,"105":-1.2648279666900635,"106":0.939665675163269,"107":1.4029537439346313,"108":0.2312115728855133,"109":0.685271680355072,"110":-0.8643143773078918,"111":-0.38404616713523865,"112":-2.758195400238037,"113":-0.058117616921663284,"114":-1.6273822784423828,"115":3.396010160446167,"116":0.15432636439800262,"117":-1.0029438734054565,"118":-2.390838861465454,"119":-0.39733797311782837,"120":-0.8223690986633301,"121":0.45394423604011536,"122":-0.3066326379776001,"123":-1.1638716459274292,"124":1.1867916584014893,"125":-1.219724178314209,"126":-0.17789027094841003,"127":1.7278962135314941,"128":-1.044958233833313,"129":-1.4188238382339478,"130":-1.937549114227295,"131":1.1103090047836304,"132":-1.3707674741744995,"133":-0.002958931727334857,"134":1.1901795864105225,"135":-1.151879906654358,"136":-0.23054958879947662,"137":0.4913776218891144,"138":-2.359837770462036,"139":-0.7121568322181702,"140":0.23318302631378174,"141":-1.1924411058425903,"142":1.885582685470581,"143":1.677689790725708,"144":-0.22818335890769958,"145":-0.7202824950218201,"146":-0.5613293051719666,"147":-0.0010803623590618372,"148":0.6327897906303406,"149":-0.9778555035591125,"150":4.579142093658447,"151":-1.950353980064392,"152":3.373105525970459,"153":-0.8612431287765503,"154":0.18852615356445312,"155":-0.6839595437049866,"156":-2.70823073387146,"157":-1.90946364402771,"158":-0.17386513948440552,"159":1.933691143989563,"160":0.6808051466941833,"161":-0.6288943290710449,"162":0.6027303338050842,"163":0.8530734181404114,"164":0.03693442791700363,"165":-0.3848126530647278,"166":-2.056100606918335,"167":-0.8027977347373962,"168":0.8177440762519836,"169":0.8398278951644897,"170":1.4444628953933716,"171":0.6611078381538391,"172":0.4414786994457245,"173":-0.407305508852005,"174":-0.15175792574882507,"175":-0.5225165486335754,"176":1.1693605184555054,"177":0.6945449113845825,"178":0.6698670983314514,"179":-0.7944722175598145,"180":-0.21733586490154266,"181":0.030107736587524414,"182":0.2984228730201721,"183":-1.711723804473877,"184":1.1898876428604126,"185":-0.12375004589557648,"186":1.1150614023208618,"187":0.4349668323993683,"188":0.01919018104672432,"189":1.027951955795288,"190":0.4856729209423065,"191":-0.8764328956604004,"192":-0.09137073904275894,"193":0.5528636574745178,"194":-1.0730232000350952,"195":-0.8213232159614563,"196":0.6511383652687073,"197":1.2687463760375977,"198":-1.113266110420227,"199":-1.6616041660308838,"200":-0.6988089084625244,"201":-0.7792122960090637,"202":-0.5763922929763794,"203":-0.30623647570610046,"204":0.8763518333435059,"205":0.5306873917579651,"206":-0.15835243463516235,"207":0.3340243697166443,"208":0.2013593167066574,"209":0.35172319412231445,"210":-1.0759366750717163,"211":0.3407247066497803,"212":-1.338749885559082,"213":1.5565102100372314,"214":0.7461740970611572,"215":-0.7435413599014282,"216":-1.118710994720459,"217":0.33630767464637756,"218":1.2141637802124023,"219":0.11262284219264984,"220":1.2499412298202515,"221":0.47611403465270996,"222":-0.06101854145526886,"223":-0.6770978569984436,"224":0.573924720287323,"225":-1.4311413764953613,"226":-1.887410044670105,"227":0.8305194973945618,"228":-1.3412392139434814,"229":1.6223223209381104,"230":0.5204784870147705,"231":0.15984952449798584,"232":-0.05713670328259468,"233":0.36557185649871826,"234":-1.6991024017333984,"235":-0.7157159447669983,"236":-0.2918030321598053,"237":-1.3294005393981934,"238":0.29813456535339355,"239":-1.714645266532898,"240":-0.5862240195274353,"241":-1.1394492387771606,"242":0.13813264667987823,"243":-0.28709739446640015,"244":0.3332807123661041,"245":0.8998551964759827,"246":-0.07092393934726715,"247":0.6156931519508362,"248":0.08594416081905365,"249":1.0511152744293213,"250":-0.36985015869140625,"251":-0.2564166784286499,"252":0.022157011553645134,"253":0.6585885286331177,"254":0.022047482430934906,"255":-0.6186749935150146,"256":0.1938338726758957,"257":0.5520094633102417,"258":-0.7669059038162231,"259":-0.388587087392807,"260":-1.5204198360443115,"261":1.1872557401657104,"262":-1.7805633544921875,"263":-2.400867462158203,"264":0.9919583201408386,"265":-0.6526614427566528,"266":-0.9743874669075012,"267":2.6940693855285645,"268":-1.6628438234329224,"269":0.33006954193115234,"270":-2.065218925476074,"271":-1.2410602569580078,"272":-1.4595036506652832,"273":-1.3708064556121826,"274":2.1335620880126953,"275":3.9251322746276855,"276":2.5330753326416016,"277":-0.9045346975326538,"278":-0.43591544032096863,"279":-2.0016989707946777,"280":0.9827457666397095,"281":-0.8423343896865845,"282":-0.29270139336586,"283":0.23502285778522491,"284":-0.5337216854095459,"285":0.11316775530576706,"286":-0.3733104169368744,"287":-1.5080775022506714,"288":1.4153372049331665,"289":0.5696284770965576,"290":-0.7494350671768188,"291":0.823634922504425,"292":-0.21073129773139954,"293":0.02674046717584133,"294":1.1953591108322144,"295":0.8286634683609009,"296":-0.8843634128570557,"297":0.20097385346889496,"298":-0.1579635590314865,"299":0.6216105818748474,"300":-0.6235071420669556,"301":0.4693985879421234,"302":-0.7775108814239502,"303":-0.8068393468856812,"304":0.5773796439170837,"305":-0.9784590601921082,"306":1.7488300800323486,"307":0.16122044622898102,"308":-0.6972445845603943,"309":-0.9339888095855713,"310":-0.7136913537979126,"311":-1.4090553522109985,"312":-0.29833418130874634,"313":-1.1583178043365479,"314":0.4850822985172272,"315":1.3176136016845703,"316":-0.7862261533737183,"317":-0.23264701664447784,"318":-0.9331124424934387,"319":1.0599241256713867,"320":1.0137909650802612,"321":0.5406703948974609,"322":2.0997519493103027,"323":0.7867834568023682,"324":-0.32225877046585083,"325":-0.3700251877307892,"326":-1.2078946828842163,"327":-1.677146077156067,"328":1.5939509868621826,"329":0.15302972495555878,"330":3.103397846221924,"331":-0.2147706001996994,"332":0.9130114316940308,"333":-0.5501012802124023,"334":-0.4171973466873169,"335":-0.8039838671684265,"336":0.020042944699525833,"337":0.49921914935112,"338":1.461716651916504,"339":1.0670312643051147,"340":-2.527625799179077,"341":1.8867110013961792,"342":-2.882746696472168,"343":-2.030974864959717,"344":0.16334402561187744,"345":-0.4690890908241272,"346":2.333307981491089,"347":0.7532743215560913,"348":0.48904287815093994,"349":0.0823008194565773,"350":-1.3827656507492065,"351":0.4383469223976135,"352":0.6132597923278809,"353":0.2895486056804657,"354":-0.38733887672424316,"355":1.8509225845336914,"356":-0.9838089942932129,"357":0.4725077450275421,"358":0.7768091559410095,"359":-0.32787024974823,"360":-1.701928734779358,"361":-1.2642828226089478,"362":0.8492027521133423,"363":-0.4977879226207733,"364":1.6940717697143555,"365":1.1316713094711304,"366":-0.620549738407135,"367":-1.0475242137908936,"368":0.05177362263202667,"369":1.5640171766281128,"370":0.4395195245742798,"371":0.7156369686126709,"372":-0.8027079701423645,"373":-1.6329182386398315,"374":-1.2083144187927246,"375":0.5039423108100891,"376":1.310331106185913,"377":0.3154201805591583,"378":0.5412756204605103,"379":-0.14360931515693665,"380":-1.6132242679595947,"381":-1.2819000482559204,"382":-1.7966798543930054,"383":-1.374912977218628,"384":0.8284395337104797,"385":-0.718812882900238,"386":0.02873762510716915,"387":-0.13717307150363922,"388":-1.5293421745300293,"389":-0.7299063801765442,"390":-1.2161502838134766,"391":1.674689769744873,"392":-0.6944523453712463,"393":1.2223140001296997,"394":0.8752908706665039,"395":0.5662640333175659,"396":1.3609535694122314,"397":1.8223886489868164,"398":0.2519458830356598,"399":-2.036591053009033}},"cellActivationBias":{"rows":20,"columns":1,"weights":{"0":-0.27920016646385193,"1":0.1520904004573822,"2":-0.5094162821769714,"3":-0.7970542311668396,"4":0.545401394367218,"5":0.8737163543701172,"6":0.6180061101913452,"7":0.23287825286388397,"8":-0.7110984325408936,"9":1.019831657409668,"10":-0.5878000855445862,"11":-1.6777397394180298,"12":-0.16464760899543762,"13":0.07614519447088242,"14":-0.6356866359710693,"15":0.22902803122997284,"16":0.3733402192592621,"17":-2.1246654987335205,"18":-0.46656957268714905,"19":-0.472103089094162}}},{"inputMatrix":{"rows":20,"columns":20,"weights":{"0":1.4933377504348755,"1":-0.9605318903923035,"2":0.8378434777259827,"3":0.6517923474311829,"4":-0.21039895713329315,"5":0.7130138278007507,"6":1.3658941984176636,"7":-3.429553747177124,"8":2.72619891166687,"9":-0.9610452055931091,"10":-1.1417675018310547,"11":-2.3710005283355713,"12":2.3968539237976074,"13":-0.13420863449573517,"14":1.7091037034988403,"15":-0.9394056797027588,"16":-1.1457226276397705,"17":-0.4398614168167114,"18":-0.7777499556541443,"19":0.7748586535453796,"20":1.4666491746902466,"21":3.141721725463867,"22":-0.9825294017791748,"23":-0.4752941131591797,"24":-1.0834072828292847,"25":-0.8751726746559143,"26":1.4243245124816895,"27":-2.330817699432373,"28":1.9362467527389526,"29":-1.3312522172927856,"30":-0.45565149188041687,"31":-1.712518572807312,"32":-0.9555004835128784,"33":-0.3989579379558563,"34":1.554330587387085,"35":1.5890318155288696,"36":-1.4917078018188477,"37":-1.994240641593933,"38":1.0036585330963135,"39":2.8535683155059814,"40":1.9917293787002563,"41":-1.3006362915039062,"42":1.1517260074615479,"43":0.8674136400222778,"44":-2.3700804710388184,"45":-0.22756627202033997,"46":0.9420625567436218,"47":0.15231633186340332,"48":0.046995460987091064,"49":0.7587414383888245,"50":-0.1777493953704834,"51":1.402238368988037,"52":-0.49518370628356934,"53":-2.192904233932495,"54":-0.8222998976707458,"55":0.878165066242218,"56":-1.5561470985412598,"57":0.1471751630306244,"58":2.4466300010681152,"59":0.8915004134178162,"60":-0.9753379225730896,"61":-0.4811345636844635,"62":1.7618762254714966,"63":0.28307798504829407,"64":1.3695294857025146,"65":-0.41065797209739685,"66":-0.5893728733062744,"67":0.24563607573509216,"68":-0.5535613894462585,"69":-0.630781888961792,"70":0.46919360756874084,"71":1.207564353942871,"72":1.088579773902893,"73":-0.8584756255149841,"74":0.34621331095695496,"75":-2.097526788711548,"76":1.5855915546417236,"77":0.40645310282707214,"78":2.388786554336548,"79":-2.131957769393921,"80":-2.4003453254699707,"81":-1.5014266967773438,"82":1.7885210514068604,"83":-0.5041907429695129,"84":-0.93563312292099,"85":2.152139902114868,"86":0.02525917813181877,"87":0.10829608887434006,"88":0.2384178638458252,"89":2.1120474338531494,"90":-2.227125644683838,"91":2.2480151653289795,"92":-1.5354368686676025,"93":-0.2732468545436859,"94":-2.999729871749878,"95":0.09945044666528702,"96":-1.8210724592208862,"97":0.3117053508758545,"98":-1.436326026916504,"99":0.554671049118042,"100":-1.387511134147644,"101":-0.3443153500556946,"102":-1.7392429113388062,"103":0.3773566484451294,"104":0.6705674529075623,"105":2.7769649028778076,"106":1.0504783391952515,"107":1.5222874879837036,"108":0.25722265243530273,"109":0.8590721487998962,"110":-1.417424201965332,"111":-0.3707734942436218,"112":-3.9314184188842773,"113":-0.21051174402236938,"114":-2.695864200592041,"115":0.977714478969574,"116":-0.24093851447105408,"117":0.3236289322376251,"118":-0.28628453612327576,"119":-1.0134178400039673,"120":2.065474033355713,"121":-1.3182958364486694,"122":0.9158755540847778,"123":0.5642611384391785,"124":-0.16796627640724182,"125":-1.1212512254714966,"126":1.0122766494750977,"127":0.581057608127594,"128":-0.3763153851032257,"129":-0.7184919118881226,"130":-0.05766594782471657,"131":-1.3454619646072388,"132":-0.3248843252658844,"133":-1.4426045417785645,"134":-1.5928884744644165,"135":0.6743077635765076,"136":-0.27931150794029236,"137":-1.5242841243743896,"138":-2.4330406188964844,"139":3.4427859783172607,"140":0.21308386325836182,"141":-3.142618179321289,"142":-0.7326639294624329,"143":-2.7371044158935547,"144":0.1916869878768921,"145":0.20352062582969666,"146":-0.46713805198669434,"147":0.18377996981143951,"148":-2.8362157344818115,"149":0.03662681207060814,"150":-1.5813663005828857,"151":-0.8168244361877441,"152":-0.4431152939796448,"153":-4.625093936920166,"154":-0.947359561920166,"155":1.365071177482605,"156":1.9908865690231323,"157":-1.0665373802185059,"158":-0.1973571628332138,"159":-0.8170955777168274,"160":-0.6243612170219421,"161":-0.3482513129711151,"162":0.5494972467422485,"163":-0.0825905129313469,"164":-0.5634311437606812,"165":0.3556199371814728,"166":-1.5063923597335815,"167":-0.6644995808601379,"168":-1.394365668296814,"169":0.46264347434043884,"170":1.7021780014038086,"171":0.5723146796226501,"172":-2.0822842121124268,"173":0.8875477910041809,"174":-2.6109485626220703,"175":-0.6306946873664856,"176":-1.2622790336608887,"177":-0.2772160768508911,"178":-2.3316919803619385,"179":-0.5844407677650452,"180":-2.9044532775878906,"181":-3.5026791095733643,"182":1.152217149734497,"183":0.5362420678138733,"184":-0.18793751299381256,"185":-0.07096540182828903,"186":-0.4067879915237427,"187":1.033177375793457,"188":0.7292270660400391,"189":-0.36356520652770996,"190":5.13278341293335,"191":0.7808454036712646,"192":0.671824038028717,"193":2.5918142795562744,"194":-0.7894796133041382,"195":0.1668335348367691,"196":-1.6769343614578247,"197":-0.11229322105646133,"198":0.3429257869720459,"199":1.742625117301941,"200":-1.4818850755691528,"201":0.12946520745754242,"202":1.2168056964874268,"203":0.6342126131057739,"204":-0.5816758871078491,"205":-0.8623737096786499,"206":1.9959748983383179,"207":1.9129801988601685,"208":-2.834071159362793,"209":-0.23346811532974243,"210":-1.6922247409820557,"211":2.612975597381592,"212":-2.0183777809143066,"213":1.1547061204910278,"214":0.05206680670380592,"215":-1.1522953510284424,