{"type":"LSTM","options":{"inputSize":20,"inputRange":20,"hiddenLayers":[20,20],"outputSize":20,"decayRate":0.999,"smoothEps":1e-8,"regc":0.000001,"clipval":5,"maxPredictionLength":100,"dataFormatter":{"indexTable":{"N":0,"o":1,"t":2," ":3,"m":4,"u":5,"c":6,"h":7,".":8,"W":9,"a":10,"'":11,"s":12,"g":13,"i":14,"n":15,"?":16,"stop-input":17,"start-output":18,"unrecognized":19},"characterTable":{"0":"N","1":"o","2":"t","3":" ","4":"m","5":"u","6":"c","7":"h","8":".","9":"W","10":"a","11":"'","12":"s","13":"g","14":"i","15":"n","16":"?","17":null,"18":null,"19":null},"values":["Not much..","What's going on?"],"characters":["N","o","t"," ","m","u","c","h",".","W","a","'","s","g","i","n","?","stop-input","start-output","unrecognized"],"specialIndexes":[17,18,19]}},"input":{"rows":21,"columns":20,"weights":{"0":0.4246875047683716,"1":-0.4053383767604828,"2":-0.5530601143836975,"3":-0.9469989538192749,"4":-0.6221542358398438,"5":1.1844394207000732,"6":0.454196572303772,"7":-1.0523713827133179,"8":0.1648431122303009,"9":0.7098793983459473,"10":-0.187479168176651,"11":-0.16651661694049835,"12":0.16350288689136505,"13":0.1536324918270111,"14":-0.9065893292427063,"15":-1.065548300743103,"16":0.6905806064605713,"17":-0.5779797434806824,"18":-0.7039843201637268,"19":0.7968775629997253,"20":-0.5053007006645203,"21":-0.25649145245552063,"22":0.3827912509441376,"23":-1.0300545692443848,"24":0.080508291721344,"25":-0.9577623605728149,"26":-0.46221834421157837,"27":-0.4548104405403137,"28":1.3175196647644043,"29":0.005537728779017925,"30":-1.0498461723327637,"31":-1.2625106573104858,"32":-0.28500545024871826,"33":0.970255970954895,"34":-1.2318594455718994,"35":-1.0622618198394775,"36":0.7877735495567322,"37":-1.2071073055267334,"38":-1.3434844017028809,"39":0.6260694265365601,"40":1.0732251405715942,"41":-0.09839417785406113,"42":0.1862696260213852,"43":-0.02518807165324688,"44":-1.6411207914352417,"45":1.0495524406433105,"46":-0.5807986855506897,"47":1.6115120649337769,"48":0.15333473682403564,"49":1.3237522840499878,"50":0.20455996692180634,"51":-0.38372188806533813,"52":0.19594016671180725,"53":-0.30057501792907715,"54":0.6898473501205444,"55":0.38543471693992615,"56":-1.9682263135910034,"57":1.1555845737457275,"58":0.41713985800743103,"59":-0.3593005836009979,"60":-0.8844305276870728,"61":0.8587192296981812,"62":-1.7419205904006958,"63":1.1229121685028076,"64":1.5484768152236938,"65":-0.7697682976722717,"66":2.298661470413208,"67":-0.09952778369188309,"68":-0.42108866572380066,"69":-1.982382893562317,"70":0.16684672236442566,"71":1.3360719680786133,"72":0.885751485824585,"73":-0.27245935797691345,"74":0.5511059761047363,"75":0.26040783524513245,"76":-0.9713248610496521,"77":1.1928945779800415,"78":0.5273423790931702,"79":-1.3496052026748657,"80":0.24691763520240784,"81":-0.14479129016399384,"82":0.14049196243286133,"83":-0.5758169293403625,"84":0.5341858267784119,"85":-0.674950361251831,"86":-0.2954983711242676,"87":-0.5152626633644104,"88":0.5963448286056519,"89":-0.38471415638923645,"90":-0.5448140501976013,"91":-0.09372915327548981,"92":-0.3188817501068115,"93":0.47324681282043457,"94":-0.347124308347702,"95":-0.46145740151405334,"96":0.9092015624046326,"97":-0.6101495623588562,"98":-0.30888718366622925,"99":0.8973071575164795,"100":-1.9939000606536865,"101":-0.9041486382484436,"102":0.4100831151008606,"103":0.31676390767097473,"104":1.8761212825775146,"105":-0.7356341481208801,"106":-1.3280367851257324,"107":-2.5964345932006836,"108":0.15998251736164093,"109":-0.8646973967552185,"110":-0.5359965562820435,"111":0.02593524195253849,"112":0.30101147294044495,"113":0.3390408158302307,"114":0.04397046938538551,"115":0.018800506368279457,"116":1.6065207719802856,"117":0.333565354347229,"118":-1.8010276556015015,"119":1.532486915588379,"120":0.9460538029670715,"121":-0.787916362285614,"122":0.6686603426933289,"123":1.010554552078247,"124":0.13800615072250366,"125":0.5875244736671448,"126":0.03999323025345802,"127":0.43015795946121216,"128":-1.5695432424545288,"129":1.5663222074508667,"130":1.1089433431625366,"131":0.7132421731948853,"132":1.3178077936172485,"133":-1.342268705368042,"134":0.08325360715389252,"135":1.0722445249557495,"136":0.456621915102005,"137":0.17196914553642273,"138":0.29588690400123596,"139":0.7220862507820129,"140":1.257947564125061,"141":-0.5838030576705933,"142":0.9782174229621887,"143":-1.0170800685882568,"144":-0.9569053649902344,"145":0.17800569534301758,"146":-1.2450100183486938,"147":0.08792664855718613,"148":0.8211501240730286,"149":1.0727962255477905,"150":-1.0160682201385498,"151":-1.7222310304641724,"152":-1.3526653051376343,"153":1.0927685499191284,"154":-0.20869089663028717,"155":-1.3014792203903198,"156":1.0332131385803223,"157":-0.8243986964225769,"158":-0.54660564661026,"159":-0.029991894960403442,"160":-1.252668857574463,"161":1.3566474914550781,"162":-1.969275712966919,"163":-0.6169450879096985,"164":1.509852409362793,"165":0.9355109333992004,"166":2.47114634513855,"167":0.7021093964576721,"168":-0.6094369888305664,"169":-2.0295965671539307,"170":0.4097956120967865,"171":0.4990920126438141,"172":0.15346091985702515,"173":0.1512017846107483,"174":0.575633704662323,"175":-0.5166658759117126,"176":0.08694016933441162,"177":0.4871319532394409,"178":-1.0935702323913574,"179":-1.4927862882614136,"180":-1.0540285110473633,"181":-0.41717302799224854,"182":-0.9847697019577026,"183":-0.47841429710388184,"184":1.1929166316986084,"185":-0.4295521676540375,"186":1.5251644849777222,"187":-2.3490700721740723,"188":0.9206299781799316,"189":-1.1362043619155884,"190":-1.0108431577682495,"191":-0.5998475551605225,"192":-0.14539840817451477,"193":0.5328823924064636,"194":-1.7796298265457153,"195":-0.8917570114135742,"196":1.743820071220398,"197":-1.7798718214035034,"198":-1.5252491235733032,"199":1.107174038887024,"200":-0.7595689296722412,"201":0.731913685798645,"202":-0.550247311592102,"203":0.14098815619945526,"204":0.4828862249851227,"205":-0.11806493252515793,"206":-0.022461462765932083,"207":-1.3821288347244263,"208":0.33842116594314575,"209":0.17859119176864624,"210":-1.0168811082839966,"211":-0.4450858235359192,"212":-0.3334294557571411,"213":0.6749463677406311,"214":0.2674630582332611,"215":-1.4176095724105835,"216":1.278598666191101,"217":-0.5331683158874512,"218":-0.2783651053905487,"219":-0.79022616147995,"220":0.4471391439437866,"221":0.6861200928688049,"222":-0.044327717274427414,"223":-0.39611294865608215,"224":-0.7284960746765137,"225":1.3833802938461304,"226":-0.6790093779563904,"227":0.8402798771858215,"228":0.08173798024654388,"229":0.5262377858161926,"230":-0.5021209120750427,"231":-1.4989783763885498,"232":-0.6209646463394165,"233":0.3940008282661438,"234":-0.7393208146095276,"235":-0.8335494995117188,"236":0.019887933507561684,"237":-0.6944733262062073,"238":-0.6807886958122253,"239":-1.2841508388519287,"240":-0.5289126634597778,"241":0.06397585570812225,"242":-0.41816362738609314,"243":-0.20653988420963287,"244":0.6914244294166565,"245":0.3978613018989563,"246":0.4279845356941223,"247":-0.09399204701185226,"248":0.47203052043914795,"249":-0.6070729494094849,"250":-0.3532118797302246,"251":-0.7522326707839966,"252":-0.10463912039995193,"253":0.2822602689266205,"254":-0.7674012184143066,"255":-0.45048782229423523,"256":0.4117066264152527,"257":-0.7323961853981018,"258":-0.4574836790561676,"259":0.11529511213302612,"260":0.2232486754655838,"261":-0.7516973614692688,"262":0.6978344917297363,"263":-0.46873271465301514,"264":0.3204887807369232,"265":0.556330144405365,"266":-1.1188709735870361,"267":-0.14424245059490204,"268":0.5235220193862915,"269":0.15158136188983917,"270":-0.3918100595474243,"271":-0.5459039211273193,"272":-0.4014946222305298,"273":0.47922444343566895,"274":0.3693481683731079,"275":-0.48380473256111145,"276":-0.06480465084314346,"277":0.6481191515922546,"278":-0.3279181718826294,"279":0.5839508175849915,"280":-0.5163130760192871,"281":1.4710054397583008,"282":-0.5546690225601196,"283":-1.2875142097473145,"284":0.09801983088254929,"285":-0.14843957126140594,"286":0.5294247269630432,"287":-0.5172485113143921,"288":1.3077194690704346,"289":-0.40562117099761963,"290":-0.7494135499000549,"291":-0.9662994146347046,"292":-1.0021169185638428,"293":1.1365033388137817,"294":-1.3370938301086426,"295":-0.5513384938240051,"296":1.4736721515655518,"297":-1.3217928409576416,"298":-0.5543695688247681,"299":-0.9506293535232544,"300":-0.41654977202415466,"301":-0.579987645149231,"302":-0.8646617531776428,"303":0.3497800827026367,"304":1.6937259435653687,"305":-1.617206335067749,"306":0.24292798340320587,"307":-0.7624794840812683,"308":-0.13813598453998566,"309":-0.8382070660591125,"310":-0.23491506278514862,"311":0.4248378276824951,"312":-0.5488533973693848,"313":0.3341129720211029,"314":1.2920851707458496,"315":0.41821959614753723,"316":0.9208504557609558,"317":0.669251561164856,"318":0.44648849964141846,"319":0.16526556015014648,"320":1.335019588470459,"321":-1.203565239906311,"322":1.5228216648101807,"323":-0.7000385522842407,"324":-0.71713787317276,"325":-1.0902280807495117,"326":-1.8162472248077393,"327":0.1838429719209671,"328":0.887364387512207,"329":1.1733145713806152,"330":-0.7181834578514099,"331":-0.7776583433151245,"332":-1.086842656135559,"333":0.8521050810813904,"334":0.5205263495445251,"335":-0.748566746711731,"336":0.8651527762413025,"337":-0.10858378559350967,"338":0.034549567848443985,"339":1.869964599609375,"340":-0.44022178649902344,"341":0.8326245546340942,"342":-1.050504207611084,"343":1.7277361154556274,"344":0.4489746391773224,"345":-0.5241588354110718,"346":1.5040215253829956,"347":0.684150218963623,"348":-1.384763240814209,"349":-0.9234457015991211,"350":0.9901763200759888,"351":0.39133039116859436,"352":1.4171886444091797,"353":-1.319351315498352,"354":0.9221270680427551,"355":0.9901707768440247,"356":-1.4916861057281494,"357":-0.09298761188983917,"358":0.4984557330608368,"359":-0.30309441685676575,"360":-1.1235321760177612,"361":1.338464617729187,"362":-0.2748602330684662,"363":1.1771701574325562,"364":0.7012598514556885,"365":0.4329918324947357,"366":0.9854322075843811,"367":0.11879489570856094,"368":-0.6378940939903259,"369":-1.216469645500183,"370":0.6498583555221558,"371":0.7571141123771667,"372":1.813133955001831,"373":-1.0925954580307007,"374":-0.01741381548345089,"375":0.715241014957428,"376":-0.8913226127624512,"377":0.3144476115703583,"378":-0.6749659776687622,"379":-1.1045888662338257,"380":-0.8667857646942139,"381":-0.1412036418914795,"382":0.20226958394050598,"383":-1.1577171087265015,"384":0.44926097989082336,"385":-0.9902082085609436,"386":0.01868913508951664,"387":0.33073556423187256,"388":1.502742052078247,"389":-1.064871907234192,"390":-0.5020077228546143,"391":-1.1899312734603882,"392":-1.1298741102218628,"393":1.4586957693099976,"394":-0.8399544954299927,"395":0.3677614629268646,"396":0.4090314209461212,"397":-0.9944795370101929,"398":-1.338783621788025,"399":0.24812519550323486,"400":0.028128471225500107,"401":0.3585605323314667,"402":-0.20893685519695282,"403":0.4162273705005646,"404":-0.06190764531493187,"405":-0.2746908962726593,"406":0.022467264905571938,"407":0.9649549126625061,"408":-0.5767247676849365,"409":0.04171321541070938,"410":0.7057166695594788,"411":-0.1252743899822235,"412":-0.0810079276561737,"413":-0.6105782389640808,"414":0.4184918999671936,"415":0.46471789479255676,"416":-0.650726854801178,"417":0.2661260664463043,"418":0.794422447681427,"419":-0.8127574920654297}},"hiddenLayers":[{"inputMatrix":{"rows":20,"columns":20,"weights":{"0":-1.7507002353668213,"1":0.8254601955413818,"2":-1.170611023902893,"3":0.20213814079761505,"4":2.1729729175567627,"5":-0.7977842688560486,"6":0.5287415981292725,"7":-0.5965482592582703,"8":0.23809562623500824,"9":-1.8664031028747559,"10":0.3471314609050751,"11":0.2465229481458664,"12":0.22429437935352325,"13":0.077619269490242,"14":0.14225974678993225,"15":0.25673484802246094,"16":0.756234347820282,"17":0.5550903677940369,"18":-0.3533492684364319,"19":-0.40268397331237793,"20":-0.8788998126983643,"21":1.4397778511047363,"22":-0.6178009510040283,"23":0.7876125574111938,"24":1.280173897743225,"25":0.424314945936203,"26":0.8608155846595764,"27":0.9052351117134094,"28":-0.8247815370559692,"29":-1.2543604373931885,"30":0.3435945212841034,"31":0.2806532382965088,"32":1.0375579595565796,"33":-0.7044438123703003,"34":-0.34366410970687866,"35":-0.06755149364471436,"36":-0.29107052087783813,"37":-0.27142664790153503,"38":-0.1748572587966919,"39":-1.3823418617248535,"40":-1.1170628070831299,"41":-0.2449960559606552,"42":-0.3609960377216339,"43":-0.0002868687442969531,"44":1.3620121479034424,"45":-0.5380966067314148,"46":0.66744065284729,"47":-1.1568825244903564,"48":0.4501801133155823,"49":-1.25003182888031,"50":-0.3581811785697937,"51":0.22923056781291962,"52":-0.11631108820438385,"53":0.6283935308456421,"54":0.1931697279214859,"55":-0.0914231464266777,"56":1.3801995515823364,"57":0.5568762421607971,"58":-0.28265804052352905,"59":0.5417693257331848,"60":-1.3302255868911743,"61":-0.37302905321121216,"62":-0.5671717524528503,"63":0.2815811336040497,"64":1.7346034049987793,"65":-2.0221059322357178,"66":0.08465173095464706,"67":-0.7646399736404419,"68":-0.0979384258389473,"69":-1.6136499643325806,"70":0.02951141633093357,"71":0.2248949557542801,"72":-0.4392209053039551,"73":0.32880929112434387,"74":0.23084372282028198,"75":-0.11470897495746613,"76":0.6114693880081177,"77":0.1673598438501358,"78":-0.41847094893455505,"79":0.005898373667150736,"80":-0.9113702178001404,"81":0.1112484335899353,"82":-0.08213765919208527,"83":0.13462857902050018,"84":1.46627938747406,"85":-0.8508002161979675,"86":0.1629815250635147,"87":0.05449116975069046,"88":-0.03128321096301079,"89":-1.1480144262313843,"90":-0.20892395079135895,"91":-0.04369358718395233,"92":-0.06065046787261963,"93":-0.00792399886995554,"94":0.8542002439498901,"95":0.23583680391311646,"96":0.38901638984680176,"97":0.5246444940567017,"98":-0.1611989438533783,"99":-0.15489688515663147,"100":-0.19405795633792877,"101":0.20215369760990143,"102":-0.04067917540669441,"103":1.0456535816192627,"104":0.35691821575164795,"105":-0.9633085131645203,"106":0.5553687214851379,"107":0.8234426379203796,"108":-0.4468230903148651,"109":-0.4190894365310669,"110":0.47267159819602966,"111":0.12452863156795502,"112":0.9781675934791565,"113":-0.9643723368644714,"114":-0.5776813626289368,"115":0.5223389267921448,"116":-1.0603243112564087,"117":-0.0909966304898262,"118":-0.002350341295823455,"119":-0.19891700148582458,"120":-0.8367611765861511,"121":0.17066961526870728,"122":-0.8593111634254456,"123":1.0246305465698242,"124":1.5455058813095093,"125":0.6264938712120056,"126":1.333621859550476,"127":-0.12014662474393845,"128":-1.0375198125839233,"129":-1.1010023355484009,"130":1.2238993644714355,"131":0.6726534962654114,"132":1.4765515327453613,"133":-1.4248781204223633,"134":0.36414748430252075,"135":0.8532786965370178,"136":-0.25131577253341675,"137":1.2209999561309814,"138":-0.7850167751312256,"139":0.4621180295944214,"140":-0.9522680640220642,"141":0.9780594110488892,"142":-0.8936952352523804,"143":0.33528730273246765,"144":0.5493311882019043,"145":0.11105412244796753,"146":0.2905832827091217,"147":0.30665045976638794,"148":0.31444209814071655,"149":-1.481339454650879,"150":-0.4450652003288269,"151":-0.11016136407852173,"152":-0.39547768235206604,"153":0.3727063238620758,"154":0.9175793528556824,"155":-0.36463797092437744,"156":-0.2476411610841751,"157":0.926694929599762,"158":-0.24096691608428955,"159":-0.8631469011306763,"160":-0.4787471294403076,"161":1.9103666543960571,"162":-0.7060182094573975,"163":-0.005571812856942415,"164":-0.5800946950912476,"165":2.5233049392700195,"166":0.5467156767845154,"167":0.3877723813056946,"168":-0.5121109485626221,"169":-0.32818275690078735,"170":0.5860424041748047,"171":-0.35955503582954407,"172":0.687554121017456,"173":-0.5159633755683899,"174":-0.7814127206802368,"175":-0.008121822029352188,"176":-0.6052485108375549,"177":0.27249768376350403,"178":0.02973504737019539,"179":-1.3005605936050415,"180":-1.2506427764892578,"181":-0.067780502140522,"182":-1.223061203956604,"183":1.290717363357544,"184":1.4162888526916504,"185":-0.27619680762290955,"186":0.6020687222480774,"187":-0.46263009309768677,"188":-1.6415150165557861,"189":-1.168587565422058,"190":0.8495331406593323,"191":1.2916030883789062,"192":0.932659924030304,"193":-1.1364988088607788,"194":1.617935299873352,"195":1.3149240016937256,"196":-0.49273279309272766,"197":1.3919991254806519,"198":0.9354650974273682,"199":-0.9935880899429321,"200":-0.09892375767230988,"201":-0.1999952346086502,"202":1.0921598672866821,"203":-0.4115132987499237,"204":1.6209348440170288,"205":-2.3630473613739014,"206":-0.4416974186897278,"207":-1.0898768901824951,"208":0.5682468414306641,"209":-0.15004999935626984,"210":-1.557905673980713,"211":-0.34520894289016724,"212":-1.15007483959198,"213":0.9285964965820312,"214":0.01159753743559122,"215":-0.6001486778259277,"216":0.9657500982284546,"217":-0.18745951354503632,"218":-0.7113566994667053,"219":0.07165767252445221,"220":-0.796646773815155,"221":0.09624990075826645,"222":-1.0683871507644653,"223":-0.39724186062812805,"224":1.645338773727417,"225":0.045154374092817307,"226":1.6111445426940918,"227":-1.3785656690597534,"228":-0.24402868747711182,"229":-0.0987015962600708,"230":-0.47420424222946167,"231":0.6848996877670288,"232":0.943104088306427,"233":0.06227869912981987,"234":-0.5355217456817627,"235":-0.5142963528633118,"236":1.3319734334945679,"237":-0.4180789887905121,"238":-0.6016120910644531,"239":0.1402820348739624,"240":0.6876880526542664,"241":-0.6435942649841309,"242":0.9964219927787781,"243":-1.4879348278045654,"244":-0.8749945163726807,"245":0.4199105501174927,"246":-0.9362571835517883,"247":0.4124995470046997,"248":0.5192438364028931,"249":1.3495463132858276,"250":-1.1629252433776855,"251":0.31406664848327637,"252":0.37731996178627014,"253":0.7525060772895813,"254":-0.0467618852853775,"255":-1.7095385789871216,"256":-0.30103182792663574,"257":-0.10845062136650085,"258":-1.346032738685608,"259":0.6715338230133057,"260":-1.1152290105819702,"261":0.8797281980514526,"262":-0.8600729703903198,"263":-1.597493052482605,"264":0.4518210291862488,"265":0.9215252995491028,"266":1.1617547273635864,"267":0.11423512548208237,"268":0.2592940330505371,"269":-1.1567676067352295,"270":-0.044694822281599045,"271":-0.6382275223731995,"272":-0.5393444299697876,"273":0.5502027273178101,"274":-0.8212206363677979,"275":-1.0141897201538086,"276":1.1349269151687622,"277":-1.2107824087142944,"278":-0.9089863896369934,"279":-1.1270796060562134,"280":0.4033486545085907,"281":0.6813293099403381,"282":-1.019944667816162,"283":1.0108708143234253,"284":-0.5331695079803467,"285":-0.04473236948251724,"286":1.122019648551941,"287":1.1889322996139526,"288":-1.266072154045105,"289":0.5118679404258728,"290":0.5166152119636536,"291":1.1199419498443604,"292":0.1480526626110077,"293":-0.8781245946884155,"294":1.0869855880737305,"295":0.506024181842804,"296":-0.47820401191711426,"297":0.649867057800293,"298":1.943996548652649,"299":-0.8592652082443237,"300":-0.07316373288631439,"301":-0.7563589215278625,"302":0.2901780903339386,"303":-0.22464346885681152,"304":0.7726989388465881,"305":-0.712271511554718,"306":-0.3259715735912323,"307":-1.4410821199417114,"308":0.2921508848667145,"309":-0.0039015174843370914,"310":-0.6583787798881531,"311":-0.3211629092693329,"312":-0.6881018280982971,"313":0.571671187877655,"314":-0.4233575165271759,"315":-0.9941139221191406,"316":1.322237491607666,"317":-0.3034082055091858,"318":-0.6523909568786621,"319":1.1170541048049927,"320":-0.3908880949020386,"321":0.558224081993103,"322":0.6698511242866516,"323":-1.0906976461410522,"324":1.3993943929672241,"325":0.27730682492256165,"326":0.3026086688041687,"327":-0.17338180541992188,"328":0.7198400497436523,"329":-0.017274511978030205,"330":-0.7232822179794312,"331":-1.5242893695831299,"332":-0.06485956162214279,"333":0.5561962127685547,"334":-1.7982882261276245,"335":-1.6700738668441772,"336":1.0512498617172241,"337":-1.5334028005599976,"338":-2.248420000076294,"339":0.04761291667819023,"340":-0.9520531892776489,"341":-0.9102203249931335,"342":-0.7031618356704712,"343":-1.7683700323104858,"344":0.2691885530948639,"345":-0.22279754281044006,"346":1.5711915493011475,"347":-2.1013529300689697,"348":0.15268321335315704,"349":-1.0154151916503906,"350":-0.11206018924713135,"351":0.5623089671134949,"352":-0.4584982693195343,"353":0.6499854922294617,"354":0.2870512902736664,"355":-1.0774604082107544,"356":1.9249147176742554,"357":-0.44858914613723755,"358":-1.3220443725585938,"359":1.0424294471740723,"360":-1.7597326040267944,"361":0.40650731325149536,"362":-1.182410478591919,"363":0.06090573966503143,"364":1.8868690729141235,"365":-0.5012025237083435,"366":0.7346129417419434,"367":-0.3556954562664032,"368":0.07080409675836563,"369":-1.7265406847000122,"370":-0.14444586634635925,"371":0.3104873299598694,"372":-0.25080251693725586,"373":0.4569011330604553,"374":-0.032211918383836746,"375":0.02312319539487362,"376":0.468121737241745,"377":0.21291543543338776,"378":-0.6265181303024292,"379":-0.1745324581861496,"380":-0.6577145457267761,"381":0.1568698137998581,"382":0.3036218285560608,"383":-0.2683493494987488,"384":0.0895649790763855,"385":0.26544004678726196,"386":-0.6492568850517273,"387":-0.8433043360710144,"388":0.17479172348976135,"389":-0.2197120040655136,"390":-0.9631480574607849,"391":-0.896554172039032,"392":-0.3046351969242096,"393":-0.2037564516067505,"394":-1.5732454061508179,"395":-0.7228774428367615,"396":0.5926746726036072,"397":-1.1782219409942627,"398":-2.0683043003082275,"399":0.005671799182891846}},"inputHidden":{"rows":20,"columns":20,"weights":{"0":1.2908616065979004,"1":-0.7370408177375793,"2":1.0048750638961792,"3":0.9110179543495178,"4":-0.5893207788467407,"5":0.6870109438896179,"6":0.6129099130630493,"7":-0.3419540226459503,"8":0.9863796830177307,"9":-0.10796371847391129,"10":-1.0251215696334839,"11":-0.1588238775730133,"12":-0.9311338663101196,"13":-0.49603012204170227,"14":-1.726913571357727,"15":0.3812580108642578,"16":1.2804934978485107,"17":-1.9225821495056152,"18":0.6500777006149292,"19":-0.08525592088699341,"20":1.9557844400405884,"21":-0.0787966400384903,"22":0.00585221266373992,"23":1.066491961479187,"24":-1.9283276796340942,"25":-0.9141516089439392,"26":-1.2135738134384155,"27":-0.9262788891792297,"28":-0.2838485538959503,"29":-0.7586156725883484,"30":0.2600356340408325,"31":-0.9672994613647461,"32":0.4330735206604004,"33":-0.9728785753250122,"34":0.9329141974449158,"35":0.04882228374481201,"36":-2.159085512161255,"37":-0.35205984115600586,"38":-0.7450594902038574,"39":1.811255693435669,"40":0.32234078645706177,"41":-0.3554687201976776,"42":0.8063282370567322,"43":1.2113178968429565,"44":-0.8712966442108154,"45":0.05642908439040184,"46":1.0131117105484009,"47":-0.5508641600608826,"48":-0.03741005063056946,"49":-0.5538879036903381,"50":0.16295018792152405,"51":-0.8865106701850891,"52":0.7085134983062744,"53":0.08211110532283783,"54":-0.9321497082710266,"55":-0.13909226655960083,"56":0.6572098731994629,"57":-1.9358398914337158,"58":0.45385849475860596,"59":0.4764007329940796,"60":0.2596229910850525,"61":-1.179395079612732,"62":0.11155252158641815,"63":0.47934287786483765,"64":-0.8515188694000244,"65":0.1361628621816635,"66":1.5656360387802124,"67":-1.0578970909118652,"68":0.49430033564567566,"69":-0.27805134654045105,"70":-1.1050139665603638,"71":-0.7211885452270508,"72":-0.19275584816932678,"73":0.3360157012939453,"74":-1.6436853408813477,"75":-0.21932506561279297,"76":-0.2800939083099365,"77":-1.6015697717666626,"78":0.34945690631866455,"79":1.223924994468689,"80":0.04794745892286301,"81":-1.6756442785263062,"82":0.1921299695968628,"83":-0.33641543984413147,"84":-0.7229488492012024,"85":0.5850547552108765,"86":0.10681047290563583,"87":0.2751162350177765,"88":-0.07365212589502335,"89":0.8845299482345581,"90":-0.22183415293693542,"91":-0.315978080034256,"92":-0.036586593836545944,"93":-0.15384846925735474,"94":-1.2967137098312378,"95":0.4001178443431854,"96":-0.18678587675094604,"97":-1.9377542734146118,"98":-1.007125973701477,"99":-0.2100234031677246,"100":0.7064090967178345,"101":0.4774359166622162,"102":-0.05062505230307579,"103":0.6557563543319702,"104":-2.102667808532715,"105":-1.001367211341858,"106":1.2956037521362305,"107":-1.3370956182479858,"108":-0.5502502918243408,"109":-2.739713668823242,"110":-0.10049137473106384,"111":0.451667457818985,"112":-0.1752132922410965,"113":0.6593546271324158,"114":1.421308994293213,"115":-0.35238194465637207,"116":-1.482900857925415,"117":1.659233570098877,"118":0.24240490794181824,"119":1.6081163883209229,"120":0.4394967257976532,"121":-1.513317346572876,"122":1.874472737312317,"123":2.0922579765319824,"124":-0.44582322239875793,"125":-0.6537277698516846,"126":-1.3521662950515747,"127":0.17455312609672546,"128":0.32431474328041077,"129":-0.6663687229156494,"130":1.6013401746749878,"131":-0.7273750901222229,"132":1.0181334018707275,"133":-1.161260962486267,"134":0.8165379166603088,"135":-1.917141318321228,"136":-0.16747674345970154,"137":-0.4414656162261963,"138":1.1904393434524536,"139":0.12440510839223862,"140":-0.16710585355758667,"141":-1.273726224899292,"142":-0.4404849410057068,"143":-0.612745463848114,"144":-1.03313148021698,"145":0.3525715470314026,"146":1.0154985189437866,"147":1.4404430389404297,"148":-0.5426682233810425,"149":1.3284567594528198,"150":-1.4131051301956177,"151":0.038307271897792816,"152":-0.8533564209938049,"153":-0.9664434194564819,"154":-1.8935843706130981,"155":1.6111489534378052,"156":-1.40892493724823,"157":-2.1006336212158203,"158":-0.8939245343208313,"159":1.2837533950805664,"160":0.8018235564231873,"161":0.9550450444221497,"162":0.8933668732643127,"163":0.6080140471458435,"164":-0.7650033235549927,"165":0.5694414973258972,"166":1.0553852319717407,"167":-0.851556122303009,"168":-0.5884286761283875,"169":-0.6469891667366028,"170":0.6579262018203735,"171":-0.14436468482017517,"172":0.028824783861637115,"173":0.7155211567878723,"174":0.3757721781730652,"175":-0.1936221420764923,"176":-0.7974050045013428,"177":0.9696317911148071,"178":0.7778412699699402,"179":1.2024710178375244,"180":-0.008536342531442642,"181":-0.9756186008453369,"182":-0.36602556705474854,"183":-0.4426968991756439,"184":0.644234836101532,"185":0.1447194367647171,"186":1.044334888458252,"187":0.6643474102020264,"188":-0.2556113600730896,"189":-0.7959277629852295,"190":0.8011041283607483,"191":-0.5774825215339661,"192":-0.5435594916343689,"193":-0.129741832613945,"194":-0.35777708888053894,"195":-0.27572205662727356,"196":-0.04149341210722923,"197":-0.4205446243286133,"198":0.3869352638721466,"199":0.564399003982544,"200":-0.08153614401817322,"201":-0.41461417078971863,"202":0.3954772651195526,"203":0.6464217901229858,"204":0.22333469986915588,"205":-1.2846715450286865,"206":1.171267032623291,"207":0.04270381107926369,"208":-0.5449686646461487,"209":0.18218818306922913,"210":0.2574981153011322,"211":0.2528505027294159,"212":-0.5691443681716919,"213":-0.7904474139213562,"214":-0.14372281730175018,"215":0.25510892271995544,"216":0.6347070932388306,"217":-1.5352160930633545,"218":0.05685731768608093,"219":0.1529838591814041,"220":-0.13312937319278717,"221":-0.6851078271865845,"222":-0.2637062668800354,"223":0.019416235387325287,"224":0.044449906796216965,"225":0.957796037197113,"226":2.488737106323242,"227":1.7244478464126587,"228":0.7044337391853333,"229":0.8416942358016968,"230":-0.9829444289207458,"231":-1.0180377960205078,"232":-0.8809880614280701,"233":-1.1983765363693237,"234":-1.2447198629379272,"235":0.9642496705055237,"236":-1.0708569288253784,"237":-1.7219184637069702,"238":0.16742803156375885,"239":1.1743404865264893,"240":-1.3845010995864868,"241":-1.8884764909744263,"242":-1.4245699644088745,"243":-1.1330654621124268,"244":0.912275493144989,"245":-0.1949097216129303,"246":-0.9975290298461914,"247":1.5289572477340698,"248":0.06736492365598679,"249":0.319517582654953,"250":0.19034436345100403,"251":0.22696369886398315,"252":-0.7186973094940186,"253":-0.37475669384002686,"254":-1.2549433708190918,"255":0.2512678802013397,"256":1.4355047941207886,"257":-2.0543174743652344,"258":0.7336137890815735,"259":-1.5086814165115356,"260":0.8202089071273804,"261":-0.17117300629615784,"262":0.3751322627067566,"263":1.088618516921997,"264":0.3916667699813843,"265":1.5335773229599,"266":-0.20470935106277466,"267":0.029163094237446785,"268":0.6281949281692505,"269":0.9750664830207825,"270":0.4579511284828186,"271":-0.7721463441848755,"272":-0.03666701167821884,"273":0.7917509078979492,"274":0.7404378056526184,"275":-1.3776253461837769,"276":0.9435847997665405,"277":-0.46065273880958557,"278":0.7648616433143616,"279":-0.9696261882781982,"280":-0.181540384888649,"281":-0.07173501700162888,"282":-0.19010290503501892,"283":-0.1905539631843567,"284":0.718756377696991,"285":0.55853271484375,"286":-0.3009304404258728,"287":1.7267283201217651,"288":0.4692065119743347,"289":1.5806491374969482,"290":0.19635245203971863,"291":0.1768742948770523,"292":0.4520862400531769,"293":0.23325037956237793,"294":-2.022660970687866,"295":-1.0992387533187866,"296":-0.61166912317276,"297":-0.7405535578727722,"298":-1.072056770324707,"299":-0.03631018102169037,"300":0.9610399007797241,"301":0.5415900945663452,"302":0.7440395355224609,"303":1.3038699626922607,"304":-0.023236697539687157,"305":-0.13247276842594147,"306":-0.25265464186668396,"307":-0.6879842281341553,"308":0.6247072219848633,"309":0.8900513648986816,"310":1.0739847421646118,"311":-0.13776911795139313,"312":0.708396315574646,"313":-1.1961952447891235,"314":0.6251814365386963,"315":-0.7901468276977539,"316":-0.43166396021842957,"317":-1.1780118942260742,"318":1.3078199625015259,"319":0.24853897094726562,"320":0.5890043377876282,"321":-0.2138684093952179,"322":0.49191170930862427,"323":1.6919925212860107,"324":-0.7221776843070984,"325":-0.5861427783966064,"326":-0.39509421586990356,"327":-2.4266462326049805,"328":1.7284767627716064,"329":-0.42254215478897095,"330":0.025558536872267723,"331":-1.4281342029571533,"332":2.1011781692504883,"333":-0.4349592626094818,"334":0.5522623658180237,"335":-0.11187895387411118,"336":-0.5479671955108643,"337":-0.027916811406612396,"338":0.4380977153778076,"339":0.9537143707275391,"340":-2.29086971282959,"341":2.3279223442077637,"342":-2.095646619796753,"343":-1.7797821760177612,"344":2.771723985671997,"345":0.4982651174068451,"346":-1.2089569568634033,"347":3.1609878540039062,"348":-0.49258044362068176,"349":-1.1001882553100586,"350":-0.6837316155433655,"351":0.48863980174064636,"352":-1.4610170125961304,"353":-0.5934585332870483,"354":2.5347511768341064,"355":0.3715904951095581,"356":1.0143569707870483,"357":0.47653520107269287,"358":0.0673508569598198,"359":-1.7068034410476685,"360":1.1049884557724,"361":0.21794523298740387,"362":0.4014555811882019,"363":0.05910143256187439,"364":-1.014651894569397,"365":0.3159736692905426,"366":1.2828041315078735,"367":-0.20870432257652283,"368":0.07406904548406601,"369":-0.24091148376464844,"370":-0.7417539954185486,"371":-0.2358652949333191,"372":0.15787392854690552,"373":0.6284802556037903,"374":-0.7687433958053589,"375":0.10236723721027374,"376":-0.6877885460853577,"377":-2.796391010284424,"378":-0.8863522410392761,"379":0.3426482677459717,"380":-0.4258755147457123,"381":0.009095861576497555,"382":0.2960502505302429,"383":1.7866605520248413,"384":0.5702744722366333,"385":-1.585662603378296,"386":-0.010518350638449192,"387":-0.8556889891624451,"388":1.2292400598526,"389":-0.6278611421585083,"390":1.3014956712722778,"391":-1.0892342329025269,"392":1.158528447151184,"393":-0.7790049910545349,"394":0.11510688066482544,"395":-0.8807357549667358,"396":-1.2396160364151,"397":-0.19653883576393127,"398":2.3366100788116455,"399":1.8275467157363892}},"inputBias":{"rows":20,"columns":1,"weights":{"0":-1.1625605821609497,"1":-2.172349691390991,"2":-0.3468541204929352,"3":-0.5068391561508179,"4":-1.2443526983261108,"5":-0.9373104572296143,"6":-0.11696930974721909,"7":-0.35405293107032776,"8":0.9533550143241882,"9":-0.19847886264324188,"10":-0.6798291802406311,"11":1.7376044988632202,"12":-0.20320864021778107,"13":0.4595128297805786,"14":0.7647401094436646,"15":-1.1013072729110718,"16":-0.672517716884613,"17":2.25907039642334,"18":-0.2410707175731659,"19":-0.8318350911140442}},"forgetMatrix":{"rows":20,"columns":20,"weights":{"0":-0.7057694792747498,"1":1.8333948850631714,"2":-1.3266736268997192,"3":0.5170069932937622,"4":-0.788011372089386,"5":1.2436952590942383,"6":0.7241842150688171,"7":2.028224229812622,"8":-0.620057225227356,"9":0.03095400333404541,"10":0.511201798915863,"11":-0.16801050305366516,"12":0.6308093667030334,"13":-0.6120079159736633,"14":-0.3613553047180176,"15":0.23074398934841156,"16":-1.678457260131836,"17":-0.1381666660308838,"18":0.13610699772834778,"19":-1.6484336853027344,"20":-0.7826359868049622,"21":1.6083327531814575,"22":-0.38701194524765015,"23":2.3247783184051514,"24":0.30482780933380127,"25":-1.3972818851470947,"26":1.650244951248169,"27":0.3834438621997833,"28":-1.1788156032562256,"29":-0.47724229097366333,"30":1.3228368759155273,"31":0.9979028105735779,"32":2.390341281890869,"33":-1.3719050884246826,"34":0.05694811791181564,"35":1.2871752977371216,"36":-0.046174775809049606,"37":0.03767533227801323,"38":-0.27211228013038635,"39":-1.8354545831680298,"40":-0.32320863008499146,"41":1.4549684524536133,"42":-0.06379160284996033,"43":1.0199476480484009,"44":0.17045244574546814,"45":0.7334054112434387,"46":0.08276768028736115,"47":2.3561437129974365,"48":-1.1401574611663818,"49":0.18759097158908844,"50":0.7153922319412231,"51":0.2867744565010071,"52":0.8933512568473816,"53":-1.0582464933395386,"54":0.32894158363342285,"55":0.7803901433944702,"56":-1.168192982673645,"57":0.4331468343734741,"58":-0.0629485473036766,"59":-1.882243275642395,"60":-1.548841118812561,"61":0.9243971109390259,"62":-1.442832350730896,"63":1.378422737121582,"64":0.8129160404205322,"65":-0.12674960494041443,"66":1.671920895576477,"67":1.8821614980697632,"68":-1.261185884475708,"69":-1.1569976806640625,"70":0.6541621685028076,"71":0.5950813293457031,"72":0.4911014139652252,"73":-0.9387263655662537,"74":1.215638279914856,"75":1.3560402393341064,"76":-1.284283995628357,"77":1.3901793956756592,"78":0.6511018872261047,"79":-2.1379637718200684,"80":1.4412307739257812,"81":-0.0901484489440918,"82":0.5695188641548157,"83":-0.1698390245437622,"84":-1.0197560787200928,"85":0.6450917720794678,"86":-0.6309242248535156,"87":1.2679184675216675,"88":0.06133982911705971,"89":1.54677152633667,"90":-0.14416499435901642,"91":-0.45791545510292053,"92":-0.044657837599515915,"93":-0.19192136824131012,"94":0.3755972981452942,"95":-0.3027437925338745,"96":-0.5269614458084106,"97":0.4527825713157654,"98":0.5711879134178162,"99":0.01721624657511711,"100":-0.9832063913345337,"101":0.45194360613822937,"102":-0.8289136290550232,"103":-1.875588059425354,"104":0.7940019965171814,"105":-0.18573538959026337,"106":0.761580228805542,"107":0.07228457927703857,"108":1.491849660873413,"109":-1.1328704357147217,"110":-0.8510424494743347,"111":-0.4070298671722412,"112":-0.7069734334945679,"113":1.1238303184509277,"114":0.1059274822473526,"115":-1.2258036136627197,"116":1.622800350189209,"117":-0.31361106038093567,"118":-0.10240548104047775,"119":-1.6472034454345703,"120":-0.2116067111492157,"121":-1.0416384935379028,"122":0.8976172804832458,"123":-0.6304036378860474,"124":0.21705184876918793,"125":-0.8811187744140625,"126":-0.9897829294204712,"127":-0.8446295261383057,"128":0.8517603278160095,"129":-0.10263558477163315,"130":-0.9798508882522583,"131":-0.6757193207740784,"132":-0.8893448114395142,"133":1.0070563554763794,"134":-0.9447880387306213,"135":-1.2138551473617554,"136":1.5238357782363892,"137":-1.4253861904144287,"138":-1.1232050657272339,"139":1.1782389879226685,"140":-0.1784084588289261,"141":-0.6722500324249268,"142":0.34844112396240234,"143":0.6880709528923035,"144":0.1578747183084488,"145":0.17557543516159058,"146":-0.23178818821907043,"147":0.1713477224111557,"148":-0.06353926658630371,"149":-0.1536121815443039,"150":-0.14114730060100555,"151":2.6427395343780518,"152":1.1378226280212402,"153":0.19123420119285583,"154":0.2093348354101181,"155":1.0989649295806885,"156":-0.7388880252838135,"157":0.06766878068447113,"158":0.4597567319869995,"159":0.7686813473701477,"160":-0.49318376183509827,"161":1.3125802278518677,"162":-1.1343014240264893,"163":0.5351566076278687,"164":-0.3227212429046631,"165":-0.8583967089653015,"166":2.541686534881592,"167":1.4734630584716797,"168":-0.806403636932373,"169":-2.383152723312378,"170":0.3828335404396057,"171":0.9022621512413025,"172":-0.05841163173317909,"173":-0.43614134192466736,"174":1.204241156578064,"175":1.0462144613265991,"176":-0.7268690466880798,"177":1.064327597618103,"178":0.7671639919281006,"179":-1.875502586364746,"180":-1.3941653966903687,"181":0.662144124507904,"182":-0.6336689591407776,"183":0.905800998210907,"184":0.6910260319709778,"185":-1.8052129745483398,"186":1.7313456535339355,"187":0.08559171110391617,"188":-0.7983930706977844,"189":-1.3213156461715698,"190":0.34749895334243774,"191":0.08862555027008057,"192":0.5431703329086304,"193":-0.515884518623352,"194":0.6528511643409729,"195":1.1368954181671143,"196":0.5682061910629272,"197":-0.4471604824066162,"198":1.3111076354980469,"199":-1.3622461557388306,"200":-0.4943799376487732,"201":1.0381121635437012,"202":-0.139154314994812,"203":0.8739411234855652,"204":0.70487380027771,"205":-1.1513962745666504,"206":0.7858129739761353,"207":0.5776664018630981,"208":-0.8698530197143555,"209":-0.21384845674037933,"210":0.48445603251457214,"211":-1.532515287399292,"212":-0.6906275153160095,"213":-0.5647250413894653,"214":-0.19823545217514038,"215":0.28990933299064636,"216":-0.2802082598209381,"217":-0.06336122006177902,"218":-0.08578812330961227,"219":-0.8695161938667297,"220":-0.030773771926760674,"221":-0.3978918194770813,"222":0.3999871015548706,"223":-1.922695517539978,"224":0.6965170502662659,"225":-0.45103582739830017,"226":-0.3843867778778076,"227":-1.5669909715652466,"228":1.7504026889801025,"229":0.10080339014530182,"230":-1.9694005250930786,"231":-1.459740161895752,"232":-1.7781999111175537,"233":2.1043131351470947,"234":-0.7394140958786011,"235":-1.750907063484192,"236":2.462373733520508,"237":-1.011228322982788,"238":-1.1015681028366089,"239":0.6811432242393494,"240":0.7978653311729431,"241":-0.13018682599067688,"242":1.3259164094924927,"243":0.8206832408905029,"244":-0.2118002325296402,"245":-0.27631089091300964,"246":-1.0019644498825073,"247":1.6121900081634521,"248":-0.69047611951828,"249":0.7067906260490417,"250":0.7450633645057678,"251":-0.0028417203575372696,"252":0.5508447289466858,"253":-0.6704626679420471,"254":0.7956766486167908,"255":0.4749598503112793,"256":-1.0910271406173706,"257":0.8528438806533813,"258":1.6333261728286743,"259":0.457529217004776,"260":-1.2171175479888916,"261":0.4011252224445343,"262":-0.09869083017110825,"263":-2.153390407562256,"264":0.8134446740150452,"265":0.20489761233329773,"266":0.35584044456481934,"267":-0.5718401074409485,"268":1.6559786796569824,"269":-0.4917236864566803,"270":-1.1314388513565063,"271":-1.666787028312683,"272":-1.198815107345581,"273":1.6588993072509766,"274":-1.1848896741867065,"275":-2.1616568565368652,"276":1.151344895362854,"277":-1.4972795248031616,"278":-1.5494459867477417,"279":-0.05786518007516861,"280":-0.15352334082126617,"281":0.344856321811676,"282":-0.25182148814201355,"283":0.8757882118225098,"284":-0.5286473631858826,"285":-1.2206645011901855,"286":0.4297528862953186,"287":-0.7029767632484436,"288":0.4152570068836212,"289":-0.13664716482162476,"290":-0.12414520233869553,"291":-1.6634258031845093,"292":-0.2799842953681946,"293":-0.371695339679718,"294":-0.019477199763059616,"295":-0.021263672038912773,"296":-0.7519336342811584,"297":-0.3056356906890869,"298":0.4189619719982147,"299":-0.8882473707199097,"300":-0.6680416464805603,"301":0.9204534888267517,"302":-0.8000350594520569,"303":-0.04608253389596939,"304":1.1249876022338867,"305":-0.8940860629081726,"306":1.65053391456604,"307":0.4048379361629486,"308":-0.4095877408981323,"309":-0.7324355244636536,"310":0.007780002895742655,"311":0.4455081820487976,"312":0.06507150083780289,"313":-0.3131674528121948,"314":0.8092673420906067,"315":0.01367766410112381,"316":-0.20401400327682495,"317":0.4766600728034973,"318":0.628358006477356,"319":-1.0785582065582275,"320":-0.30042019486427307,"321":1.2002454996109009,"322":-0.36560314893722534,"323":-0.020431838929653168,"324":0.257657527923584,"325":0.09302722662687302,"326":0.6950165629386902,"327":1.2785825729370117,"328":-0.6871677041053772,"329":-0.4174799919128418,"330":1.0971288681030273,"331":-0.4736628234386444,"332":0.8957136273384094,"333":-0.8276286125183105,"334":-0.7741390466690063,"335":0.9379106760025024,"336":-0.9443659782409668,"337":-0.2664869725704193,"338":-0.7438867092132568,"339":-1.7254586219787598,"340":1.056268334388733,"341":-1.4960941076278687,"342":0.6442007422447205,"343":1.957829236984253,"344":0.4096865653991699,"345":-1.750697135925293,"346":-1.6414588689804077,"347":0.15130974352359772,"348":-0.9990110397338867,"349":1.0905241966247559,"350":0.23232996463775635,"351":1.3584060668945312,"352":-0.4913923442363739,"353":-0.12123720347881317,"354":1.6025416851043701,"355":1.5259220600128174,"356":-0.5533986687660217,"357":1.50221848487854,"358":2.288069248199463,"359":1.4608020782470703,"360":-0.5831282734870911,"361":1.3573888540267944,"362":-1.3262083530426025,"363":0.996761679649353,"364":-0.3807178735733032,"365":1.2624815702438354,"366":0.4451087713241577,"367":1.661757469177246,"368":-0.9791961908340454,"369":-0.8733834028244019,"370":0.31792935729026794,"371":0.4496695101261139,"372":0.006222663912922144,"373":-0.7082957625389099,"374":0.4639062285423279,"375":-0.22385862469673157,"376":-0.9334688186645508,"377":0.6390111446380615,"378":0.16834092140197754,"379":-1.826003074645996,"380":-0.026857752352952957,"381":0.6737562417984009,"382":0.6209362149238586,"383":-0.8946005702018738,"384":-0.04497522860765457,"385":0.4546014368534088,"386":0.009799046441912651,"387":1.0933005809783936,"388":0.8484642505645752,"389":-0.24772974848747253,"390":-0.2725396752357483,"391":-0.253791481256485,"392":-0.5586108565330505,"393":0.3038719892501831,"394":0.19596029818058014,"395":-0.08547388017177582,"396":0.4355448782444,"397":-0.22550752758979797,"398":-0.5065743923187256,"399":-1.8639309406280518}},"forgetHidden":{"rows":20,"columns":20,"weights":{"0":-0.28597086668014526,"1":1.4966715574264526,"2":-0.4233378767967224,"3":0.33673420548439026,"4":0.5173290371894836,"5":-0.9877303838729858,"6":0.5341960787773132,"7":0.14080512523651123,"8":-0.14598695933818817,"9":-0.034072887152433395,"10":0.7134472727775574,"11":-1.9719188213348389,"12":0.1738157421350479,"13":-0.6619911789894104,"14":0.09281139075756073,"15":-0.027683889493346214,"16":-1.1740615367889404,"17":1.7079393863677979,"18":-0.3739904463291168,"19":1.0330510139465332,"20":1.750154972076416,"21":0.20665842294692993,"22":1.4422441720962524,"23":0.9482890367507935,"24":-0.4103267192840576,"25":0.8755778670310974,"26":-0.9622817039489746,"27":-0.3547620177268982,"28":1.629515290260315,"29":0.7854006290435791,"30":1.6534019708633423,"31":-0.1253458708524704,"32":-0.44915759563446045,"33":0.5589841604232788,"34":-0.27211567759513855,"35":-0.5363115668296814,"36":1.326456069946289,"37":-0.3408668041229248,"38":1.4474096298217773,"39":-1.9175440073013306,"40":-0.758348286151886,"41":0.8769272565841675,"42":-0.3484381437301636,"43":-0.026899434626102448,"44":0.6188526153564453,"45":-0.28007370233535767,"46":0.5998121500015259,"47":0.4375089108943939,"48":-0.35820820927619934,"49":0.032267045229673386,"50":-0.06524019688367844,"51":-0.6160964369773865,"52":-0.5399402976036072,"53":-0.3174741566181183,"54":-0.7274024486541748,"55":-0.2723727226257324,"56":-1.073131799697876,"57":0.4579804539680481,"58":-0.446865051984787,"59":0.34798625111579895,"60":0.09769359976053238,"61":1.3603142499923706,"62":-0.14668361842632294,"63":-0.4133525490760803,"64":-0.4732149839401245,"65":-1.1058522462844849,"66":0.39524123072624207,"67":0.259353369474411,"68":-0.07476051896810532,"69":-0.32293203473091125,"70":-0.3816257417201996,"71":-1.3199509382247925,"72":0.2685040831565857,"73":-1.1468641757965088,"74":-0.3871362805366516,"75":-0.11282513290643692,"76":-0.8260711431503296,"77":-0.026564929634332657,"78":-0.4050825536251068,"79":0.6140258312225342,"80":1.3992187976837158,"81":1.1242104768753052,"82":0.6344847679138184,"83":0.012259159237146378,"84":-0.5126482248306274,"85":-1.3213623762130737,"86":0.7697154879570007,"87":0.3434617817401886,"88":-0.5485696196556091,"89":-0.3305523693561554,"90":-0.019319236278533936,"91":-1.7513548135757446,"92":0.4561140537261963,"93":-1.0607737302780151,"94":0.498103529214859,"95":0.6089251637458801,"96":-1.1291258335113525,"97":0.23211342096328735,"98":-0.43470796942710876,"99":0.012465912848711014,"100":-0.1295909881591797,"101":-0.29801690578460693,"102":-0.08938911557197571,"103":-0.08800450712442398,"104":-0.07386422902345657,"105":0.6715695858001709,"106":-0.314614862203598,"107":0.43286991119384766,"108":-0.9206717014312744,"109":-0.04170200973749161,"110":-0.24935828149318695,"111":0.11053670942783356,"112":-0.7785626649856567,"113":-0.3649768829345703,"114":0.03146405518054962,"115":0.11967713385820389,"116":1.8026193380355835,"117":0.321502149105072,"118":-0.13941438496112823,"119":-1.1650141477584839,"120":-0.6355186104774475,"121":-0.5849217772483826,"122":-0.7541825771331787,"123":-0.061905719339847565,"124":0.8806213140487671,"125":1.494230031967163,"126":-0.6393172740936279,"127":0.6760348081588745,"128":-0.5590805411338806,"129":0.7404763102531433,"130":-0.11541910469532013,"131":0.8124182224273682,"132":-0.678260087966919,"133":0.8275803327560425,"134":0.7367656826972961,"135":0.2566746771335602,"136":1.0290210247039795,"137":0.7067143321037292,"138":-0.09556400030851364,"139":-0.506277859210968,"140":-0.2770702540874481,"141":0.20241670310497284,"142":-1.8231680393218994,"143":-1.8654088973999023,"144":1.7552226781845093,"145":-0.6863924264907837,"146":0.3157820403575897,"147":0.06874492019414902,"148":-0.6060888171195984,"149":-0.5668045282363892,"150":-1.2286618947982788,"151":-0.31426671147346497,"152":-1.6793558597564697,"153":-0.8905863761901855,"154":0.007877955213189125,"155":1.5163298845291138,"156":1.0339024066925049,"157":0.15920321643352509,"158":-2.420680046081543,"159":0.2813042402267456,"160":0.323027640581131,"161":0.5425946712493896,"162":0.44737207889556885,"163":0.2856958508491516,"164":0.11688091605901718,"165":-1.2635301351547241,"166":0.1486799418926239,"167":-0.1669589877128601,"168":-0.5479708313941956,"169":-0.8513176441192627,"170":0.468649685382843,"171":-0.18203392624855042,"172":-0.23519988358020782,"173":-1.3159842491149902,"174":0.5702949166297913,"175":-0.17170800268650055,"176":-0.5438513159751892,"177":0.9295275807380676,"178":0.17720939218997955,"179":0.5282966494560242,"180":0.568451464176178,"181":-1.4447529315948486,"182":0.5577457547187805,"183":0.6083505153656006,"184":-0.5888593792915344,"185":0.7230286598205566,"186":-0.4477291405200958,"187":-0.7212360501289368,"188":-0.27371490001678467,"189":1.5717780590057373,"190":-0.11784207075834274,"191":-0.5721439123153687,"192":0.42547592520713806,"193":0.007844439707696438,"194":-1.8144923448562622,"195":-0.1552959531545639,"196":0.45085635781288147,"197":-1.3384878635406494,"198":-0.024511095136404037,"199":-1.03322172164917,"200":0.4643096327781677,"201":0.41828325390815735,"202":-0.4356972873210907,"203":-0.3726402521133423,"204":-0.6414505839347839,"205":0.29226070642471313,"206":-0.29535412788391113,"207":-0.27596670389175415,"208":0.5767540335655212,"209":-0.016652727499604225,"210":1.6267298460006714,"211":-2.8259615898132324,"212":1.6547023057937622,"213":-1.4392143487930298,"214":0.23659645020961761,"215":-0.8731038570404053,"216":0.7286093831062317,"217":-0.8971797823905945,"218":0.7352955937385559,"219":-0.33374056220054626,"220":0.15101325511932373,"221":-0.059660062193870544,"222":-0.09459014981985092,"223":-0.1358301192522049,"224":-0.1833646446466446,"225":0.49800750613212585,"226":-0.044204484671354294,"227":0.05282300338149071,"228":-0.3248889446258545,"229":-0.5117079615592957,"230":0.9811933040618896,"231":0.015009932219982147,"232":0.7581399083137512,"233":0.7729020714759827,"234":-0.06245969980955124,"235":-0.35893797874450684,"236":0.20759373903274536,"237":0.20861724019050598,"238":0.5938029289245605,"239":-0.03854327276349068,"240":0.2051580250263214,"241":1.2288051843643188,"242":-0.9885581135749817,"243":-1.3123571872711182,"244":-0.013878670521080494,"245":0.08060523122549057,"246":0.27664807438850403,"247":0.4947654902935028,"248":-0.9295987486839294,"249":-0.636187732219696,"250":-0.2985195219516754,"251":-1.3842672109603882,"252":0.12905986607074738,"253":-1.2893089056015015,"254":0.7013435363769531,"255":0.6805393695831299,"256":0.609023928642273,"257":-0.6825573444366455,"258":-0.735819399356842,"259":-0.7859089970588684,"260":-1.1240681409835815,"261":-0.8520952463150024,"262":-0.18310432136058807,"263":0.5291038155555725,"264":0.196432426571846,"265":-0.1951727420091629,"266":-0.4051499664783478,"267":0.26549622416496277,"268":-0.1794617921113968,"269":-0.3139188289642334,"270":-0.9644653797149658,"271":0.0499710887670517,"272":-0.27153536677360535,"273":-0.1463986486196518,"274":0.22883747518062592,"275":0.37638768553733826,"276":0.22861091792583466,"277":0.547461211681366,"278":-0.13428272306919098,"279":-0.9494927525520325,"280":-0.7098352909088135,"281":-1.771477222442627,"282":-1.0650328397750854,"283":-1.2100805044174194,"284":1.6556487083435059,"285":1.7245855331420898,"286":0.5425240993499756,"287":2.5414140224456787,"288":-1.245902419090271,"289":1.4762521982192993,"290":-1.29533851146698,"291":-0.09160194545984268,"292":-0.3444572687149048,"293":0.16582703590393066,"294":-0.9535964131355286,"295":0.8496826887130737,"296":0.11218392848968506,"297":-0.6313695907592773,"298":-1.2397141456604004,"299":-0.3131478726863861,"300":-0.4277757406234741,"301":0.4218514561653137,"302":0.31505537033081055,"303":1.0506491661071777,"304":1.3123294115066528,"305":-1.6121830940246582,"306":1.2203235626220703,"307":-0.3091057538986206,"308":0.24442322552204132,"309":-1.0828301906585693,"310":0.20012758672237396,"311":-0.78800368309021,"312":-0.5008693337440491,"313":-0.6156302094459534,"314":0.41542938351631165,"315":-0.2391977608203888,"316":-0.7377763390541077,"317":0.8704988956451416,"318":0.9304645657539368,"319":-0.4113960862159729,"320":-0.058555372059345245,"321":1.5661875009536743,"322":0.010071651078760624,"323":0.6464409828186035,"324":0.31586557626724243,"325":0.7285969257354736,"326":0.9407170414924622,"327":-0.0747876837849617,"328":0.7780644297599792,"329":0.6061097383499146,"330":-0.30445417761802673,"331":-0.03534897789359093,"332":0.19210943579673767,"333":0.48735567927360535,"334":0.26292264461517334,"335":0.057624198496341705,"336":0.751759946346283,"337":0.2627122700214386,"338":-0.002255673985928297,"339":0.9190464019775391,"340":0.2831132113933563,"341":-1.2103511095046997,"342":0.9640277624130249,"343":-0.818149745464325,"344":-0.3916791081428528,"345":-1.29161536693573,"346":-1.4813727140426636,"347":0.37827053666114807,"348":-0.2528076469898224,"349":2.0063483715057373,"350":-0.18243233859539032,"351":0.43249425292015076,"352":0.11141826212406158,"353":-1.5558273792266846,"354":-2.3151798248291016,"355":0.5754066109657288,"356":2.156895875930786,"357":-0.02627130225300789,"358":-0.4709642231464386,"359":-1.866923451423645,"360":0.12564992904663086,"361":1.29973566532135,"362":0.1763240098953247,"363":-0.4221297800540924,"364":-0.15981118381023407,"365":-0.9278942346572876,"366":1.656166911125183,"367":0.8637944459915161,"368":-0.042783670127391815,"369":-0.5491170287132263,"370":0.15078617632389069,"371":-0.7635424733161926,"372":0.571622371673584,"373":-0.8915603160858154,"374":-0.2704560458660126,"375":-0.5017749667167664,"376":-0.43926841020584106,"377":1.2325133085250854,"378":-0.14468646049499512,"379":0.5489845275878906,"380":1.4269988536834717,"381":-1.151698112487793,"382":0.787581741809845,"383":1.367034673690796,"384":-0.6043971180915833,"385":0.49350377917289734,"386":0.24439416825771332,"387":0.0800737738609314,"388":-1.2099997997283936,"389":-0.507213830947876,"390":0.3532746732234955,"391":0.48260775208473206,"392":0.170381098985672,"393":-0.14079271256923676,"394":-0.04333782568573952,"395":-0.49392619729042053,"396":0.5863613486289978,"397":0.5447826385498047,"398":-0.009992082603275776,"399":-1.400051236152649}},"forgetBias":{"rows":20,"columns":1,"weights":{"0":0,"1":0,"2":0,"3":0,"4":0,"5":0,"6":0,"7":0,"8":0,"9":0,"10":0,"11":0,"12":0,"13":0,"14":0,"15":0,"16":0,"17":0,"18":0,"19":0}},"outputMatrix":{"rows":20,"columns":20,"weights":{"0":-1.3875975608825684,"1":0.7986113429069519,"2":-1.2218246459960938,"3":-0.7150981426239014,"4":1.7789826393127441,"5":-0.1513986736536026,"6":0.6526204943656921,"7":-1.3352808952331543,"8":0.554558515548706,"9":-1.5640870332717896,"10":-0.8858566284179688,"11":-0.2956435978412628,"12":-0.23629416525363922,"13":1.0790225267410278,"14":0.4370989203453064,"15":-0.6435757875442505,"16":0.8767285943031311,"17":-0.16843679547309875,"18":-0.5871604681015015,"19":-0.977575421333313,"20":-1.6407349109649658,"21":1.8432774543762207,"22":-1.0003126859664917,"23":0.36159732937812805,"24":1.725437045097351,"25":-1.463189721107483,"26":1.089418888092041,"27":1.6605948209762573,"28":-0.2991958260536194,"29":-2.0861735343933105,"30":0.5190134048461914,"31":0.004902264568954706,"32":0.13027016818523407,"33":-0.4786372780799866,"34":0.6200117468833923,"35":0.37303832173347473,"36":-0.6705211400985718,"37":0.2596723437309265,"38":0.8324936032295227,"39":-1.8840583562850952,"40":-0.19071544706821442,"41":-0.3213225305080414,"42":-0.5683881640434265,"43":0.0031825078185647726,"44":0.1556825488805771,"45":-0.8633906841278076,"46":0.24789392948150635,"47":0.339836984872818,"48":-0.5716493129730225,"49":-0.7691077589988708,"50":0.6521986126899719,"51":0.8317492008209229,"52":0.18483036756515503,"53":-0.2844998836517334,"54":0.8639006614685059,"55":0.6444776058197021,"56":-0.13955086469650269,"57":0.6682435870170593,"58":-0.3031174838542938,"59":0.3691471219062805,"60":-0.5177687406539917,"61":-0.7953926920890808,"62":0.5512816905975342,"63":0.34409743547439575,"64":0.8514642119407654,"65":-2.5255494117736816,"66":-0.5234596729278564,"67":-0.8225368857383728,"68":-0.13891693949699402,"69":-0.36504027247428894,"70":-0.08434700965881348,"71":0.11877849698066711,"72":0.11019647121429443,"73":0.014648952521383762,"74":0.6173521280288696,"75":0.23859894275665283,"76":-0.3274315893650055,"77":0.34889352321624756,"78":0.195344015955925,"79":0.8070889115333557,"80":-0.5988254547119141,"81":-0.16133180260658264,"82":-0.7055631279945374,"83":-0.38325464725494385,"84":0.87673419713974,"85":-1.010863184928894,"86":0.6771194338798523,"87":1.1734319925308228,"88":0.0831468477845192,"89":-1.358459234237671,"90":0.47648537158966064,"91":0.24321499466896057,"92":0.1328875720500946,"93":-0.078453429043293,"94":0.8568844199180603,"95":0.5616365075111389,"96":-0.7538504004478455,"97":0.9600678086280823,"98":0.2981686294078827,"99":0.7963945269584656,"100":-0.6685104370117188,"101":0.8233420848846436,"102":-1.7036688327789307,"103":-0.8507225513458252,"104":1.5586540699005127,"105":-0.603791356086731,"106":0.6936228275299072,"107":0.4241465926170349,"108":0.7102531790733337,"109":-0.9997169375419617,"110":-0.4143601059913635,"111":-0.7851251363754272,"112":0.22303128242492676,"113":0.438774436712265,"114":0.3656068444252014,"115":-0.6286224722862244,"116":0.4913109838962555,"117":-0.5021971464157104,"118":0.5218192338943481,"119":-1.3053053617477417,"120":-0.6772893071174622,"121":-0.20813322067260742,"122":-0.6954827904701233,"123":1.2968500852584839,"124":1.788498878479004,"125":-0.34456369280815125,"126":0.32836613059043884,"127":-0.26068711280822754,"128":-1.0668694972991943,"129":-1.5974133014678955,"130":0.5761058330535889,"131":0.7082842588424683,"132":1.248146891593933,"133":-1.241380214691162,"134":0.1386849582195282,"135":0.5442845225334167,"136":0.8863557577133179,"137":-0.09698078781366348,"138":-0.14421948790550232,"139":0.5514658093452454,"140":-0.38029542565345764,"141":-0.03859582170844078,"142":0.011982541531324387,"143":0.7211614847183228,"144":1.0188473463058472,"145":-1.2580398321151733,"146":0.6634508371353149,"147":0.5625247359275818,"148":-0.4824315309524536,"149":-1.0163215398788452,"150":0.2637198865413666,"151":0.6586281657218933,"152":0.5622469186782837,"153":-0.27652037143707275,"154":0.9262373447418213,"155":0.5861936211585999,"156":0.15863649547100067,"157":0.8176472187042236,"158":0.589402437210083,"159":-0.054044969379901886,"160":-0.3265490233898163,"161":-0.6469214558601379,"162":0.19463026523590088,"163":-1.5393422842025757,"164":-0.31474900245666504,"165":0.5133634209632874,"166":-1.0898311138153076,"167":-0.902540385723114,"168":0.9588165283203125,"169":0.10270565748214722,"170":-1.2754260301589966,"171":-1.0956406593322754,"172":-1.0329560041427612,"173":1.291793942451477,"174":-0.8530672788619995,"175":-1.6161882877349854,"176":0.8443540930747986,"177":-0.8551160097122192,"178":-1.2377939224243164,"179":0.8303452134132385,"180":-1.4556514024734497,"181":1.0927977561950684,"182":-0.9215402603149414,"183":0.9715365171432495,"184":2.193620443344116,"185":-0.8086186647415161,"186":0.2915334105491638,"187":0.7152182459831238,"188":-1.004105806350708,"189":-1.1563878059387207,"190":0.42492979764938354,"191":0.8397567272186279,"192":1.2716611623764038,"193":-0.8845323324203491,"194":1.5400798320770264,"195":0.23555327951908112,"196":0.04928108677268028,"197":0.6164277195930481,"198":0.5567705631256104,"199":-1.3981869220733643,"200":-0.04386875778436661,"201":-1.5645112991333008,"202":0.937390148639679,"203":0.29779961705207825,"204":0.4045219421386719,"205":-3.031607151031494,"206":-0.9087304472923279,"207":0.36904212832450867,"208":-0.3329346477985382,"209":0.004147250670939684,"210":-0.22876618802547455,"211":-0.22620491683483124,"212":-0.8220077157020569,"213":0.025316894054412842,"214":0.5351428985595703,"215":0.4274740517139435,"216":0.2304225116968155,"217":0.07490389049053192,"218":0.5211287140846252,"219":1.1705200672149658,"220":-0.8475359082221985,"221":0.0739794671535492,"222":-1.7394996881484985,"223":-0.19820964336395264,"224":1.4406607151031494,"225":-0.43256646394729614,"226":2.4805288314819336,"227":-1.1702256202697754,"228":-0.5976454615592957,"229":0.38515251874923706,"230":0.6117258667945862,"231":0.3289546072483063,"232":1.5664567947387695,"233":-0.9679557681083679,"234":-0.4902786910533905,"235":0.009694191627204418,"236":0.6122385859489441,"237":-0.08509451150894165,"238":0.0540238693356514,"239":0.21141967177391052,"240":2.1082866191864014,"241":-0.6615495681762695,"242":1.149799108505249,"243":-0.5339527130126953,"244":-1.2302130460739136,"245":0.4452260136604309,"246":-0.8885540962219238,"247":0.7115458846092224,"248":0.7407618165016174,"249":0.7930699586868286,"250":-0.24874569475650787,"251":-0.7561377882957458,"252":-0.07148680835962296,"253":-0.00806671567261219,"254":-0.7037213444709778,"255":-0.2304660975933075,"256":-0.3824944794178009,"257":-0.6701961755752563,"258":-0.8023510575294495,"259":1.2332614660263062,"260":-1.1738184690475464,"261":1.6567316055297852,"262":-1.3838363885879517,"263":-0.8692187070846558,"264":-0.22715164721012115,"265":0.8874955177307129,"266":1.2975001335144043,"267":-1.2473758459091187,"268":1.280023217201233,"269":-0.8888759613037109,"270":-0.22583812475204468,"271":-0.7263426184654236,"272":0.28505298495292664,"273":0.7345329523086548,"274":-1.379602313041687,"275":-0.8532847762107849,"276":1.4380338191986084,"277":-1.8283874988555908,"278":-2.1119165420532227,"279":-1.6073869466781616,"280":-1.0657389163970947,"281":0.10527805984020233,"282":-0.9310939908027649,"283":1.0073940753936768,"284":0.1870109736919403,"285":-0.37326428294181824,"286":1.2786580324172974,"287":0.3042095899581909,"288":-2.092104434967041,"289":-0.45484209060668945,"290":0.7269177436828613,"291":2.6207735538482666,"292":0.14717797935009003,"293":-0.5869331955909729,"294":2.9209656715393066,"295":1.0153008699417114,"296":-0.4453374445438385,"297":2.7831385135650635,"298":1.1310925483703613,"299":-0.32179492712020874,"300":0.39502856135368347,"301":-1.192150592803955,"302":0.39995619654655457,"303":0.7712519764900208,"304":0.7191764712333679,"305":-1.4845771789550781,"306":-1.1602537631988525,"307":-1.0962916612625122,"308":-0.8152008652687073,"309":0.6139926910400391,"310":0.20018215477466583,"311":1.302838921546936,"312":0.2941068112850189,"313":-0.4161703586578369,"314":1.196580410003662,"315":0.2723853588104248,"316":0.20263884961605072,"317":1.2911502122879028,"318":0.6377391219139099,"319":1.6072076559066772,"320":-1.3619493246078491,"321":0.034573353826999664,"322":-0.3248823285102844,"323":-2.0878703594207764,"324":1.0708155632019043,"325":-0.031751204282045364,"326":0.22109100222587585,"327":0.12041225284337997,"328":0.7116518020629883,"329":-0.7682018876075745,"330":-0.7426137924194336,"331":-0.678613543510437,"332":-0.08608422428369522,"333":0.7317423224449158,"334":-0.6259497404098511,"335":-2.020461320877075,"336":1.9907206296920776,"337":-0.5409395098686218,"338":-1.9825998544692993,"339":0.5472899079322815,"340":1.1135666370391846,"341":0.470415860414505,"342":-0.9083237648010254,"343":-0.07185119390487671,"344":-1.0600452423095703,"345":1.642563819885254,"346":0.5798833966255188,"347":0.5791054368019104,"348":-0.45815059542655945,"349":1.2456234693527222,"350":0.4815484285354614,"351":-0.3900439441204071,"352":-0.339570015668869,"353":-0.3340665102005005,"354":-0.33813294768333435,"355":-0.6177635192871094,"356":0.0027269956190139055,"357":-0.296041876077652,"358":-0.35877591371536255,"359":-0.5538387894630432,"360":-0.8602843284606934,"361":0.8437538743019104,"362":-0.20744144916534424,"363":0.2948940396308899,"364":1.0024213790893555,"365":-2.569018602371216,"366":0.1128290668129921,"367":0.3791786730289459,"368":-0.28884825110435486,"369":-0.8186064958572388,"370":-0.24363163113594055,"371":0.19766294956207275,"372":-0.005897069815546274,"373":0.11422821134328842,"374":1.2509479522705078,"375":0.009484831243753433,"376":-0.2813439965248108,"377":0.6255477666854858,"378":0.07973801344633102,"379":-0.7568749189376831,"380":0.07675040513277054,"381":-0.940371036529541,"382":0.44748422503471375,"383":-1.1828492879867554,"384":-0.5082314610481262,"385":0.10410935431718826,"386":-1.3368138074874878,"387":-0.9485979080200195,"388":1.3567293882369995,"389":0.24813145399093628,"390":-2.2812554836273193,"391":-1.0956906080245972,"392":-0.31569904088974,"393":1.4626379013061523,"394":-1.6692936420440674,"395":-1.3562402725219727,"396":0.6340715885162354,"397":-1.301729440689087,"398":-1.7063201665878296,"399":1.0422035455703735}},"outputHidden":{"rows":20,"columns":20,"weights":{"0":-0.8844330310821533,"1":0.12936584651470184,"2":-1.184203863143921,"3":-0.8669988512992859,"4":1.407034993171692,"5":0.4596932828426361,"6":0.09173803776502609,"7":1.7159886360168457,"8":-0.513826310634613,"9":0.676459014415741,"10":-0.908618688583374,"11":-0.9197251200675964,"12":-0.6944971680641174,"13":-0.7464956045150757,"14":-2.0763320922851562,"15":0.7475884556770325,"16":0.560877799987793,"17":-1.4642674922943115,"18":-0.1966646909713745,"19":-0.7416640520095825,"20":0.33616387844085693,"21":0.17831283807754517,"22":-0.3058524429798126,"23":0.6203131079673767,"24":-1.706132173538208,"25":-0.7324574589729309,"26":0.047140371054410934,"27":-0.7018511295318604,"28":0.24048326909542084,"29":-0.650444746017456,"30":0.32480698823928833,"31":-1.2753273248672485,"32":0.7242738604545593,"33":-1.3097976446151733,"34":1.2268216609954834,"35":-0.515781044960022,"36":-1.6362273693084717,"37":0.2990860342979431,"38":-0.937750518321991,"39":1.3411095142364502,"40":-1.4304667711257935,"41":-1.7284432649612427,"42":-2.2254955768585205,"43":-1.13219153881073,"44":1.551017165184021,"45":0.1980697065591812,"46":0.0048052649945020676,"47":1.4873456954956055,"48":-1.6509846448898315,"49":2.323845624923706,"50":-1.6537525653839111,"51":-0.2971886694431305,"52":-1.3503562211990356,"53":-0.779137909412384,"54":-2.8746583461761475,"55":2.3524181842803955,"56":0.9357014298439026,"57":-0.25609317421913147,"58":-1.806372880935669,"59":-1.8355576992034912,"60":-0.5648339986801147,"61":-0.8946444392204285,"62":-1.7811477184295654,"63":-0.9706262350082397,"64":0.3536852300167084,"65":0.033468179404735565,"66":0.8174310326576233,"67":0.14457783102989197,"68":-1.1022021770477295,"69":-0.344793438911438,"70":-1.6160889863967896,"71":-0.7809333801269531,"72":-1.2947955131530762,"73":-0.5848689675331116,"74":-1.8820241689682007,"75":1.5164415836334229,"76":-0.9237082600593567,"77":-0.37475869059562683,"78":-2.7221791744232178,"79":0.5762349963188171,"80":-0.965088963508606,"81":-0.8734598159790039,"82":-1.0594604015350342,"83":-2.2070069313049316,"84":0.9350067973136902,"85":-0.23122480511665344,"86":0.38744112849235535,"87":1.716589093208313,"88":-1.7155225276947021,"89":0.7327591180801392,"90":-1.2915608882904053,"91":1.2828420400619507,"92":-1.4341307878494263,"93":-1.944385051727295,"94":-0.8810728788375854,"95":1.0148375034332275,"96":0.501142680644989,"97":-0.012234176509082317,"98":-2.74259090423584,"99":-1.430276870727539,"100":1.0500049591064453,"101":1.4454822540283203,"102":0.7382796406745911,"103":1.5544947385787964,"104":-1.0000518560409546,"105":0.11800464987754822,"106":0.9225675463676453,"107":-1.1059479713439941,"108":0.7102994918823242,"109":-1.4548485279083252,"110":1.0715175867080688,"111":-2.0847320556640625,"112":1.3559865951538086,"113":-0.5804355144500732,"114":-0.3364769518375397,"115":-1.1308362483978271,"116":-2.778723955154419,"117":-0.6951290965080261,"118":2.1412651538848877,"119":1.4113686084747314,"120":0.5414595603942871,"121":-2.1267857551574707,"122":2.6742749214172363,"123":1.7503901720046997,"124":-0.799465537071228,"125":-1.3450814485549927,"126":-1.2253624200820923,"127":-0.6874620318412781,"128":0.8813061118125916,"129":-0.39805281162261963,"130":2.1995506286621094,"131":-0.21731670200824738,"132":1.2929540872573853,"133":-1.4326848983764648,"134":0.3297840356826782,"135":-1.576178789138794,"136":-0.25910937786102295,"137":1.416977882385254,"138":1.1619493961334229,"139":0.2139202356338501,"140":-0.1426522433757782,"141":0.34982168674468994,"142":-0.9138787984848022,"143":-1.4429693222045898,"144":-0.4191821217536926,"145":-0.6335657835006714,"146":0.0713704451918602,"147":0.4163627624511719,"148":-0.4720602333545685,"149":0.8826757073402405,"150":-1.8830204010009766,"151":-1.0594754219055176,"152":-1.386743426322937,"153":-1.2533228397369385,"154":-1.4600878953933716,"155":0.9572937488555908,"156":-1.3494027853012085,"157":-0.889732837677002,"158":-0.7927457690238953,"159":1.151190161705017,"160":-0.7743068933486938,"161":-0.5807257890701294,"162":-0.9172048568725586,"163":-0.6899950504302979,"164":0.31359609961509705,"165":-0.2861746549606323,"166":0.3692796528339386,"167":-0.3905855715274811,"168":-0.057822976261377335,"169":-0.3561737537384033,"170":0.9762300848960876,"171":-0.3120741844177246,"172":-0.10060008615255356,"173":-0.6682817935943604,"174":-0.5505368113517761,"175":0.20659618079662323,"176":-0.4119153320789337,"177":0.44672831892967224,"178":-1.179512858390808,"179":0.40512195229530334,"180":2.007721185684204,"181":0.1481654793024063,"182":0.8538773655891418,"183":1.285929799079895,"184":-1.2914735078811646,"185":0.3933735191822052,"186":1.4085010290145874,"187":0.025372005999088287,"188":0.5029497742652893,"189":-0.3423912227153778,"190":0.8416541218757629,"191":-0.743209183216095,"192":-0.34322139620780945,"193":-0.5507218837738037,"194":-1.9313839673995972,"195":-1.8046081066131592,"196":-0.9619088172912598,"197":-0.03409982845187187,"198":0.5146293044090271,"199":0.8582929968833923,"200":-0.253587007522583,"201":-1.6234782934188843,"202":-1.001551866531372,"203":-1.478249192237854,"204":0.37404510378837585,"205":-0.3191801905632019,"206":-0.8510811924934387,"207":0.6421476006507874,"208":-1.3255702257156372,"209":1.825194239616394,"210":-0.6287522912025452,"211":-1.1488879919052124,"212":-1.2953473329544067,"213":-0.23252429068088531,"214":-1.031972050666809,"215":0.4965737760066986,"216":0.7938868403434753,"217":-2.5826783180236816,"218":-0.9841246008872986,"219":-1.4173882007598877,"220":0.7568721771240234,"221":-1.179311752319336,"222":0.06170086935162544,"223":-0.4540596306324005,"224":-0.5144716501235962,"225":1.3218775987625122,"226":1.7667759656906128,"227":1.051936388015747,"228":0.31861069798469543,"229":0.625297486782074,"230":0.2819870710372925,"231":-1.1162058115005493,"232":-0.02735281176865101,"233":-0.0232134647667408,"234":-0.44716957211494446,"235":-0.1853664219379425,"236":-1.4311213493347168,"237":-0.7934719324111938,"238":0.5256558060646057,"239":0.5620243549346924,"240":-0.8455476760864258,"241":-0.4503212869167328,"242":-1.5474112033843994,"243":-1.5564422607421875,"244":1.3759428262710571,"245":-0.05557655915617943,"246":-0.37076807022094727,"247":2.421267509460449,"248":-0.6815248131752014,"249":-0.038437169045209885,"250":0.6258509159088135,"251":-0.036972422152757645,"252":-1.164603590965271,"253":-0.9254952669143677,"254":-0.8423864841461182,"255":-0.3037422001361847,"256":0.9530140161514282,"257":-1.0552542209625244,"258":-0.20732830464839935,"259":-1.2147324085235596,"260":-0.11321564018726349,"261":-0.6463041305541992,"262":0.008048045448958874,"263":0.29938217997550964,"264":0.36901524662971497,"265":0.3100261390209198,"266":-0.2087385505437851,"267":0.04475291445851326,"268":-0.6050963401794434,"269":-0.696457028388977,"270":-1.1968438625335693,"271":0.04659665748476982,"272":-1.1677230596542358,"273":0.11921820789575577,"274":-0.1731855571269989,"275":-0.11640283465385437,"276":0.8157145380973816,"277":-0.6300145387649536,"278":0.3694688379764557,"279":-2.1766114234924316,"280":0.011639035306870937,"281":-0.40287190675735474,"282":-0.38548964262008667,"283":0.022866906598210335,"284":0.48685771226882935,"285":0.5317479968070984,"286":-0.9332774877548218,"287":0.8056422472000122,"288":0.8253787755966187,"289":1.172993540763855,"290":-0.021419737488031387,"291":-0.1938662827014923,"292":-0.06801965087652206,"293":0.3744231164455414,"294":-0.7613343596458435,"295":-0.305508017539978,"296":0.23452621698379517,"297":0.9568642973899841,"298":-0.5200721621513367,"299":0.6022059321403503,"300":0.1969355046749115,"301":0.06095827370882034,"302":-0.632206380367279,"303":1.4473061561584473,"304":0.03413565456867218,"305":-0.47840332984924316,"306":-1.7246067523956299,"307":-0.17455050349235535,"308":0.13769829273223877,"309":1.061323642730713,"310":0.1082136482000351,"311":-0.5651071667671204,"312":-0.1944759488105774,"313":1.1934564113616943,"314":0.5733045935630798,"315":0.45493435859680176,"316":-0.697006106376648,"317":-0.3161678612232208,"318":0.27083784341812134,"319":0.6187373399734497,"320":0.05616384372115135,"321":0.2800050973892212,"322":-0.4248950779438019,"323":-0.10441973060369492,"324":0.14343716204166412,"325":-0.693839967250824,"326":-0.4268391728401184,"327":-0.42869144678115845,"328":-0.1384614259004593,"329":-0.15805338323116302,"330":0.01692551001906395,"331":-1.5271350145339966,"332":0.4263349175453186,"333":-0.7636374831199646,"334":0.3353383243083954,"335":1.1712517738342285,"336":-0.15882517397403717,"337":-0.8321890830993652,"338":-0.3457595705986023,"339":0.7569938898086548,"340":1.972515344619751,"341":2.1282799243927,"342":1.4348264932632446,"343":1.1064099073410034,"344":0.05744463950395584,"345":0.6498984098434448,"346":-2.340492010116577,"347":0.9010764956474304,"348":0.00764820771291852,"349":-0.44851431250572205,"350":1.426064372062683,"351":0.11335307359695435,"352":1.9546051025390625,"353":-0.04517586901783943,"354":0.7135597467422485,"355":-0.6100965142250061,"356":-0.8360788226127625,"357":-2.207690954208374,"358":0.5100008249282837,"359":-0.8720767498016357,"360":-0.4935568571090698,"361":-0.38831689953804016,"362":-0.37811633944511414,"363":-0.9016078114509583,"364":0.2355949729681015,"365":0.20981556177139282,"366":2.13395357131958,"367":1.010280728340149,"368":-0.8572930097579956,"369":0.23312337696552277,"370":0.04952433332800865,"371":-0.14557084441184998,"372":-0.04361439496278763,"373":-0.8063970804214478,"374":-1.4781326055526733,"375":1.3321853876113892,"376":-0.43225058913230896,"377":-1.8613861799240112,"378":-1.6786422729492188,"379":0.4555065333843231,"380":-0.8196003437042236,"381":-0.340556800365448,"382":-0.27396446466445923,"383":0.333431214094162,"384":1.012587308883667,"385":-0.5994799137115479,"386":-0.30813297629356384,"387":-0.23884791135787964,"388":-0.25503647327423096,"389":0.15028533339500427,"390":0.5217888355255127,"391":-0.5552168488502502,"392":-0.6406300663948059,"393":0.20373192429542542,"394":1.802492618560791,"395":-0.0648997500538826,"396":0.690667450428009,"397":0.10556316375732422,"398":-0.17785827815532684,"399":0.40261349081993103}},"outputBias":{"rows":20,"columns":1,"weights":{"0":-0.8562819957733154,"1":-2.225555896759033,"2":-0.10827567428350449,"3":-0.5252956748008728,"4":-1.5263340473175049,"5":-1.1275019645690918,"6":-0.09138327091932297,"7":-0.3410225808620453,"8":0.2242855727672577,"9":-0.3384377956390381,"10":-0.7452282905578613,"11":2.5526952743530273,"12":-0.28705599904060364,"13":0.2910395860671997,"14":0.506096363067627,"15":-1.2882180213928223,"16":-0.31005048751831055,"17":2.1236624717712402,"18":-0.2709921896457672,"19":-0.08507299423217773}},"cellActivationMatrix":{"rows":20,"columns":20,"weights":{"0":0.9976446032524109,"1":-1.5864263772964478,"2":0.42005038261413574,"3":-0.9671289324760437,"4":-0.6029921174049377,"5":-0.09322543442249298,"6":-0.4858569800853729,"7":0.4692154824733734,"8":0.0026908419094979763,"9":0.1162739247083664,"10":0.2973131537437439,"11":-0.2721291482448578,"12":-0.8048929572105408,"13":0.04140857607126236,"14":-0.038973044604063034,"15":0.30701881647109985,"16":0.2972680330276489,"17":0.2761800289154053,"18":0.5972930788993835,"19":1.822007417678833,"20":-0.14937874674797058,"21":-0.08515340834856033,"22":-0.046309951692819595,"23":-1.1259310245513916,"24":0.19462044537067413,"25":2.266953229904175,"26":0.3651670217514038,"27":-0.6609112620353699,"28":0.5113298296928406,"29":-0.23691345751285553,"30":-0.7233706712722778,"31":-1.0432204008102417,"32":-0.6328396201133728,"33":0.5777906179428101,"34":-0.9570770263671875,"35":-1.285718560218811,"36":1.4718090295791626,"37":-0.9346038699150085,"38":-2.142948627471924,"39":0.27827221155166626,"40":0.7524572610855103,"41":-0.27105316519737244,"42":1.2663432359695435,"43":1.3150806427001953,"44":-0.9988645911216736,"45":0.30236080288887024,"46":-1.0510315895080566,"47":0.34046870470046997,"48":-1.037252426147461,"49":1.01426362991333,"50":0.6733906865119934,"51":-0.18950963020324707,"52":0.3017456531524658,"53":-0.6376047134399414,"54":-0.5412195920944214,"55":1.236961007118225,"56":-0.006413558963686228,"57":0.09756038337945938,"58":-0.34252557158470154,"59":-0.3865240216255188,"60":0.14835979044437408,"61":-0.04616578668355942,"62":0.5928909182548523,"63":0.06835063546895981,"64":-0.27614685893058777,"65":0.9328117370605469,"66":0.09874539822340012,"67":0.017221640795469284,"68":-0.20378535985946655,"69":0.6201408505439758,"70":0.9788296818733215,"71":0.13146476447582245,"72":0.5575783252716064,"73":-0.7116355895996094,"74":-0.5722528100013733,"75":0.5412577390670776,"76":-0.27316439151763916,"77":-0.4654814898967743,"78":-1.2809401750564575,"79":0.18611623346805573,"80":0.14539296925067902,"81":1.0221391916275024,"82":0.3211349844932556,"83":0.4433780908584595,"84":0.0168905146420002,"85":-0.18687430024147034,"86":1.0349434614181519,"87":1.0257058143615723,"88":-0.6912729144096375,"89":-0.1715788096189499,"90":0.9226092100143433,"91":0.8185908198356628,"92":1.180750846862793,"93":-0.9317215085029602,"94":0.165768563747406,"95":0.34012845158576965,"96":-0.8317888975143433,"97":0.5855922102928162,"98":0.3000018298625946,"99":-0.6054278016090393,"100":0.9764959216117859,"101":-0.2077440470457077,"102":0.08693619817495346,"103":1.5761915445327759,"104":-0.5750997066497803,"105":-0.0073493244126439095,"106":0.5559502840042114,"107":0.7168744206428528,"108":-1.3761388063430786,"109":0.5783882737159729,"110":1.1192225217819214,"111":1.051515817642212,"112":0.6817525625228882,"113":-1.355972409248352,"114":0.9572591781616211,"115":1.244494080543518,"116":-1.6617718935012817,"117":1.1466727256774902,"118":1.0393589735031128,"119":0.0511808842420578,"120":-0.930958092212677,"121":1.8673350811004639,"122":-1.106594204902649,"123":-1.327466607093811,"124":-0.10648668557405472,"125":2.04970383644104,"126":2.0883803367614746,"127":-0.168156698346138,"128":0.6857256889343262,"129":-1.099103331565857,"130":-0.04864495247602463,"131":-0.5497791767120361,"132":0.6747902035713196,"133":-0.1320924162864685,"134":-1.0504251718521118,"135":-1.119695782661438,"136":-0.3120122253894806,"137":-0.9821177124977112,"138":-0.7278093099594116,"139":-1.009409785270691,"140":-0.7763746380805969,"141":-0.1507568657398224,"142":-0.17896738648414612,"143":-0.10166140645742416,"144":0.9748340249061584,"145":-0.14284202456474304,"146":1.6819995641708374,"147":-0.6346802115440369,"148":0.14959323406219482,"149":-0.33293911814689636,"150":-0.04680744931101799,"151":0.6967466473579407,"152":0.06049470230937004,"153":0.1303308606147766,"154":0.4303419589996338,"155":-0.2533814311027527,"156":-0.021277878433465958,"157":0.3421284258365631,"158":-0.2016209363937378,"159":0.7127270102500916,"160":0.009500463493168354,"161":0.414730429649353,"162":0.4711163341999054,"163":-1.428265929222107,"164":-1.443037986755371,"165":0.5610702633857727,"166":-0.8352949023246765,"167":-0.30002841353416443,"168":1.2143932580947876,"169":1.1250159740447998,"170":-0.8844404816627502,"171":-1.2485383749008179,"172":-0.3036254346370697,"173":1.0690070390701294,"174":-1.3110731840133667,"175":-1.2370084524154663,"176":0.8280560374259949,"177":-0.9611310958862305,"178":-1.2924293279647827,"179":0.30699408054351807,"180":-0.4967256188392639,"181":0.6171276569366455,"182":-0.8342233896255493,"183":0.9761769771575928,"184":0.9101789593696594,"185":-0.5647146105766296,"186":0.6869348287582397,"187":0.511376142501831,"188":-1.2188276052474976,"189":-0.9264160990715027,"190":0.2530713975429535,"191":1.418105125427246,"192":0.20972996950149536,"193":-0.35136812925338745,"194":1.0646334886550903,"195":0.8697051405906677,"196":-0.11669889837503433,"197":1.4530837535858154,"198":0.8214954733848572,"199":-0.5597337484359741,"200":0.810459315776825,"201":-1.0757540464401245,"202":1.0819146633148193,"203":-0.9091981053352356,"204":-0.437103807926178,"205":1.3768624067306519,"206":-1.75348961353302,"207":-0.5285335779190063,"208":0.768116295337677,"209":0.620185375213623,"210":-0.45274296402931213,"211":-1.498225212097168,"212":-0.22652912139892578,"213":0.7536801099777222,"214":-1.2259855270385742,"215":-0.394832968711853,"216":0.5490558743476868,"217":-1.6514151096343994,"218":-1.590431571006775,"219":1.502633810043335,"220":0.6883206963539124,"221":0.28962481021881104,"222":0.8279057145118713,"223":0.7609841227531433,"224":-1.4086854457855225,"225":-0.15441545844078064,"226":-0.803985595703125,"227":1.467589259147644,"228":-1.1963707208633423,"229":0.7756486535072327,"230":0.8282720446586609,"231":-0.39595046639442444,"232":0.16008149087429047,"233":-0.78694748878479,"234":0.37912970781326294,"235":0.5530629754066467,"236":-0.9405750632286072,"237":-0.23221150040626526,"238":0.8216528296470642,"239":-0.6604679822921753,"240":-0.4561053514480591,"241":-0.09168663620948792,"242":0.28597429394721985,"243":-1.5480867624282837,"244":0.1355130672454834,"245":-0.3560991585254669,"246":-0.1607544869184494,"247":-0.7659422159194946,"248":1.6992204189300537,"249":-0.6799477338790894,"250":-1.5952662229537964,"251":-1.7516165971755981,"252":-1.2903844118118286,"253":1.8227243423461914,"254":-0.9502291679382324,"255":-1.871425986289978,"256":1.1579440832138062,"257":-0.9404571652412415,"258":-1.2362512350082397,"259":0.7996852397918701,"260":-0.25829511880874634,"261":0.5039967894554138,"262":-0.9067465662956238,"263":1.1244724988937378,"264":0.4284537434577942,"265":0.8414399027824402,"266":-0.05506768450140953,"267":0.20544672012329102,"268":-1.4104039669036865,"269":-0.3002176284790039,"270":0.06623993813991547,"271":0.8414633274078369,"272":0.03707552328705788,"273":-0.6353453993797302,"274":1.3295751810073853,"275":0.1531035453081131,"276":-0.12246544659137726,"277":1.5102592706680298,"278":1.6766674518585205,"279":-1.0334994792938232,"280":0.41381582617759705,"281":-0.06795207411050797,"282":1.3398840427398682,"283":-1.2770519256591797,"284":-0.6169993281364441,"285":-0.6320128440856934,"286":-0.8138871788978577,"287":-0.5851551294326782,"288":1.2001491785049438,"289":0.42223042249679565,"290":-1.754969596862793,"291":-1.080487608909607,"292":-0.6085230112075806,"293":1.1072185039520264,"294":-1.4420078992843628,"295":-1.5292609930038452,"296":1.3410495519638062,"297":-1.8207545280456543,"298":-1.1516555547714233,"299":1.1232932806015015,"300":0.5478460788726807,"301":1.2336548566818237,"302":-0.2501802146434784,"303":-0.47079989314079285,"304":0.21295729279518127,"305":-1.278069257736206,"306":1.079810380935669,"307":0.42937394976615906,"308":0.5120108723640442,"309":-0.7352755665779114,"310":-0.5927699208259583,"311":0.3162156045436859,"312":-0.7756837606430054,"313":0.3661457300186157,"314":1.0979951620101929,"315":0.34708431363105774,"316":-0.4277360737323761,"317":0.3331024646759033,"318":0.8576579689979553,"319":-0.862636148929596,"320":1.569980502128601,"321":-0.8406404256820679,"322":1.4330579042434692,"323":0.28684094548225403,"324":-0.7334458231925964,"325":0.29624050855636597,"326":-1.5873286724090576,"327":-0.4013007581233978,"328":-0.37793171405792236,"329":1.2758666276931763,"330":-0.21223507821559906,"331":0.3780882656574249,"332":-0.0960664227604866,"333":-0.3581607937812805,"334":-0.3282785415649414,"335":-0.08371671289205551,"336":-0.07064380496740341,"337":0.03238677978515625,"338":-0.9549748301506042,"339":1.3358107805252075,"340":1.5696234703063965,"341":-0.4682197868824005,"342":2.262873888015747,"343":0.4591999650001526,"344":-1.6126444339752197,"345":-0.1549130231142044,"346":-1.7246235609054565,"347":1.0511958599090576,"348":0.050669603049755096,"349":1.4254536628723145,"350":0.20154699683189392,"351":-0.14265044033527374,"352":0.3667263686656952,"353":-0.2643677890300751,"354":0.008248785510659218,"355":0.3371979296207428,"356":-0.5276291966438293,"357":0.10122689604759216,"358":-1.4631073474884033,"359":0.9523727297782898,"360":0.27894091606140137,"361":-0.8472992777824402,"362":0.8774840831756592,"363":-0.2456766664981842,"364":0.23788930475711823,"365":0.3745726943016052,"366":-0.9834519028663635,"367":0.043419089168310165,"368":0.29915615916252136,"369":0.8038101196289062,"370":-0.038522154092788696,"371":-0.8572335839271545,"372":-0.2648949921131134,"373":0.07913943380117416,"374":-0.8854919672012329,"375":-1.0805033445358276,"376":0.4972570538520813,"377":-0.6968739032745361,"378":-0.958681583404541,"379":0.5360315442085266,"380":-0.5845799446105957,"381":0.9251712560653687,"382":-0.3260950446128845,"383":-0.22658057510852814,"384":-0.1406443566083908,"385":0.36444029211997986,"386":0.7488581538200378,"387":1.263581395149231,"388":-0.1477549821138382,"389":-0.4715157449245453,"390":0.21593667566776276,"391":-0.0675940066576004,"392":0.19011515378952026,"393":-0.2062259018421173,"394":-0.8973239660263062,"395":0.5218127965927124,"396":-0.8034510016441345,"397":-0.09094829112291336,"398":-0.7629645466804504,"399":-1.2333253622055054}},"cellActivationHidden":{"rows":20,"columns":20,"weights":{"0":-0.5730934143066406,"1":0.5028310418128967,"2":0.22179633378982544,"3":0.623198926448822,"4":0.5299251079559326,"5":1.0473682880401611,"6":-0.690135657787323,"7":0.4740203619003296,"8":-1.3129386901855469,"9":2.2081286907196045,"10":-1.013587474822998,"11":1.3874551057815552,"12":-1.2959659099578857,"13":1.273563027381897,"14":-0.42068424820899963,"15":1.1340631246566772,"16":1.746374249458313,"17":0.9264959096908569,"18":-0.42020928859710693,"19":-1.2473081350326538,"20":0.18885895609855652,"21":0.08663623034954071,"22":0.764172375202179,"23":1.0908875465393066,"24":-0.8005850315093994,"25":-0.10674679279327393,"26":-0.44534701108932495,"27":-0.08243593573570251,"28":1.099213719367981,"29":0.1831367164850235,"30":-0.6145710945129395,"31":0.5024940371513367,"32":0.6995557546615601,"33":0.8589404821395874,"34":0.6950522661209106,"35":-0.9136614799499512,"36":-0.5151928067207336,"37":-0.2104022204875946,"38":1.2969629764556885,"39":0.4612336754798889,"40":-1.4213699102401733,"41":0.5723152756690979,"42":-2.0942089557647705,"43":-1.7521964311599731,"44":0.640019416809082,"45":0.5036851167678833,"46":-0.9469906687736511,"47":0.2232120782136917,"48":-0.04080791026353836,"49":1.2516170740127563,"50":-1.4059721231460571,"51":0.48382675647735596,"52":-0.8695158362388611,"53":0.917082667350769,"54":-0.14850546419620514,"55":0.1336906999349594,"56":1.2691495418548584,"57":-0.6899722814559937,"58":-0.9302688241004944,"59":-1.6490955352783203,"60":-0.8830265402793884,"61":-0.4841794967651367,"62":-0.9406077861785889,"63":-0.4414072334766388,"64":1.4575495719909668,"65":0.8816199898719788,"66":0.9343926310539246,"67":0.7248928546905518,"68":-1.316771388053894,"69":0.8558946847915649,"70":-2.1572558879852295,"71":0.9502465128898621,"72":-1.9505829811096191,"73":0.984341561794281,"74":-0.2053322046995163,"75":0.6078616976737976,"76":2.215421676635742,"77":1.117781400680542,"78":-0.6587523818016052,"79":-0.786251962184906,"80":-0.5725315809249878,"81":0.5006075501441956,"82":0.9126811623573303,"83":0.6872449517250061,"84":0.5022841691970825,"85":-2.187826633453369,"86":0.44192060828208923,"87":-0.8446239829063416,"88":0.8243988752365112,"89":-1.8481320142745972,"90":2.473219156265259,"91":-0.208144411444664,"92":1.1511561870574951,"93":-1.2532695531845093,"94":1.0470324754714966,"95":-1.4688011407852173,"96":-0.8931984305381775,"97":0.22538167238235474,"98":1.3758490085601807,"99":1.792800784111023,"100":-0.7998884916305542,"101":0.5941675305366516,"102":-1.1486451625823975,"103":-1.520963430404663,"104":0.5091099739074707,"105":0.3698430359363556,"106":0.6650596261024475,"107":0.448268324136734,"108":0.1272086352109909,"109":0.9637060165405273,"110":-0.6738359332084656,"111":-0.25695744156837463,"112":-0.5728607773780823,"113":0.7839706540107727,"114":-1.007385015487671,"115":1.9460439682006836,"116":-1.0275715589523315,"117":-0.5035601258277893,"118":-1.2542377710342407,"119":0.6868692636489868,"120":-0.7447601556777954,"121":0.2449430674314499,"122":-1.1601459980010986,"123":-1.007183313369751,"124":0.4608972668647766,"125":-0.3994204103946686,"126":0.17235006392002106,"127":1.4661767482757568,"128":-0.4465768337249756,"129":-1.8728129863739014,"130":-1.3431345224380493,"131":1.6956371068954468,"132":-0.7357488870620728,"133":-0.39282435178756714,"134":1.339154839515686,"135":-0.3958558738231659,"136":-0.8697388172149658,"137":0.7141794562339783,"138":-1.5889731645584106,"139":0.3277338147163391,"140":1.2485148906707764,"141":-0.45315366983413696,"142":1.609817385673523,"143":0.7518522143363953,"144":0.2815277874469757,"145":-1.9957104921340942,"146":-0.17589053511619568,"147":-0.4495108425617218,"148":0.5417265295982361,"149":-2.0127170085906982,"150":2.037524461746216,"151":-0.7889986634254456,"152":1.8794893026351929,"153":-0.48171043395996094,"154":0.7919930815696716,"155":-0.4168754518032074,"156":-1.7812730073928833,"157":-0.9591925740242004,"158":0.7406285405158997,"159":1.524390697479248,"160":0.13424363732337952,"161":-0.045634277164936066,"162":0.1434834748506546,"163":0.5293075442314148,"164":0.00476720929145813,"165":0.7415766716003418,"166":-0.849635124206543,"167":0.18089480698108673,"168":0.017184630036354065,"169":1.2085291147232056,"170":0.581000804901123,"171":0.7587714195251465,"172":0.45709657669067383,"173":0.5562528967857361,"174":-0.720478355884552,"175":-0.7597441077232361,"176":0.7913311123847961,"177":0.6917153000831604,"178":0.5782329440116882,"179":-0.5026983022689819,"180":-0.4770265221595764,"181":-0.022058365866541862,"182":-0.23442211747169495,"183":-0.3608979880809784,"184":0.28879231214523315,"185":0.6686263680458069,"186":0.21647924184799194,"187":0.6798028945922852,"188":-0.2606281340122223,"189":0.818783700466156,"190":0.409968763589859,"191":-0.7505996823310852,"192":-0.4457431137561798,"193":0.7211787700653076,"194":-1.4369479417800903,"195":0.24992528557777405,"196":-0.1924281120300293,"197":0.38543885946273804,"198":-0.7144322991371155,"199":-0.24601411819458008,"200":-0.12646856904029846,"201":-0.6044272184371948,"202":-0.5441502332687378,"203":0.009240164421498775,"204":0.12303058803081512,"205":0.6622397899627686,"206":-0.5745300650596619,"207":-0.4003494381904602,"208":1.0048480033874512,"209":0.14663320779800415,"210":-0.4549037516117096,"211":0.5728638172149658,"212":-1.4066723585128784,"213":0.7909395694732666,"214":1.365546703338623,"215":-0.7765641212463379,"216":-0.5206285119056702,"217":0.6164376139640808,"218":0.8500534296035767,"219":0.3822900652885437,"220":-0.5142907500267029,"221":0.7834687232971191,"222":-0.7657119631767273,"223":-0.6491672396659851,"224":0.8178185820579529,"225":-1.3731719255447388,"226":-0.2709426283836365,"227":-0.04650650545954704,"228":-0.8488405346870422,"229":0.971921443939209,"230":-0.05592784285545349,"231":-1.1311010122299194,"232":-0.31992873549461365,"233":-0.9608021378517151,"234":-1.0583046674728394,"235":-0.4505500793457031,"236":-0.2222270518541336,"237":-2.358071804046631,"238":-1.3247339725494385,"239":-0.3195461332798004,"240":0.2592580318450928,"241":-0.2135848104953766,"242":-0.17877836525440216,"243":0.35609570145606995,"244":-0.4166106879711151,"245":1.1025251150131226,"246":-0.03996071591973305,"247":-0.08046963810920715,"248":0.1386992335319519,"249":0.5408247709274292,"250":-0.721138060092926,"251":0.05916450172662735,"252":-0.3863033056259155,"253":0.36945226788520813,"254":0.12349124997854233,"255":0.0057259006425738335,"256":0.4070313274860382,"257":0.18584293127059937,"258":-0.098649762570858,"259":-0.0606558658182621,"260":-1.6790928840637207,"261":0.9984018206596375,"262":-1.4277440309524536,"263":-2.050031900405884,"264":1.3759424686431885,"265":0.7213488817214966,"266":-0.400881290435791,"267":2.1699628829956055,"268":-2.446381092071533,"269":1.039419412612915,"270":-3.3892769813537598,"271":-0.0073371087200939655,"272":-2.1853885650634766,"273":-0.10911965370178223,"274":-0.37476783990859985,"275":3.158690929412842,"276":1.7957082986831665,"277":-0.39297032356262207,"278":-2.474078416824341,"279":-1.7529046535491943,"280":0.5383274555206299,"281":-0.4718289375305176,"282":0.10663141310214996,"283":0.03453641012310982,"284":-0.7972559332847595,"285":-0.018103955313563347,"286":-0.2772057354450226,"287":-0.5887002348899841,"288":0.1770234853029251,"289":-0.11613581329584122,"290":0.2646392583847046,"291":0.10395468771457672,"292":0.5267379283905029,"293":0.6447386145591736,"294":1.14328134059906,"295":0.34947824478149414,"296":-0.5531532764434814,"297":0.41523778438568115,"298":0.0592358373105526,"299":0.5579608082771301,"300":-0.6194342970848083,"301":0.08219598233699799,"302":-0.9545000791549683,"303":-0.5593330264091492,"304":0.9079877734184265,"305":-0.37381669878959656,"306":1.6556549072265625,"307":0.496681809425354,"308":0.1360740214586258,"309":0.06479232013225555,"310":-0.6677521467208862,"311":-1.4403245449066162,"312":0.12210161983966827,"313":-0.9739357233047485,"314":-0.14836087822914124,"315":0.36596548557281494,"316":-1.7001953125,"317":-0.743930459022522,"318":-0.9584000110626221,"319":1.1546621322631836,"320":1.1213315725326538,"321":0.11099496483802795,"322":1.178701400756836,"323":1.220088005065918,"324":-0.6481149196624756,"325":-1.649144172668457,"326":-0.43702855706214905,"327":-1.531941533088684,"328":0.6604255437850952,"329":0.10807023197412491,"330":2.2309839725494385,"331":-0.12403114140033722,"332":0.6820662617683411,"333":-0.46584194898605347,"334":-0.7947703003883362,"335":-0.6658580303192139,"336":-0.04474771022796631,"337":-0.7783071994781494,"338":1.2578282356262207,"339":1.102374792098999,"340":-1.9430018663406372,"341":-0.04949074238538742,"342":-1.2562062740325928,"343":-1.0892010927200317,"344":1.8721600770950317,"345":0.8539868593215942,"346":0.19036991894245148,"347":1.7778334617614746,"348":-0.8468224406242371,"349":2.0649518966674805,"350":-1.0834003686904907,"351":1.2569677829742432,"352":-0.8117749691009521,"353":1.0352495908737183,"354":-1.2010798454284668,"355":0.6093097925186157,"356":-0.2230042815208435,"357":-0.3234719932079315,"358":-0.7463023066520691,"359":-0.8301214575767517,"360":-0.9020785689353943,"361":0.6673789620399475,"362":-0.029097355902194977,"363":-0.7271695137023926,"364":0.8729143142700195,"365":0.2141905575990677,"366":-0.35892921686172485,"367":-0.4791261553764343,"368":-0.20397250354290009,"369":0.7212229371070862,"370":0.788205087184906,"371":-0.5238263607025146,"372":-0.2973951995372772,"373":-0.30289730429649353,"374":-0.5891234874725342,"375":-0.905817985534668,"376":1.8260821104049683,"377":0.09083147346973419,"378":0.6341602802276611,"379":-0.8623125553131104,"380":-1.8704898357391357,"381":-1.279248595237732,"382":-1.5087337493896484,"383":-1.5728249549865723,"384":1.6832234859466553,"385":0.22763939201831818,"386":-0.698451578617096,"387":0.724216103553772,"388":-0.9791063666343689,"389":-0.2959442734718323,"390":-1.3519556522369385,"391":1.6530225276947021,"392":-0.7538483738899231,"393":0.23853139579296112,"394":0.12992438673973083,"395":0.7058435678482056,"396":0.8359146118164062,"397":2.596940517425537,"398":-1.0125155448913574,"399":-1.6136059761047363}},"cellActivationBias":{"rows":20,"columns":1,"weights":{"0":-0.197315976023674,"1":0.15417656302452087,"2":-0.7126508355140686,"3":-0.7949249148368835,"4":0.5529099702835083,"5":0.7113456726074219,"6":0.6264060139656067,"7":0.2373027503490448,"8":-0.4626791179180145,"9":1.0348520278930664,"10":-0.5961448550224304,"11":-1.1442142724990845,"12":-0.22111734747886658,"13":0.07114272564649582,"14":-0.6448657512664795,"15":0.22337929904460907,"16":0.3569090664386749,"17":-2.462846517562866,"18":-0.47326499223709106,"19":-0.6768050193786621}}},{"inputMatrix":{"rows":20,"columns":20,"weights":{"0":2.0808284282684326,"1":-0.376906156539917,"2":-0.09769414365291595,"3":-0.7223994731903076,"4":0.4732714891433716,"5":0.3297826051712036,"6":-0.1567586213350296,"7":1.0164363384246826,"8":2.3570964336395264,"9":-0.8186001181602478,"10":0.31423771381378174,"11":-3.29376482963562,"12":0.8426293730735779,"13":-0.3529137372970581,"14":1.7229974269866943,"15":0.5129868984222412,"16":-0.7094588875770569,"17":-2.7470030784606934,"18":0.05894087627530098,"19":0.5990210771560669,"20":-0.244048073887825,"21":1.8927024602890015,"22":-0.18403232097625732,"23":0.24373605847358704,"24":-0.48235973715782166,"25":-0.021079422906041145,"26":1.1728451251983643,"27":-2.5978448390960693,"28":0.9120177030563354,"29":0.1710861176252365,"30":-0.6816670298576355,"31":-1.2442431449890137,"32":-0.9309146404266357,"33":0.1610557734966278,"34":0.35015708208084106,"35":0.36619672179222107,"36":-1.1228400468826294,"37":-1.7993695735931396,"38":0.8039356470108032,"39":1.637290120124817,"40":1.5131261348724365,"41":-0.6356773972511292,"42":0.7303854823112488,"43":0.410186231136322,"44":-1.5180948972702026,"45":-0.23150046169757843,"46":2.526702880859375,"47":-1.186309576034546,"48":0.16015999019145966,"49":-0.4285607933998108,"50":0.32057201862335205,"51":0.25525563955307007,"52":0.43502894043922424,"53":-1.8741079568862915,"54":0.16592033207416534,"55":0.3755527138710022,"56":-0.7855310440063477,"57":0.2905289828777313,"58":-0.38663041591644287,"59":0.7629402279853821,"60":-0.3164304494857788,"61":-1.1876633167266846,"62":2.2341878414154053,"63":0.03852125257253647,"64":0.7403876185417175,"65":0.7574535012245178,"66":0.06786095350980759,"67":-0.6658585071563721,"68":-0.4862968623638153,"69":0.1608620136976242,"70":1.2606014013290405,"71":0.4548080265522003,"72":0.4387575089931488,"73":0.021603021770715714,"74":-0.3293685019016266,"75":-0.45544400811195374,"76":1.2679543495178223,"77":-0.2594934403896332,"78":0.7958307266235352,"79":-1.748395562171936,"80":-0.11486619710922241,"81":1.4169485569000244,"82":1.3229345083236694,"83":0.20436352491378784,"84":-0.218944251537323,"85":0.506138026714325,"86":0.5488612055778503,"87":-0.5467520356178284,"88":-0.1527140885591507,"89":2.1810247898101807,"90":-1.0031863451004028,"91":1.1498764753341675,"92":-0.41378241777420044,"93":-0.27995777130126953,"94":-2.136138916015625,"95":-0.32003316283226013,"96":-2.177968740463257,"97":1.676226019859314,"98":-0.8920860886573792,"99":1.033109426498413,"100":1.3062360286712646,"101":0.5386314988136292,"102":-0.23915348947048187,"103":1.0720456838607788,"104":0.13773049414157867,"105":1.4907286167144775,"106":2.443312883377075,"107":0.051986996084451675,"108":0.7818567752838135,"109":0.1008082702755928,"110":-1.0151402950286865,"111":-0.4471908509731293,"112":-1.0272940397262573,"113":0.2969595491886139,"114":-1.3432261943817139,"115":-1.2817761898040771,"116":0.24420061707496643,"117":0.5181817412376404,"118":0.8619125485420227,"119":-0.14485986530780792,"120":-0.9688599705696106,"121":-1.0358471870422363,"122":-0.31936222314834595,"123":-0.24020667374134064,"124":1.5148495435714722,"125":-1.0660758018493652,"126":1.0394868850708008,"127":1.3418313264846802,"128":0.2501322627067566,"129":-0.36330118775367737,"130":-0.5951398611068726,"131":-0.45157912373542786,"132":-0.41401997208595276,"133":-0.4199226200580597,"134":-0.9849170446395874,"135":0.9188095331192017,"136":-1.6693832874298096,"137":-1.3687572479248047,"138":-0.7510690093040466,"139":2.376718044281006,"140":1.228532314300537,"141":-1.6393567323684692,"142":-0.7172815799713135,"143":-1.8756605386734009,"144":-0.24667204916477203,"145":-1.5688881874084473,"146":-0.1381644308567047,"147":-0.19986025989055634,"148":-0.49100738763809204,"149":-1.5223931074142456,"150":-0.44481146335601807,"151":0.027402939274907112,"152":0.17401258647441864,"153":-1.583027958869934,"154":-0.13526208698749542,"155":0.6173401474952698,"156":2.405327320098877,"157":-0.9678205847740173,"158":0.10854298621416092,"159":-0.7277817726135254,"160":1.5631189346313477,"161":0.5089598298072815,"162":-0.8665398359298706,"163":-0.6694636940956116,"164":-1.6952192783355713,"165":0.19205288589000702,"166":-1.5604584217071533,"167":-1.6471889019012451,"168":-0.4080236852169037,"169":-1.461626648902893,"170":0.28599417209625244,"171":0.2048885077238083,"172":-1.2314811944961548,"173":-0.7013231515884399,"174":-0.37725630402565,"175":-1.8125487565994263,"176":0.7796054482460022,"177":-0.23574404418468475,"178":-0.4563135504722595,"179":-1.524574637413025,"180":-0.5955699682235718,"181":-1.463250994682312,"182":1.1097049713134766,"183":0.7823047637939453,"184":-1.0872422456741333,"185":0.0542924627661705,"186":1.0172885656356812,"187":0.11407061666250229,"188":1.457452654838562,"189":-1.0320086479187012,"190":2.996377468109131,"191":0.31108391284942627,"192":2.6615853309631348,"193":0.06703753769397736,"194":0.9483239650726318,"195":-1.1287769079208374,"196":-1.9361777305603027,"197":1.4168295860290527,"198":-0.07070759683847427,