{"type":"LSTM","options":{"inputSize":20,"inputRange":20,"hiddenLayers":[20,20],"outputSize":20,"decayRate":0.999,"smoothEps":1e-8,"regc":0.000001,"clipval":5,"maxPredictionLength":100,"dataFormatter":{"indexTable":{"N":0,"o":1,"t":2," ":3,"m":4,"u":5,"c":6,"h":7,".":8,"W":9,"a":10,"'":11,"s":12,"g":13,"i":14,"n":15,"?":16,"stop-input":17,"start-output":18,"unrecognized":19},"characterTable":{"0":"N","1":"o","2":"t","3":" ","4":"m","5":"u","6":"c","7":"h","8":".","9":"W","10":"a","11":"'","12":"s","13":"g","14":"i","15":"n","16":"?","17":null,"18":null,"19":null},"values":["Not much..","What's going on?"],"characters":["N","o","t"," ","m","u","c","h",".","W","a","'","s","g","i","n","?","stop-input","start-output","unrecognized"],"specialIndexes":[17,18,19]}},"input":{"rows":21,"columns":20,"weights":{"0":1.9736438989639282,"1":-1.869004249572754,"2":1.3537719249725342,"3":0.720670223236084,"4":-0.3457162380218506,"5":1.143019437789917,"6":-1.5281496047973633,"7":-0.901648998260498,"8":0.23882390558719635,"9":2.1332449913024902,"10":-1.157118558883667,"11":-0.07074776291847229,"12":0.23654398322105408,"13":-0.9715755581855774,"14":0.5050593614578247,"15":-1.087516188621521,"16":-0.6210141777992249,"17":0.8128543496131897,"18":-0.29200828075408936,"19":3.3413288593292236,"20":-0.49955230951309204,"21":-0.2532780170440674,"22":0.3781420886516571,"23":-1.0171799659729004,"24":0.07952481508255005,"25":-0.9463182687759399,"26":-0.4568362534046173,"27":-0.44944602251052856,"28":1.3017840385437012,"29":0.005470673553645611,"30":-1.0369715690612793,"31":-1.2472224235534668,"32":-0.28159844875335693,"33":0.95881187915802,"34":-1.2175543308258057,"35":-1.0493872165679932,"36":0.7784752249717712,"37":-1.1928021907806396,"38":-1.3277487754821777,"39":0.6188967823982239,"40":1.1042132377624512,"41":1.6162627935409546,"42":-0.23018097877502441,"43":3.3641421794891357,"44":0.11808666586875916,"45":-0.3568611741065979,"46":-0.07906562089920044,"47":0.4510311484336853,"48":-1.6039608716964722,"49":0.7359517216682434,"50":0.84211665391922,"51":1.297277569770813,"52":1.7091742753982544,"53":-2.1184680461883545,"54":0.638412356376648,"55":1.3133970499038696,"56":-1.4576115608215332,"57":0.27101898193359375,"58":1.724562406539917,"59":-3.5065948963165283,"60":-0.11008840799331665,"61":0.12889860570430756,"62":-2.747469663619995,"63":0.81307053565979,"64":1.799432396888733,"65":-2.6043741703033447,"66":-0.42463669180870056,"67":-0.2017894983291626,"68":0.1198248490691185,"69":-0.9958798885345459,"70":-0.21817484498023987,"71":0.9183720350265503,"72":0.28228631615638733,"73":0.8035650849342346,"74":3.337470531463623,"75":0.08747649937868118,"76":-0.24798095226287842,"77":2.016002893447876,"78":1.9508358240127563,"79":0.09508442133665085,"80":0.39232876896858215,"81":0.5134259462356567,"82":0.07101629674434662,"83":-0.3578852117061615,"84":0.40328681468963623,"85":-0.6061722040176392,"86":-0.4985183775424957,"87":-0.44493094086647034,"88":0.8499342799186707,"89":-0.2588490843772888,"90":-0.18547970056533813,"91":-0.2481032907962799,"92":0.005110745783895254,"93":-0.028031200170516968,"94":-0.49051758646965027,"95":-0.5924888253211975,"96":0.6033880710601807,"97":-0.8382277488708496,"98":-0.3315523862838745,"99":0.22681143879890442,"100":-1.9695813655853271,"101":-0.8934198021888733,"102":0.4050763249397278,"103":0.3128385543823242,"104":1.8532330989837646,"105":-0.7270510792732239,"106":-1.3123011589050293,"107":-2.5649633407592773,"108":0.15801556408405304,"109":-0.8546551465988159,"110":-0.5295592546463013,"111":0.02562231756746769,"112":0.2974351942539215,"113":0.33510690927505493,"114":0.043434027582407,"115":0.018576988950371742,"116":1.5879241228103638,"117":0.3296314477920532,"118":-1.7795699834823608,"119":1.513890266418457,"120":1.725569725036621,"121":-0.03206995129585266,"122":0.9087977409362793,"123":2.5942156314849854,"124":-0.26552054286003113,"125":1.4065665006637573,"126":-0.6488176584243774,"127":0.1212245300412178,"128":-2.332467555999756,"129":2.4478235244750977,"130":0.38582244515419006,"131":1.0415347814559937,"132":1.0815054178237915,"133":-1.8365364074707031,"134":0.46528196334838867,"135":0.1886976659297943,"136":-0.518214225769043,"137":0.689399778842926,"138":1.2744626998901367,"139":-0.25231465697288513,"140":1.2430741786956787,"141":-0.5766505002975464,"142":0.9667733311653137,"143":-1.0052136182785034,"144":-0.9454612731933594,"145":0.17585992813110352,"146":-1.2307049036026,"147":0.0868537649512291,"148":0.8111365437507629,"149":1.0599216222763062,"150":-1.0043141841888428,"151":-1.7022038698196411,"152":-1.3369296789169312,"153":1.079893946647644,"154":-0.20618750154972076,"155":-1.2857435941696167,"156":1.020338535308838,"157":-0.8143851161003113,"158":-0.5401683449745178,"159":-0.0296342670917511,"160":-2.2802858352661133,"161":1.4293090105056763,"162":-1.4801081418991089,"163":-0.45113807916641235,"164":2.1355366706848145,"165":0.848145067691803,"166":2.852935791015625,"167":2.0212650299072266,"168":-2.0455427169799805,"169":-1.6940158605575562,"170":1.8649940490722656,"171":1.2323945760726929,"172":1.1209416389465332,"173":-0.8756775856018066,"174":1.0228731632232666,"175":-0.09426401555538177,"176":0.013421030715107918,"177":0.29930683970451355,"178":-0.9117236137390137,"179":-2.044640064239502,"180":-1.041153907775879,"181":-0.4121662378311157,"182":-0.9732494950294495,"183":-0.47269225120544434,"184":1.1786115169525146,"185":-0.42454537749290466,"186":1.5065678358078003,"187":-2.3204598426818848,"188":0.9099011421203613,"189":-1.1229580640792847,"190":-0.9993614554405212,"191":-0.5926949977874756,"192":-0.14361026883125305,"193":0.5264450907707214,"194":-1.7581721544265747,"195":-0.8810281753540039,"196":1.722773790359497,"197":-1.7584141492843628,"198":-1.5066524744033813,"199":1.0942994356155396,"200":-0.3004297614097595,"201":0.6954942345619202,"202":-0.5675413608551025,"203":0.37873002886772156,"204":-0.12921765446662903,"205":-0.45930877327919006,"206":-0.11684542149305344,"207":-1.352813720703125,"208":0.10486747324466705,"209":0.35251757502555847,"210":-1.4078116416931152,"211":0.402760773897171,"212":-1.0112944841384888,"213":0.4815521240234375,"214":1.3125264644622803,"215":-1.7145428657531738,"216":1.5158121585845947,"217":-0.02431267499923706,"218":0.7300911545753479,"219":-0.6812256574630737,"220":1.034350037574768,"221":0.43944719433784485,"222":-0.10889829695224762,"223":-0.33240237832069397,"224":-1.903784155845642,"225":2.7571356296539307,"226":-0.5888903141021729,"227":1.4874091148376465,"228":0.1700226068496704,"229":0.45774227380752563,"230":0.277423232793808,"231":-1.4306451082229614,"232":-0.16597940027713776,"233":-0.7929947972297668,"234":-1.3864631652832031,"235":-0.8643687963485718,"236":0.15664426982402802,"237":-0.6143548488616943,"238":-1.22022545337677,"239":-1.0813628435134888,"240":-0.5224753618240356,"241":0.0631888285279274,"242":-0.4131568372249603,"243":-0.20403648912906647,"244":0.6830589771270752,"245":0.39321213960647583,"246":0.4229777455329895,"247":-0.09285302460193634,"248":0.46630847454071045,"249":-0.599920392036438,"250":-0.3489203453063965,"251":-0.7430976629257202,"252":-0.10338742285966873,"253":0.2790416181087494,"254":-0.7581028938293457,"255":-0.4451234042644501,"256":0.4066998362541199,"257":-0.7238131165504456,"258":-0.45211926102638245,"259":0.11395400762557983,"260":0.6784313321113586,"261":-0.903348445892334,"262":1.286320447921753,"263":-0.04662526771426201,"264":0.4833182692527771,"265":0.2862359583377838,"266":-0.9435520172119141,"267":0.2754862904548645,"268":0.13715603947639465,"269":0.018525341525673866,"270":-0.31577587127685547,"271":-0.37836650013923645,"272":-0.9182049036026001,"273":0.13199801743030548,"274":0.5880308747291565,"275":-0.18356667459011078,"276":-0.47939831018447876,"277":0.7640103697776794,"278":-0.12200883775949478,"279":0.45532700419425964,"280":-0.5098757743835449,"281":1.4538393020629883,"282":-0.5482317209243774,"283":-1.2717785835266113,"284":0.09685754030942917,"285":-0.14665143191814423,"286":0.522987425327301,"287":-0.5108112096786499,"288":1.2919838428497314,"289":-0.4007370173931122,"290":-0.7404954433441162,"291":-0.9548553228378296,"292":-0.9900898337364197,"293":1.1232271194458008,"294":-1.3213582038879395,"295":-0.5449011921882629,"296":1.4565060138702393,"297":-1.3060572147369385,"298":-0.5479322671890259,"299":-0.9391852617263794,"300":-1.6168265342712402,"301":-0.26773637533187866,"302":-1.20024573802948,"303":0.8544641137123108,"304":2.6725289821624756,"305":-2.2924044132232666,"306":0.3255314230918884,"307":-0.28209397196769714,"308":-0.3839690089225769,"309":-1.7657616138458252,"310":-0.46718689799308777,"311":0.5202943682670593,"312":-0.4262973964214325,"313":0.08958053588867188,"314":1.8305363655090332,"315":0.5627918839454651,"316":0.4305202066898346,"317":0.9917371869087219,"318":0.8923021554946899,"319":-0.08514455705881119,"320":1.3192839622497559,"321":-1.1892601251602173,"322":1.5042250156402588,"323":-0.6914554834365845,"324":-0.7085548043251038,"325":-1.0773534774780273,"326":-1.7947895526885986,"327":0.18169720470905304,"328":0.8766355514526367,"329":1.1590094566345215,"330":-0.7096003890037537,"331":-0.7683600187301636,"332":-1.0739680528640747,"333":0.8420915007591248,"334":0.514089047908783,"335":-0.739713728427887,"336":0.8550801277160645,"337":-0.10729539394378662,"338":0.0341472364962101,"339":1.8471180200576782,"340":-0.4348573684692383,"341":0.8226109743118286,"342":-1.0376296043395996,"343":1.7077089548110962,"344":0.44361022114753723,"345":-0.5177215337753296,"346":1.485785722732544,"347":0.6762824058532715,"348":-1.3678728342056274,"349":-0.9127168655395508,"350":0.9783381223678589,"351":0.3866812288761139,"352":1.4000225067138672,"353":-1.303615689277649,"354":0.9113982319831848,"355":0.9783328771591187,"356":-1.4743990898132324,"357":-0.09191472828388214,"358":0.49237605929374695,"359":-0.2995181381702423,"360":-1.553747296333313,"361":1.1711931228637695,"362":-0.1738681048154831,"363":0.2350703924894333,"364":0.911037266254425,"365":-1.28815495967865,"366":2.0940165519714355,"367":-0.765849232673645,"368":0.2807621359825134,"369":-2.931067943572998,"370":0.9417061805725098,"371":0.9636107683181763,"372":3.155160903930664,"373":-0.923014223575592,"374":-1.4213025569915771,"375":0.8289178013801575,"376":-0.9128053188323975,"377":-0.08589908480644226,"378":-0.3903343081474304,"379":-0.648536741733551,"380":-1.4164669513702393,"381":0.98114413022995,"382":-1.6811548471450806,"383":-0.21957774460315704,"384":2.169376850128174,"385":-1.448462724685669,"386":1.3509588241577148,"387":2.113419532775879,"388":1.56905996799469,"389":-2.5153613090515137,"390":-0.15318287909030914,"391":0.2831084430217743,"392":-0.9060249328613281,"393":0.8921088576316833,"394":-0.49403268098831177,"395":1.0533069372177124,"396":1.35708487033844,"397":-1.4171438217163086,"398":-0.7960278987884521,"399":-0.20721584558486938,"400":-0.5525512099266052,"401":-0.05144466087222099,"402":-0.5592219233512878,"403":1.3166764974594116,"404":0.8080583214759827,"405":-1.02389657497406,"406":0.5822811722755432,"407":0.9186946153640747,"408":-3.230435609817505,"409":-0.03361310809850693,"410":1.480555534362793,"411":1.6035852432250977,"412":-1.6182390451431274,"413":1.100210428237915,"414":2.1882412433624268,"415":3.0820834636688232,"416":-0.809027373790741,"417":1.0628291368484497,"418":1.16481351852417,"419":0.9196586012840271}},"hiddenLayers":[{"inputMatrix":{"rows":20,"columns":20,"weights":{"0":-1.464379072189331,"1":1.0367956161499023,"2":-1.0739154815673828,"3":-0.20416203141212463,"4":2.580592632293701,"5":-1.3150269985198975,"6":-0.417570024728775,"7":-1.125931978225708,"8":1.4061386585235596,"9":-2.1670937538146973,"10":-0.31850680708885193,"11":-0.08501237630844116,"12":0.7450650930404663,"13":0.7591128349304199,"14":0.4238438308238983,"15":-0.34591346979141235,"16":1.3580209016799927,"17":-0.043354179710149765,"18":-0.8800325989723206,"19":-1.2968477010726929,"20":-0.9791185259819031,"21":0.4216565787792206,"22":-0.4224177300930023,"23":1.1172144412994385,"24":3.2157764434814453,"25":-0.08613855391740799,"26":0.1217406764626503,"27":1.2540644407272339,"28":0.42314067482948303,"29":-2.2158010005950928,"30":-0.6022328734397888,"31":1.2729095220565796,"32":-0.059464231133461,"33":-0.14724941551685333,"34":1.146192193031311,"35":0.5268374681472778,"36":-0.32254302501678467,"37":0.7936331629753113,"38":0.2988719940185547,"39":0.5298691391944885,"40":-2.5674476623535156,"41":-0.0019396791467443109,"42":-0.5037097334861755,"43":-1.1328662633895874,"44":2.682373046875,"45":-1.3460782766342163,"46":1.3178788423538208,"47":0.8408783078193665,"48":1.0066227912902832,"49":-2.0491228103637695,"50":-0.4441412091255188,"51":-0.531997561454773,"52":-1.1041547060012817,"53":2.472276449203491,"54":1.2483887672424316,"55":0.020439961925148964,"56":1.2255796194076538,"57":0.9084819555282593,"58":-0.810258686542511,"59":0.7301239371299744,"60":-0.9638073444366455,"61":-1.0528541803359985,"62":-0.4932953119277954,"63":-0.36552393436431885,"64":1.3323431015014648,"65":-2.411726236343384,"66":-0.5337323546409607,"67":-2.1815595626831055,"68":0.5029815435409546,"69":-2.415466547012329,"70":-0.4273202419281006,"71":-0.16476064920425415,"72":0.013210322707891464,"73":0.5941070914268494,"74":-0.6534074544906616,"75":-0.3093923330307007,"76":1.9101827144622803,"77":-0.5660334825515747,"78":-0.6086653470993042,"79":0.48643043637275696,"80":-3.061267137527466,"81":1.3437135219573975,"82":-2.0849740505218506,"83":0.8602305054664612,"84":1.8260984420776367,"85":-3.2584750652313232,"86":2.8951263427734375,"87":1.1095969676971436,"88":-0.7047175168991089,"89":-2.4396140575408936,"90":0.5018302202224731,"91":1.2271296977996826,"92":0.5170111656188965,"93":-0.027479594573378563,"94":0.07477940618991852,"95":2.310943841934204,"96":1.2579666376113892,"97":-0.5396068096160889,"98":0.19679485261440277,"99":-0.1580241620540619,"100":0.9240245819091797,"101":-0.3969214856624603,"102":1.1073997020721436,"103":1.9777976274490356,"104":-1.1251306533813477,"105":0.32786136865615845,"106":0.6492207646369934,"107":2.323575258255005,"108":0.1280844509601593,"109":1.0120657682418823,"110":0.49236568808555603,"111":-0.48066362738609314,"112":1.1888759136199951,"113":-1.5164395570755005,"114":-1.8388123512268066,"115":0.1963384598493576,"116":-1.6150332689285278,"117":-1.3483688831329346,"118":-0.015541665256023407,"119":-0.6952200531959534,"120":-0.884793758392334,"121":1.163686752319336,"122":-1.443697214126587,"123":1.3250226974487305,"124":0.4283515512943268,"125":0.3581477999687195,"126":3.353179931640625,"127":0.9338112473487854,"128":-1.9480583667755127,"129":-1.2068785429000854,"130":2.6283509731292725,"131":1.407128930091858,"132":2.0252418518066406,"133":-2.4713966846466064,"134":-0.5229321122169495,"135":1.7798948287963867,"136":-0.837559163570404,"137":1.112073540687561,"138":0.024769732728600502,"139":-0.8124434947967529,"140":0.3155215084552765,"141":-0.9517645239830017,"142":0.28917211294174194,"143":-0.9393153190612793,"144":-0.8932909369468689,"145":1.9752460718154907,"146":-0.8179323077201843,"147":-0.4455257058143616,"148":1.2928296327590942,"149":0.5156383514404297,"150":-1.3944239616394043,"151":-1.6557652950286865,"152":-2.0193426609039307,"153":1.562439203262329,"154":0.3678370416164398,"155":-3.6217288970947266,"156":0.9537695050239563,"157":-0.2664606273174286,"158":-1.568082332611084,"159":0.5866332650184631,"160":-0.4948684871196747,"161":2.2728452682495117,"162":-1.568058967590332,"163":-0.7376799583435059,"164":-0.657869279384613,"165":1.3497084379196167,"166":0.8887656331062317,"167":-1.2285503149032593,"168":0.8983526825904846,"169":0.5002782940864563,"170":-1.0348050594329834,"171":-0.5922968983650208,"172":-0.05460052192211151,"173":0.6870428323745728,"174":-2.6088225841522217,"175":-0.8996644020080566,"176":1.1457228660583496,"177":-1.5234882831573486,"178":-1.1349512338638306,"179":-0.569765567779541,"180":-4.001036643981934,"181":-0.8024779558181763,"182":-2.631333351135254,"183":0.4125838577747345,"184":2.3869121074676514,"185":-1.7687512636184692,"186":2.014284372329712,"187":-2.184614896774292,"188":-0.07441546767950058,"189":-2.2373461723327637,"190":0.047056086361408234,"191":0.5458068251609802,"192":-0.7525875568389893,"193":0.7173221707344055,"194":0.06892483681440353,"195":0.7021074295043945,"196":1.3866643905639648,"197":-0.966002881526947,"198":-0.9472075700759888,"199":0.46436062455177307,"200":1.4552980661392212,"201":0.05944373458623886,"202":2.0585737228393555,"203":-1.2154321670532227,"204":-0.8723236322402954,"205":1.046126127243042,"206":-1.5087605714797974,"207":-0.7625945806503296,"208":0.699948787689209,"209":1.357861042022705,"210":-1.4011077880859375,"211":-1.1229417324066162,"212":-1.5660182237625122,"213":1.2250350713729858,"214":-0.5532386898994446,"215":-1.1458646059036255,"216":0.04101526737213135,"217":0.3739708364009857,"218":-1.5321292877197266,"219":-0.024999087676405907,"220":-1.42629075050354,"221":-1.5183207988739014,"222":0.8970298171043396,"223":-1.5457918643951416,"224":3.0868396759033203,"225":0.8945597410202026,"226":1.5963160991668701,"227":-2.1821129322052,"228":1.1200249195098877,"229":-0.6220825910568237,"230":-1.0626676082611084,"231":0.5312193632125854,"232":1.458827257156372,"233":-0.3742496371269226,"234":-1.1620978116989136,"235":-0.9836398959159851,"236":0.3985538184642792,"237":0.05777249485254288,"238":-1.9189902544021606,"239":1.2241899967193604,"240":0.09861922264099121,"241":-1.332198143005371,"242":-1.2721599340438843,"243":-3.0772335529327393,"244":0.12164970487356186,"245":0.358744353055954,"246":-0.2452543079853058,"247":0.7168319821357727,"248":1.5611482858657837,"249":0.9645235538482666,"250":-2.1668715476989746,"251":-1.2657049894332886,"252":-3.1385393142700195,"253":3.128077745437622,"254":-0.6647680401802063,"255":-1.4578099250793457,"256":0.6220663785934448,"257":-0.6799657344818115,"258":-2.336979627609253,"259":0.5363079309463501,"260":-2.4104902744293213,"261":0.5160208940505981,"262":-1.0130035877227783,"263":-1.5661169290542603,"264":-0.07886667549610138,"265":1.4709142446517944,"266":1.9523173570632935,"267":0.8748809099197388,"268":-0.11710697412490845,"269":-1.8640656471252441,"270":0.7082312703132629,"271":-0.426437646150589,"272":-0.27676326036453247,"273":0.35997873544692993,"274":-1.4674733877182007,"275":0.4176769256591797,"276":0.6688785552978516,"277":-0.9305630326271057,"278":-1.3679362535476685,"279":-1.5800514221191406,"280":1.5350271463394165,"281":-1.6648002862930298,"282":-0.15703235566616058,"283":1.8348089456558228,"284":-0.609683096408844,"285":-0.690930187702179,"286":-1.2498142719268799,"287":0.08106948435306549,"288":-0.22148531675338745,"289":2.219050645828247,"290":-1.8372019529342651,"291":0.2752875089645386,"292":-1.798848271369934,"293":-0.3974704146385193,"294":0.7726052403450012,"295":0.6267919540405273,"296":-0.9094326496124268,"297":1.53700590133667,"298":1.952285647392273,"299":0.6859928965568542,"300":-0.13152360916137695,"301":-0.8670732975006104,"302":0.8285724520683289,"303":-1.1696012020111084,"304":0.9357445240020752,"305":-0.09660258889198303,"306":-0.779360830783844,"307":-3.2497072219848633,"308":1.1957635879516602,"309":0.6946610808372498,"310":-1.6677979230880737,"311":-0.33836275339126587,"312":-0.7446536421775818,"313":1.4458845853805542,"314":-0.3947110176086426,"315":-2.28886342048645,"316":1.3438624143600464,"317":-0.6752006411552429,"318":-1.2375612258911133,"319":1.4043604135513306,"320":-2.2077133655548096,"321":1.5089370012283325,"322":-1.0774554014205933,"323":0.4817602038383484,"324":2.050690174102783,"325":-0.801713764667511,"326":1.8496208190917969,"327":0.30106598138809204,"328":-0.9544689059257507,"329":-1.2242252826690674,"330":0.1311110258102417,"331":-0.7226992845535278,"332":-0.9040296673774719,"333":1.1888866424560547,"334":-1.2201907634735107,"335":-0.6231598854064941,"336":2.0334179401397705,"337":-1.4282878637313843,"338":-0.9759734272956848,"339":-1.3920533657073975,"340":-0.4010084867477417,"341":-1.734959602355957,"342":0.6104451417922974,"343":-2.722663164138794,"344":0.26014864444732666,"345":-0.6704215407371521,"346":1.0253187417984009,"347":-3.040811777114868,"348":1.4292943477630615,"349":-0.7697898745536804,"350":-0.7163382768630981,"351":0.08969426900148392,"352":-0.8944386839866638,"353":1.3116111755371094,"354":-0.31446483731269836,"355":-1.310226559638977,"356":2.5047032833099365,"357":-1.088310718536377,"358":-1.1885896921157837,"359":1.7585235834121704,"360":-0.9769529104232788,"361":0.2340661734342575,"362":-0.0459621287882328,"363":-0.2554706335067749,"364":0.4225754737854004,"365":-0.7616938948631287,"366":-0.3973791003227234,"367":-1.7711347341537476,"368":1.6967315673828125,"369":-1.8475303649902344,"370":-1.2694940567016602,"371":-0.24171985685825348,"372":0.5005622506141663,"373":0.551260769367218,"374":-3.1670291423797607,"375":-0.4788661599159241,"376":1.5369445085525513,"377":-1.7519842386245728,"378":-1.2424014806747437,"379":-0.5185111165046692,"380":-1.3965132236480713,"381":-0.5854984521865845,"382":1.0142837762832642,"383":-0.8662096858024597,"384":-0.19862140715122223,"385":0.4433048367500305,"386":-0.29759323596954346,"387":-1.0847721099853516,"388":0.4543079137802124,"389":-0.04906220734119415,"390":-1.5681134462356567,"391":-1.8431971073150635,"392":0.7339931130409241,"393":-0.4472094178199768,"394":-2.5036494731903076,"395":-0.3690071702003479,"396":0.4708469808101654,"397":-1.2536741495132446,"398":-2.6533074378967285,"399":0.7092394828796387}},"inputHidden":{"rows":20,"columns":20,"weights":{"0":1.3041671514511108,"1":-0.2232685685157776,"2":0.891654908657074,"3":0.3347019851207733,"4":-0.050419483333826065,"5":1.3925442695617676,"6":0.042058151215314865,"7":-0.09199714660644531,"8":0.4936203360557556,"9":-0.3283112645149231,"10":-0.4049767553806305,"11":-0.6369720101356506,"12":-1.2447340488433838,"13":-0.16070470213890076,"14":-1.4413576126098633,"15":0.003911420702934265,"16":0.6258334517478943,"17":-1.2261900901794434,"18":-0.13126039505004883,"19":-0.7373266816139221,"20":2.3119146823883057,"21":0.6182037591934204,"22":0.2362435758113861,"23":0.6194204092025757,"24":-1.6073724031448364,"25":0.15041939914226532,"26":-0.11542496085166931,"27":-0.301748663187027,"28":0.48288995027542114,"29":-0.28317272663116455,"30":2.1285688877105713,"31":-1.5951581001281738,"32":1.158612847328186,"33":-1.5191303491592407,"34":0.8041608929634094,"35":-0.11813494563102722,"36":-1.144655466079712,"37":-0.7109041810035706,"38":-0.9033582210540771,"39":0.8336775898933411,"40":1.1107696294784546,"41":-1.2079845666885376,"42":0.36244213581085205,"43":1.3663244247436523,"44":0.9678714871406555,"45":-0.357943058013916,"46":1.4297704696655273,"47":-0.1402239352464676,"48":2.543224573135376,"49":-1.2644611597061157,"50":2.357651948928833,"51":0.22056329250335693,"52":2.4753146171569824,"53":-0.7344226837158203,"54":-0.6994611024856567,"55":-3.068631649017334,"56":-0.2229241281747818,"57":-1.0216796398162842,"58":1.8928521871566772,"59":0.1023973897099495,"60":-0.6683714985847473,"61":-0.4970249533653259,"62":-0.5935284495353699,"63":0.19905240833759308,"64":-1.741992712020874,"65":-0.7236105799674988,"66":2.241638422012329,"67":-2.4529664516448975,"68":-0.5931983590126038,"69":-1.0772191286087036,"70":-1.0339943170547485,"71":-0.5530283451080322,"72":-0.5402498841285706,"73":0.9349952340126038,"74":-0.7453691363334656,"75":-0.927327573299408,"76":-0.6692291498184204,"77":-1.6092621088027954,"78":-1.391939640045166,"79":1.5033386945724487,"80":1.4967796802520752,"81":-1.8229719400405884,"82":0.7585262060165405,"83":-0.5417271852493286,"84":-0.3871566355228424,"85":0.7530340552330017,"86":0.7721336483955383,"87":-1.1879600286483765,"88":-0.14259187877178192,"89":0.8836836814880371,"90":-0.022092582657933235,"91":0.9794910550117493,"92":0.1436886042356491,"93":0.1001734584569931,"94":-0.6413969397544861,"95":-0.4054613709449768,"96":-0.17135609686374664,"97":-0.8684132099151611,"98":-1.2897779941558838,"99":-0.30998265743255615,"100":1.5819166898727417,"101":-1.5666381120681763,"102":-0.44644492864608765,"103":0.7422216534614563,"104":-0.9096181392669678,"105":-2.582393169403076,"106":0.7734598517417908,"107":-0.9230195879936218,"108":-0.48760101199150085,"109":-3.03484845161438,"110":-0.35929715633392334,"111":1.2750605344772339,"112":-1.4349796772003174,"113":0.8784574866294861,"114":1.7071551084518433,"115":-0.3682140111923218,"116":-2.084508180618286,"117":1.1118192672729492,"118":0.3722062408924103,"119":1.4854754209518433,"120":0.892755925655365,"121":-1.65377938747406,"122":2.243513345718384,"123":1.8691219091415405,"124":-0.6826260089874268,"125":-1.0018668174743652,"126":-1.3016740083694458,"127":-0.8132724165916443,"128":-0.3270619809627533,"129":-0.9225994944572449,"130":0.8954223990440369,"131":0.3429136574268341,"132":0.017295315861701965,"133":-0.6098469495773315,"134":1.0231982469558716,"135":-1.9932845830917358,"136":0.6448395848274231,"137":0.10428208112716675,"138":1.8860441446304321,"139":0.2533978521823883,"140":0.13430696725845337,"141":-0.49790406227111816,"142":-1.0677380561828613,"143":-0.8720696568489075,"144":-0.574811577796936,"145":0.8966770768165588,"146":0.8163220882415771,"147":2.1471567153930664,"148":-0.1255558580160141,"149":0.48409610986709595,"150":-3.4921796321868896,"151":-0.12690365314483643,"152":-2.576040506362915,"153":0.22210775315761566,"154":-1.4592015743255615,"155":1.9979596138000488,"156":-1.9580267667770386,"157":-2.3503403663635254,"158":1.169622778892517,"159":2.3397457599639893,"160":-0.5916509032249451,"161":0.5200220346450806,"162":-0.22551481425762177,"163":0.27288034558296204,"164":-1.1275087594985962,"165":-0.7399742007255554,"166":2.404792308807373,"167":-0.9793412089347839,"168":-0.36006787419319153,"169":-0.4099494218826294,"170":0.10541491210460663,"171":-0.2519064247608185,"172":-0.4021724760532379,"173":0.21455338597297668,"174":0.02013034000992775,"175":0.3682984709739685,"176":-1.4866164922714233,"177":0.849304735660553,"178":0.7251593470573425,"179":0.43218591809272766,"180":-0.54508376121521,"181":-1.8591357469558716,"182":-1.4701168537139893,"183":-1.0971299409866333,"184":-0.36929675936698914,"185":0.025429246947169304,"186":0.4500839412212372,"187":0.24852220714092255,"188":0.024857716634869576,"189":-2.3682470321655273,"190":1.615069031715393,"191":-1.0052415132522583,"192":-0.5090524554252625,"193":0.4046093225479126,"194":0.4052473306655884,"195":0.21852965652942657,"196":0.833496630191803,"197":-0.5652124285697937,"198":0.9890283942222595,"199":-0.26093652844429016,"200":0.06296160072088242,"201":-1.3008086681365967,"202":-0.3716391623020172,"203":0.6823489665985107,"204":0.6741201281547546,"205":-0.3716820776462555,"206":0.22041338682174683,"207":0.4304090738296509,"208":-2.441816568374634,"209":0.6358411312103271,"210":-0.3170204758644104,"211":0.906978189945221,"212":-2.267728805541992,"213":-0.15226055681705475,"214":-1.3469616174697876,"215":1.4439568519592285,"216":0.06570984423160553,"217":-1.1259022951126099,"218":1.0285298824310303,"219":0.2870149314403534,"220":-0.9112063646316528,"221":-0.7119059562683105,"222":0.7959113121032715,"223":-0.008963321335613728,"224":1.1413735151290894,"225":2.237070083618164,"226":0.47532424330711365,"227":3.259551525115967,"228":-0.23368652164936066,"229":1.722177505493164,"230":-1.1622726917266846,"231":0.23056013882160187,"232":-1.9080829620361328,"233":0.49854856729507446,"234":-2.5188205242156982,"235":0.3229331970214844,"236":0.6518807411193848,"237":-0.346251517534256,"238":0.44770023226737976,"239":1.9652166366577148,"240":-0.7954000234603882,"241":-2.6918301582336426,"242":-0.7568459510803223,"243":-0.1897546648979187,"244":1.3413794040679932,"245":1.226404070854187,"246":-1.4764422178268433,"247":1.468388319015503,"248":1.4698164463043213,"249":1.2183375358581543,"250":1.0841517448425293,"251":1.063431978225708,"252":-0.09732493758201599,"253":-0.9485446810722351,"254":-1.4245288372039795,"255":0.7225154042243958,"256":1.616930365562439,"257":-1.2647708654403687,"258":0.8178814649581909,"259":-1.1741862297058105,"260":1.7817949056625366,"261":-0.5962753295898438,"262":-0.09361673146486282,"263":0.3761530816555023,"264":0.7100365161895752,"265":1.8428987264633179,"266":0.5242879390716553,"267":1.3031587600708008,"268":-0.8600975275039673,"269":1.2901474237442017,"270":-0.6439878940582275,"271":-0.7146415114402771,"272":-0.856931746006012,"273":1.2542195320129395,"274":-0.383717805147171,"275":-0.7148554921150208,"276":0.33516600728034973,"277":-1.145605444908142,"278":0.05432784929871559,"279":-1.1969753503799438,"280":-1.0215275287628174,"281":-1.3586524724960327,"282":-1.061579942703247,"283":-1.6096692085266113,"284":1.561383605003357,"285":0.7914085984230042,"286":-1.3994957208633423,"287":3.1790637969970703,"288":1.9140493869781494,"289":1.4153947830200195,"290":0.4973347783088684,"291":-0.7356281876564026,"292":1.0274994373321533,"293":-0.05484633147716522,"294":-1.8572134971618652,"295":-1.4733635187149048,"296":-0.9883360266685486,"297":1.7470180988311768,"298":-2.3321385383605957,"299":0.1598755270242691,"300":1.2381527423858643,"301":0.6835599541664124,"302":0.1977119892835617,"303":0.3073229491710663,"304":-0.6449676752090454,"305":0.02326330728828907,"306":0.047515880316495895,"307":0.5000491738319397,"308":-0.17310309410095215,"309":0.2544654309749603,"310":-0.022019073367118835,"311":0.6576892137527466,"312":-0.2088697999715805,"313":-0.7816520929336548,"314":0.22718532383441925,"315":-0.09009582549333572,"316":0.12036658078432083,"317":-1.1586953401565552,"318":1.1229034662246704,"319":0.69251948595047,"320":-0.5307053327560425,"321":-0.2451585829257965,"322":-0.19966794550418854,"323":0.8700255155563354,"324":-1.7184433937072754,"325":-0.7212700843811035,"326":-0.5009455680847168,"327":-1.4452012777328491,"328":1.803844928741455,"329":-1.092545509338379,"330":-0.05858122184872627,"331":-2.1071231365203857,"332":1.6360481977462769,"333":-0.5154240131378174,"334":1.3343316316604614,"335":-0.1811712086200714,"336":-0.5363484025001526,"337":0.4528956711292267,"338":0.1964474320411682,"339":0.7646916508674622,"340":-1.679132342338562,"341":3.176098585128784,"342":-2.0017857551574707,"343":-1.452402114868164,"344":1.4263643026351929,"345":-0.22482198476791382,"346":0.6417509317398071,"347":2.3726212978363037,"348":-0.8791216015815735,"349":-2.5737311840057373,"350":0.012630213052034378,"351":-0.033395007252693176,"352":-0.48402145504951477,"353":-0.604969322681427,"354":3.9998767375946045,"355":-0.7335733771324158,"356":0.9113242626190186,"357":0.4101061224937439,"358":0.4050004482269287,"359":-1.275230050086975,"360":-0.42068323493003845,"361":0.9388274550437927,"362":0.5178260803222656,"363":0.005221310071647167,"364":-1.3960760831832886,"365":-0.631467342376709,"366":2.31923508644104,"367":-0.8934797048568726,"368":-0.7628702521324158,"369":-1.7037245035171509,"370":0.08740289509296417,"371":-0.13027513027191162,"372":-1.4964417219161987,"373":0.11890192329883575,"374":0.7252556681632996,"375":-0.7995737195014954,"376":-0.2599274814128876,"377":-3.031076431274414,"378":-0.4802887439727783,"379":-1.2132538557052612,"380":-0.25041627883911133,"381":0.5537933707237244,"382":-1.2937365770339966,"383":2.4648990631103516,"384":-0.860554039478302,"385":-1.4278554916381836,"386":1.713187336921692,"387":-1.2706516981124878,"388":1.4413766860961914,"389":0.06361154466867447,"390":-1.4306243658065796,"391":-1.138519048690796,"392":0.4766554534435272,"393":-1.821558952331543,"394":-0.1280205249786377,"395":0.21234755218029022,"396":-2.8632564544677734,"397":-1.5007495880126953,"398":2.1315882205963135,"399":2.4816315174102783}},"inputBias":{"rows":20,"columns":1,"weights":{"0":-1.5471023321151733,"1":-2.1466023921966553,"2":-0.6547853350639343,"3":-4.131065368652344,"4":-1.2309476137161255,"5":-0.6707860231399536,"6":-0.40272462368011475,"7":-0.3536878824234009,"8":0.7020215392112732,"9":-0.19611789286136627,"10":-0.38704586029052734,"11":3.03197979927063,"12":-0.38470110297203064,"13":-0.5635452270507812,"14":0.4618852734565735,"15":-0.6565110087394714,"16":-2.1227073669433594,"17":1.029007911682129,"18":-0.22309066355228424,"19":-1.9973119497299194}},"forgetMatrix":{"rows":20,"columns":20,"weights":{"0":-1.7052054405212402,"1":1.6260957717895508,"2":-1.7057093381881714,"3":-0.03739149868488312,"4":-0.2504726052284241,"5":0.17292281985282898,"6":-0.3291167616844177,"7":0.7975021004676819,"8":1.047413945198059,"9":-0.21853449940681458,"10":-0.9050108790397644,"11":-1.7982258796691895,"12":-0.5918390154838562,"13":1.1184382438659668,"14":-0.5911617875099182,"15":-0.3926505446434021,"16":0.5245139002799988,"17":-1.5588457584381104,"18":-0.7009636163711548,"19":-1.3934321403503418,"20":-0.4654349982738495,"21":0.06395374238491058,"22":0.1779756247997284,"23":2.7440245151519775,"24":0.004497065208852291,"25":-0.9578320980072021,"26":2.0620837211608887,"27":-1.2896772623062134,"28":-2.2070438861846924,"29":-0.8294325470924377,"30":1.2363024950027466,"31":0.7298430800437927,"32":2.4299206733703613,"33":-1.5869877338409424,"34":0.7106729745864868,"35":1.0364904403686523,"36":-0.1592041552066803,"37":1.2887988090515137,"38":0.22094081342220306,"39":-0.9994889497756958,"40":-0.9244256615638733,"41":1.5118030309677124,"42":-0.22446951270103455,"43":1.5803205966949463,"44":0.545089066028595,"45":0.0576070174574852,"46":0.7159018516540527,"47":3.005011796951294,"48":-1.5330417156219482,"49":0.13769374787807465,"50":1.3453636169433594,"51":0.7171251773834229,"52":0.6508826613426208,"53":-1.2084612846374512,"54":0.12249317765235901,"55":1.7066045999526978,"56":-0.3840182423591614,"57":0.18352434039115906,"58":0.006146003492176533,"59":-1.793737769126892,"60":-1.5468008518218994,"61":0.7148234248161316,"62":-1.4050549268722534,"63":1.0635570287704468,"64":0.930621325969696,"65":-0.003058650530874729,"66":1.7934072017669678,"67":1.5684623718261719,"68":-1.0776094198226929,"69":-1.3249503374099731,"70":0.5867792963981628,"71":0.3683544397354126,"72":0.6245571970939636,"73":-0.7936174869537354,"74":0.8716745376586914,"75":1.3307613134384155,"76":-1.357749104499817,"77":1.3115723133087158,"78":0.07165100425481796,"79":-1.835235834121704,"80":1.8068119287490845,"81":0.8746075630187988,"82":0.8348435163497925,"83":0.27107271552085876,"84":-2.843926191329956,"85":0.49389374256134033,"86":-0.9548874497413635,"87":1.0326335430145264,"88":-0.4519985318183899,"89":1.757230520248413,"90":0.18291740119457245,"91":0.41644948720932007,"92":1.5863490104675293,"93":-0.884020984172821,"94":-1.009224772453308,"95":-0.7285454273223877,"96":0.5843672752380371,"97":-0.9010506868362427,"98":1.1395546197891235,"99":-0.6607486009597778,"100":-1.4805505275726318,"101":2.4092495441436768,"102":-0.9082683324813843,"103":-1.0720082521438599,"104":0.34471744298934937,"105":0.130674809217453,"106":1.7850273847579956,"107":0.8543127179145813,"108":1.2069956064224243,"109":-1.1889485120773315,"110":0.1716524064540863,"111":-0.22425423562526703,"112":0.4989948272705078,"113":0.6442264318466187,"114":-0.4385572373867035,"115":-0.803524911403656,"116":0.6617025136947632,"117":-0.08769547194242477,"118":0.4949484169483185,"119":-3.6232821941375732,"120":-0.21702079474925995,"121":-0.76004558801651,"122":1.01895010471344,"123":0.2576026916503906,"124":0.6329761743545532,"125":-2.4576308727264404,"126":-1.069968342781067,"127":-1.4268330335617065,"128":0.6870687007904053,"129":-0.133584663271904,"130":-2.049520492553711,"131":-1.2252955436706543,"132":-1.8082234859466553,"133":1.959328532218933,"134":-0.6184824109077454,"135":-0.6014403700828552,"136":1.3592133522033691,"137":-1.5262435674667358,"138":-0.459211140871048,"139":1.5258183479309082,"140":-0.359677255153656,"141":-0.7040326595306396,"142":1.4194397926330566,"143":1.8170018196105957,"144":-0.2386176586151123,"145":-0.4770612120628357,"146":-0.7641769051551819,"147":-0.09507961571216583,"148":0.5542370676994324,"149":0.8448301553726196,"150":0.7572773098945618,"151":4.170029640197754,"152":2.559056043624878,"153":0.44470521807670593,"154":0.845458984375,"155":2.9818921089172363,"156":-2.517965793609619,"157":0.13370971381664276,"158":1.8594733476638794,"159":1.0724599361419678,"160":-0.7818033695220947,"161":2.4350950717926025,"162":-2.4121153354644775,"163":0.6218123435974121,"164":-1.0541318655014038,"165":-0.5060412287712097,"166":2.5171220302581787,"167":1.9533700942993164,"168":-0.7808740735054016,"169":-1.5686262845993042,"170":0.13004951179027557,"171":0.5485063791275024,"172":-0.15037482976913452,"173":-0.12139991670846939,"174":0.5625022649765015,"175":0.6468791961669922,"176":0.2863043248653412,"177":-0.11242932081222534,"178":0.3460000157356262,"179":-3.3178329467773438,"180":-1.470076560974121,"181":1.032264232635498,"182":-0.787226676940918,"183":1.6683006286621094,"184":0.560581624507904,"185":-2.1413731575012207,"186":2.155433177947998,"187":0.27148014307022095,"188":-1.5976725816726685,"189":-1.0385303497314453,"190":1.0909528732299805,"191":1.5914798974990845,"192":1.049457311630249,"193":-1.2054792642593384,"194":0.5102225542068481,"195":2.3320088386535645,"196":0.7008500099182129,"197":-0.501670241355896,"198":2.0552821159362793,"199":-1.4200475215911865,"200":-1.9263415336608887,"201":1.6925570964813232,"202":-1.9971685409545898,"203":0.5281796455383301,"204":1.2023080587387085,"205":-2.775686264038086,"206":1.4517123699188232,"207":0.5307890772819519,"208":-0.497432678937912,"209":-1.1030908823013306,"210":0.5087524056434631,"211":-1.6094411611557007,"212":-0.22023150324821472,"213":-0.15864183008670807,"214":-1.635611891746521,"215":0.006371579132974148,"216":0.9323810338973999,"217":-0.8826891779899597,"218":0.46639135479927063,"219":-0.7746096849441528,"220":-0.8261802792549133,"221":-0.34435686469078064,"222":0.10554059594869614,"223":-0.6098939180374146,"224":1.5226091146469116,"225":-1.4972412586212158,"226":-0.46189817786216736,"227":-1.252639651298523,"228":0.8826704621315002,"229":-0.709945023059845,"230":-1.4339213371276855,"231":0.09422633051872253,"232":-1.6281894445419312,"233":2.8807084560394287,"234":0.030842045322060585,"235":-0.20034164190292358,"236":2.4576239585876465,"237":-0.16299748420715332,"238":-0.1528913676738739,"239":1.0554914474487305,"240":1.015480399131775,"241":-0.4050796329975128,"242":1.7566548585891724,"243":0.5690357685089111,"244":0.13611002266407013,"245":0.45007702708244324,"246":-1.3793766498565674,"247":2.643317461013794,"248":-0.5896676182746887,"249":0.888133704662323,"250":0.25716331601142883,"251":-0.7410314083099365,"252":-0.13653120398521423,"253":0.005679307505488396,"254":1.6279274225234985,"255":-0.048162177205085754,"256":-1.9581984281539917,"257":1.672986388206482,"258":1.812090277671814,"259":0.4569397270679474,"260":-1.9345945119857788,"261":1.2945932149887085,"262":-0.9009743332862854,"263":-1.9190765619277954,"264":1.1843390464782715,"265":0.2336656153202057,"266":1.3105816841125488,"267":0.20277437567710876,"268":0.920831024646759,"269":-1.1375852823257446,"270":-0.421945720911026,"271":-1.0704855918884277,"272":-0.4438212215900421,"273":1.2397856712341309,"274":-1.5839464664459229,"275":-1.9127697944641113,"276":0.9036396741867065,"277":-1.8189287185668945,"278":-2.158113956451416,"279":-0.886202871799469,"280":0.5141457915306091,"281":0.29542019963264465,"282":0.7751597762107849,"283":1.0235199928283691,"284":-1.452710509300232,"285":-0.579767107963562,"286":-0.42715170979499817,"287":-0.4139406681060791,"288":0.6832315921783447,"289":1.550226092338562,"290":-0.849666178226471,"291":-2.106872797012329,"292":-0.5598103404045105,"293":-1.6523997783660889,"294":-0.3973837196826935,"295":0.0018123714253306389,"296":-1.3751275539398193,"297":-0.9500284194946289,"298":0.14948545396327972,"299":-1.1705105304718018,"300":-1.2489564418792725,"301":1.4324747323989868,"302":-1.8320423364639282,"303":1.405715823173523,"304":0.850145161151886,"305":-2.1352286338806152,"306":1.4991495609283447,"307":0.49756962060928345,"308":-1.2301253080368042,"309":-0.8219322562217712,"310":0.38651707768440247,"311":0.6497283577919006,"312":-0.4631834924221039,"313":-0.207482248544693,"314":1.8087326288223267,"315":0.5780021548271179,"316":0.18712569773197174,"317":0.10321206599473953,"318":1.8686881065368652,"319":-1.9411777257919312,"320":-0.435518741607666,"321":1.7366352081298828,"322":-1.1807641983032227,"323":-0.1214728057384491,"324":0.279428094625473,"325":-1.0201891660690308,"326":1.5534727573394775,"327":1.1632330417633057,"328":-0.748051106929779,"329":-2.1430699825286865,"330":1.1947370767593384,"331":-0.07340189069509506,"332":1.9828871488571167,"333":-1.167211651802063,"334":-2.027829647064209,"335":1.2629833221435547,"336":0.11878123134374619,"337":-0.9789971113204956,"338":-0.6452542543411255,"339":-2.0061991214752197,"340":1.6351646184921265,"341":-2.11283278465271,"342":1.1055858135223389,"343":1.2471294403076172,"344":0.796817421913147,"345":-1.9564545154571533,"346":-2.1111998558044434,"347":0.20061427354812622,"348":-0.41304197907447815,"349":1.1889398097991943,"350":-0.2874835133552551,"351":0.7187920212745667,"352":-1.1287916898727417,"353":0.6410822868347168,"354":1.5279706716537476,"355":0.8286833167076111,"356":-0.37514862418174744,"357":1.2692209482192993,"358":1.8514049053192139,"359":2.073312997817993,"360":-0.17656902968883514,"361":1.0318481922149658,"362":-1.6613067388534546,"363":2.234178304672241,"364":-1.0019500255584717,"365":1.1680783033370972,"366":0.6786485314369202,"367":0.9675236344337463,"368":-2.3778982162475586,"369":-0.37976646423339844,"370":0.9681445360183716,"371":0.26887673139572144,"372":0.37962988018989563,"373":-1.537689447402954,"374":1.3621121644973755,"375":-0.11131034791469574,"376":-1.3152860403060913,"377":1.5175644159317017,"378":1.3345460891723633,"379":-2.1960651874542236,"380":0.9408387541770935,"381":-0.7150738835334778,"382":1.8936530351638794,"383":-1.653153419494629,"384":-0.011961834505200386,"385":2.4520485401153564,"386":-0.5944480299949646,"387":2.478348970413208,"388":0.7584125399589539,"389":0.4049545228481293,"390":0.5477959513664246,"391":-1.2384374141693115,"392":-0.23300890624523163,"393":-0.143632173538208,"394":0.955895721912384,"395":0.12206721305847168,"396":-1.7525031566619873,"397":1.5959537029266357,"398":-0.9214971661567688,"399":-1.451965093612671}},"forgetHidden":{"rows":20,"columns":20,"weights":{"0":-1.6539679765701294,"1":-0.011999540962278843,"2":-0.5410438179969788,"3":-0.2520323395729065,"4":0.5016230940818787,"5":-0.601535975933075,"6":0.21955439448356628,"7":0.3689175546169281,"8":0.34519219398498535,"9":0.35310032963752747,"10":0.7126593589782715,"11":-2.1675009727478027,"12":0.33555614948272705,"13":0.6374632120132446,"14":-0.3352230489253998,"15":0.705734133720398,"16":-1.2337398529052734,"17":2.0067179203033447,"18":-1.3134506940841675,"19":1.525916576385498,"20":1.0931249856948853,"21":0.3911062180995941,"22":1.2055834531784058,"23":0.8881781101226807,"24":-0.1303078979253769,"25":1.4358696937561035,"26":-3.1514155864715576,"27":-0.6777662634849548,"28":1.8240867853164673,"29":0.6194500923156738,"30":1.6044247150421143,"31":-0.16623316705226898,"32":-0.641395628452301,"33":2.444628953933716,"34":-0.9221821427345276,"35":-1.581221342086792,"36":0.9639964699745178,"37":-0.40829694271087646,"38":1.8886359930038452,"39":-1.7423076629638672,"40":-1.172993540763855,"41":0.7231046557426453,"42":-0.549248456954956,"43":-0.24857735633850098,"44":0.30672377347946167,"45":0.17267322540283203,"46":0.3340916335582733,"47":0.1956743448972702,"48":-0.35954371094703674,"49":0.7950375080108643,"50":-1.5117684602737427,"51":-0.8246151208877563,"52":-0.9414634704589844,"53":-0.14184974133968353,"54":-1.4019049406051636,"55":0.2425563931465149,"56":-1.6444463729858398,"57":-0.3163851499557495,"58":-0.8754869699478149,"59":0.03527604043483734,"60":-0.05835838243365288,"61":1.3711415529251099,"62":-0.19704389572143555,"63":-0.3805384337902069,"64":-1.2006341218948364,"65":-0.8911815285682678,"66":0.05161646008491516,"67":0.2977136969566345,"68":-1.0140857696533203,"69":-0.44180989265441895,"70":-0.7419447898864746,"71":-1.278540015220642,"72":0.3093506991863251,"73":-0.9589214324951172,"74":-0.26695767045021057,"75":0.3348899483680725,"76":-0.8040446639060974,"77":-0.15437546372413635,"78":-0.5617888569831848,"79":0.7627156376838684,"80":0.16420431435108185,"81":3.134657382965088,"82":0.5927265286445618,"83":0.050577230751514435,"84":-0.3867066204547882,"85":-0.642110288143158,"86":-0.11255718767642975,"87":0.35033509135246277,"88":-1.4154874086380005,"89":-1.684118628501892,"90":0.6466284990310669,"91":-1.1152516603469849,"92":-0.5576604604721069,"93":-0.43125930428504944,"94":1.5913742780685425,"95":-0.17414157092571259,"96":-1.0359495878219604,"97":0.9626391530036926,"98":1.2196168899536133,"99":-2.0681793689727783,"100":0.47591570019721985,"101":-1.464571475982666,"102":-0.1534651815891266,"103":0.3285536766052246,"104":-0.5943606495857239,"105":0.544735848903656,"106":-1.647586703300476,"107":0.057837482541799545,"108":-1.0792208909988403,"109":0.34212005138397217,"110":0.2689549922943115,"111":0.6467867493629456,"112":-0.4037809669971466,"113":-0.8018877506256104,"114":-0.2093270719051361,"115":-0.2323385775089264,"116":2.4553520679473877,"117":1.5807616710662842,"118":0.34445440769195557,"119":-1.222800850868225,"120":-0.6945140957832336,"121":-0.20860278606414795,"122":-0.9042595028877258,"123":0.7157367467880249,"124":1.1141592264175415,"125":1.2435044050216675,"126":-0.5920953750610352,"127":0.5166455507278442,"128":-0.6465938091278076,"129":1.8612552881240845,"130":-1.342010259628296,"131":0.0812826156616211,"132":-1.3791790008544922,"133":1.2666192054748535,"134":-0.05760210007429123,"135":-0.36923182010650635,"136":0.06377444416284561,"137":0.48266735672950745,"138":-0.2666319012641907,"139":-0.2693626284599304,"140":1.0944747924804688,"141":0.41869497299194336,"142":-2.3173649311065674,"143":-1.4962849617004395,"144":1.5140657424926758,"145":0.96923828125,"146":1.3780514001846313,"147":-1.034300684928894,"148":-0.1013568639755249,"149":-0.4420500695705414,"150":-2.0188097953796387,"151":-0.03238527104258537,"152":-1.0758029222488403,"153":-1.9817923307418823,"154":-0.2261144518852234,"155":1.461193561553955,"156":0.10047632455825806,"157":0.7555635571479797,"158":-0.5238510370254517,"159":0.2831571102142334,"160":-0.4051659405231476,"161":0.934282660484314,"162":0.6312280297279358,"163":0.0014655007980763912,"164":0.6752130389213562,"165":-1.1019172668457031,"166":-0.08827772736549377,"167":-0.2833457887172699,"168":-0.3732064664363861,"169":-0.3846381604671478,"170":1.1402008533477783,"171":-0.8065551519393921,"172":-0.6357851624488831,"173":-1.2140135765075684,"174":0.49051469564437866,"175":0.7031456828117371,"176":-0.8108493089675903,"177":0.47182345390319824,"178":-0.0343552865087986,"179":0.36576250195503235,"180":1.1465981006622314,"181":-0.6112356185913086,"182":0.37191638350486755,"183":0.4827860891819,"184":-0.6239470839500427,"185":1.7827889919281006,"186":0.25722262263298035,"187":-0.9444625973701477,"188":-0.2204442173242569,"189":1.9565949440002441,"190":-0.5834240913391113,"191":-0.37133464217185974,"192":0.7952696084976196,"193":-0.5240397453308105,"194":-1.6679179668426514,"195":-0.2673462927341461,"196":0.16039372980594635,"197":-1.2797125577926636,"198":-0.5381353497505188,"199":-0.9288469552993774,"200":1.168257474899292,"201":0.6176854968070984,"202":0.15174198150634766,"203":-0.07407783716917038,"204":-1.2394243478775024,"205":-0.581099271774292,"206":0.43771544098854065,"207":-0.776412844657898,"208":1.2116619348526,"209":-0.6776630878448486,"210":2.3564538955688477,"211":-2.391106128692627,"212":2.25998592376709,"213":-1.3538057804107666,"214":0.9135074615478516,"215":-0.4739554822444916,"216":0.5759063959121704,"217":-1.085498332977295,"218":0.3557073473930359,"219":0.4259647727012634,"220":-0.3590863347053528,"221":0.5606108903884888,"222":-1.8126509189605713,"223":-0.3572697043418884,"224":-0.5036632418632507,"225":0.4134606122970581,"226":1.311529517173767,"227":2.753770589828491,"228":-1.022119402885437,"229":-0.03931603208184242,"230":3.9244778156280518,"231":0.48763707280158997,"232":-0.23263238370418549,"233":1.9055570363998413,"234":-0.5062432289123535,"235":-1.165511965751648,"236":1.4688947200775146,"237":-0.34815263748168945,"238":-1.1776450872421265,"239":-0.1695186346769333,"240":0.697240948677063,"241":1.3698066473007202,"242":-1.0089529752731323,"243":-1.2098621129989624,"244":0.6178707480430603,"245":0.19945892691612244,"246":0.4587487578392029,"247":0.8803353309631348,"248":0.5614954829216003,"249":-0.4004770815372467,"250":0.11869790405035019,"251":-1.523771047592163,"252":1.0979965925216675,"253":-2.0254876613616943,"254":0.9052231907844543,"255":0.36756089329719543,"256":0.3295055031776428,"257":0.10650388151407242,"258":0.016739986836910248,"259":-1.0290473699569702,"260":-1.175876259803772,"261":-1.2892539501190186,"262":-0.6956417560577393,"263":0.523726224899292,"264":0.1012890487909317,"265":-0.29635801911354065,"266":0.2605415880680084,"267":-0.11513788998126984,"268":-0.06457699090242386,"269":-0.3150576949119568,"270":-0.8353906273841858,"271":-0.4946501553058624,"272":-0.21592256426811218,"273":-0.7517723441123962,"274":0.18482771515846252,"275":0.3802022337913513,"276":0.11974859982728958,"277":0.6315858364105225,"278":-0.3895775377750397,"279":-0.7867988348007202,"280":-0.6217052340507507,"281":-1.015518069267273,"282":-2.4683797359466553,"283":-0.37470754981040955,"284":2.3909645080566406,"285":1.897605061531067,"286":1.5169849395751953,"287":2.7009124755859375,"288":-2.7520291805267334,"289":0.7022478580474854,"290":-0.5307407379150391,"291":-1.291571855545044,"292":0.18744200468063354,"293":1.0587563514709473,"294":-0.47814565896987915,"295":1.3488821983337402,"296":0.20541292428970337,"297":-0.9456378221511841,"298":-0.06873705238103867,"299":0.3213454782962799,"300":-0.12151921540498734,"301":-1.0540461540222168,"302":1.49454927444458,"303":1.1930080652236938,"304":1.4068037271499634,"305":-1.116105556488037,"306":-0.6249287724494934,"307":-0.005349928978830576,"308":0.6964062452316284,"309":-0.1854550838470459,"310":-0.4937485456466675,"311":0.2346288114786148,"312":-0.8564608097076416,"313":-0.8169128894805908,"314":-0.3610296845436096,"315":0.000007809523594914936,"316":-0.36989903450012207,"317":0.24103288352489471,"318":1.30052649974823,"319":0.8844242691993713,"320":-0.42263662815093994,"321":2.654886245727539,"322":-0.26442307233810425,"323":0.9173098802566528,"324":0.7418046593666077,"325":0.6534757614135742,"326":1.1076587438583374,"327":0.02014181762933731,"328":0.6942472457885742,"329":0.2892180383205414,"330":-0.0017775609157979488,"331":0.06261847168207169,"332":0.6620615124702454,"333":0.6771113872528076,"334":0.6686130166053772,"335":-0.8312975168228149,"336":1.0629850625991821,"337":0.574532687664032,"338":0.07194150239229202,"339":0.7344757914543152,"340":0.46050745248794556,"341":-1.318447470664978,"342":0.4751593768596649,"343":-1.230629801750183,"344":-0.44079604744911194,"345":-1.695107340812683,"346":-1.224002480506897,"347":-0.2792714834213257,"348":-0.005565192084759474,"349":1.721137285232544,"350":0.8026777505874634,"351":0.055407021194696426,"352":0.6197982430458069,"353":-2.0379421710968018,"354":-1.8105412721633911,"355":0.872812032699585,"356":2.3245396614074707,"357":0.4843689501285553,"358":0.01016782596707344,"359":-1.9198797941207886,"360":0.9336538910865784,"361":2.1967196464538574,"362":-0.6554604768753052,"363":0.5067309141159058,"364":-0.47907671332359314,"365":-0.9871894717216492,"366":0.8109124898910522,"367":0.5905824899673462,"368":-0.3575654625892639,"369":-0.8871372938156128,"370":0.5311450362205505,"371":-1.0883313417434692,"372":-0.29055124521255493,"373":-0.1006622165441513,"374":-0.6076741218566895,"375":-0.8167029619216919,"376":-0.49000436067581177,"377":1.1862071752548218,"378":0.6134950518608093,"379":0.5228687524795532,"380":1.384669542312622,"381":-0.5714557766914368,"382":-0.00942512508481741,"383":1.4144344329833984,"384":-0.3009498715400696,"385":1.2795300483703613,"386":1.1984736919403076,"387":0.8338876366615295,"388":-0.6496686935424805,"389":-0.5903968811035156,"390":0.15856628119945526,"391":-0.5157403349876404,"392":0.33068010210990906,"393":1.0222769975662231,"394":-0.05971255153417587,"395":-1.1481271982192993,"396":0.5148402452468872,"397":0.9432843923568726,"398":0.22294960916042328,"399":-1.211250901222229}},"forgetBias":{"rows":20,"columns":1,"weights":{"0":0,"1":0,"2":0,"3":0,"4":0,"5":0,"6":0,"7":0,"8":0,"9":0,"10":0,"11":0,"12":0,"13":0,"14":0,"15":0,"16":0,"17":0,"18":0,"19":0}},"outputMatrix":{"rows":20,"columns":20,"weights":{"0":-1.7158485651016235,"1":-0.03880136460065842,"2":-0.07716983556747437,"3":-0.054387159645557404,"4":1.8248205184936523,"5":-1.8329524993896484,"6":0.05210569128394127,"7":-3.8929319381713867,"8":2.3040735721588135,"9":-2.1869163513183594,"10":-1.0936039686203003,"11":0.7788882255554199,"12":0.960768461227417,"13":0.4253741204738617,"14":-0.47674253582954407,"15":0.23953711986541748,"16":1.3483784198760986,"17":-0.8849358558654785,"18":0.7871056795120239,"19":-0.1286502331495285,"20":-2.5307328701019287,"21":0.7959984540939331,"22":-0.36556217074394226,"23":-0.4491519331932068,"24":3.2402303218841553,"25":-1.2727711200714111,"26":1.8643815517425537,"27":2.260026693344116,"28":-0.059735801070928574,"29":-3.8070783615112305,"30":0.20148232579231262,"31":0.3607322573661804,"32":-0.8738784193992615,"33":1.1546262502670288,"34":-0.21894532442092896,"35":0.050701454281806946,"36":-0.8337066769599915,"37":0.7622452974319458,"38":-0.49155616760253906,"39":0.17871427536010742,"40":-0.3330892324447632,"41":0.35876578092575073,"42":-2.3285582065582275,"43":-0.08959045261144638,"44":0.5968520641326904,"45":-1.0917643308639526,"46":0.5505459904670715,"47":1.598034143447876,"48":-1.3050343990325928,"49":-1.1207550764083862,"50":1.623435616493225,"51":0.9266732335090637,"52":-0.10672794282436371,"53":-0.08688563853502274,"54":2.5276923179626465,"55":1.5889722108840942,"56":-0.39222967624664307,"57":1.6227290630340576,"58":0.09217269718647003,"59":-0.08593054860830307,"60":0.8276702761650085,"61":-0.6888086199760437,"62":0.2119188904762268,"63":0.4769258201122284,"64":-0.27937886118888855,"65":-2.487049102783203,"66":-2.1502435207366943,"67":-1.3562610149383545,"68":0.25967100262641907,"69":1.5526933670043945,"70":-0.8125589489936829,"71":-1.525787115097046,"72":0.574779748916626,"73":-0.477746844291687,"74":1.1400748491287231,"75":-0.8053452372550964,"76":-0.44611656665802,"77":0.20942893624305725,"78":-0.1803942322731018,"79":0.8485936522483826,"80":-1.5527359247207642,"81":-0.4481547474861145,"82":-0.9739381670951843,"83":-0.26387670636177063,"84":0.7953606247901917,"85":-2.5998759269714355,"86":1.8043112754821777,"87":1.4330693483352661,"88":-0.7182353138923645,"89":-2.3193674087524414,"90":1.0070469379425049,"91":0.9545886516571045,"92":-0.4983869194984436,"93":0.845160961151123,"94":0.28869888186454773,"95":0.9958536624908447,"96":-0.4496896266937256,"97":0.9235890507698059,"98":0.5239435434341431,"99":2.951058864593506,"100":-0.5409549474716187,"101":3.356945276260376,"102":-1.9737963676452637,"103":-1.1135152578353882,"104":0.39851540327072144,"105":1.523990511894226,"106":1.3492636680603027,"107":2.359790325164795,"108":1.2276262044906616,"109":-1.691666841506958,"110":0.2712416350841522,"111":-1.461649775505066,"112":0.7967800498008728,"113":-0.8238939642906189,"114":-0.06812988966703415,"115":-1.2801696062088013,"116":-0.4734613299369812,"117":-0.49082881212234497,"118":0.21933118999004364,"119":-3.51314115524292,"120":-2.9276585578918457,"121":-0.04016858711838722,"122":-2.526381731033325,"123":1.6666302680969238,"124":2.7029199600219727,"125":-2.3405098915100098,"126":1.2694250345230103,"127":-1.2377127408981323,"128":-1.160852313041687,"129":-2.6444993019104004,"130":0.39548617601394653,"131":0.01514953188598156,"132":0.08023039996623993,"133":0.049309100955724716,"134":0.011958802118897438,"135":0.6984788775444031,"136":2.4117345809936523,"137":-0.5632136464118958,"138":-0.3861846923828125,"139":0.7664516568183899,"140":-1.1801882982254028,"141":0.11382310092449188,"142":-1.5091922283172607,"143":1.631137728691101,"144":1.230294942855835,"145":-1.7227238416671753,"146":1.0517996549606323,"147":0.989472508430481,"148":-0.6048617959022522,"149":-1.6802246570587158,"150":-0.38345539569854736,"151":0.22260674834251404,"152":0.15927952527999878,"153":0.18966293334960938,"154":1.2292463779449463,"155":0.5993964672088623,"156":1.0471644401550293,"157":-0.12060379981994629,"158":0.35015684366226196,"159":-0.4296647906303406,"160":-1.2066518068313599,"161":-1.501780390739441,"162":0.2217320203781128,"163":0.33623912930488586,"164":-0.08056793361902237,"165":-0.3909735679626465,"166":-0.5495445132255554,"167":-2.5167369842529297,"168":1.0134037733078003,"169":-0.16809211671352386,"170":-2.4653337001800537,"171":-0.035941921174526215,"172":-0.9668006896972656,"173":1.6287051439285278,"174":-1.3069839477539062,"175":-0.887093722820282,"176":2.505509376525879,"177":-1.3335646390914917,"178":-0.48989808559417725,"179":1.0134456157684326,"180":-2.317174196243286,"181":2.9320034980773926,"182":-2.4633679389953613,"183":2.0908877849578857,"184":2.68913197517395,"185":-1.747638463973999,"186":0.763763427734375,"187":0.8976139426231384,"188":-1.2572791576385498,"189":-0.8698909282684326,"190":0.3471563756465912,"191":1.7810306549072266,"192":0.7509116530418396,"193":-1.3063104152679443,"194":1.9593225717544556,"195":0.47262266278266907,"196":0.6360361576080322,"197":0.20436811447143555,"198":0.6833480000495911,"199":-2.106724977493286,"200":-0.02270635962486267,"201":-2.8505773544311523,"202":0.8062906861305237,"203":-0.9400922060012817,"204":0.5022897124290466,"205":-1.2776299715042114,"206":-0.7731420993804932,"207":0.7840345501899719,"208":-0.8447246551513672,"209":0.2458396852016449,"210":-0.18522045016288757,"211":0.10778211057186127,"212":-1.2990459203720093,"213":0.8129320740699768,"214":2.278323173522949,"215":-0.12357956916093826,"216":-0.288178950548172,"217":1.5323185920715332,"218":-0.12850280106067657,"219":1.1935535669326782,"220":-2.042006254196167,"221":-0.21224483847618103,"222":-0.6857723593711853,"223":0.5194927453994751,"224":2.0781407356262207,"225":-1.4005647897720337,"226":3.717296838760376,"227":-0.5659767985343933,"228":-1.0631918907165527,"229":-0.783607542514801,"230":1.6581311225891113,"231":0.9457463026046753,"232":0.7362397909164429,"233":-0.059148140251636505,"234":-0.19335797429084778,"235":1.436635971069336,"236":-0.31443536281585693,"237":0.2994630038738251,"238":1.16501784324646,"239":0.3473997414112091,"240":2.2669320106506348,"241":-1.3063035011291504,"242":-0.13533052802085876,"243":-1.9565837383270264,"244":-0.885295033454895,"245":1.3312915563583374,"246":-0.6341930031776428,"247":1.6940577030181885,"248":2.0585997104644775,"249":1.017149806022644,"250":-1.7395497560501099,"251":-2.4359443187713623,"252":-2.2119038105010986,"253":1.7204543352127075,"254":-0.5685819387435913,"255":-0.6330201029777527,"256":-0.005356049630790949,"257":-0.8023898005485535,"258":-2.7952778339385986,"259":1.5364679098129272,"260":-1.9583308696746826,"261":1.7695109844207764,"262":-1.4662418365478516,"263":-1.1587066650390625,"264":-1.2716138362884521,"265":2.0082168579101562,"266":1.4215855598449707,"267":0.49836042523384094,"268":1.644484043121338,"269":-1.449811339378357,"270":0.059395890682935715,"271":-1.3826841115951538,"272":1.1805042028427124,"273":-0.4869799017906189,"274":-2.1704089641571045,"275":0.1138589158654213,"276":0.6816748380661011,"277":-2.001206636428833,"278":-3.2747607231140137,"279":-1.8290029764175415,"280":0.046905506402254105,"281":-0.7243958115577698,"282":0.11615335941314697,"283":0.8371444344520569,"284":1.3577978610992432,"285":0.36183661222457886,"286":-1.2316703796386719,"287":-0.6827771067619324,"288":-0.4339154362678528,"289":1.573830008506775,"290":-1.105021357536316,"291":1.3888698816299438,"292":-1.3422168493270874,"293":0.5712475776672363,"294":4.834967613220215,"295":-0.575948178768158,"296":-1.295263648033142,"297":3.707383155822754,"298":0.21168680489063263,"299":0.2617955505847931,"300":0.7098660469055176,"301":-2.745858669281006,"302":2.318741798400879,"303":0.04995144158601761,"304":1.290292739868164,"305":-0.26840415596961975,"306":-2.8523519039154053,"307":-1.3792431354522705,"308":0.5117698311805725,"309":1.1768652200698853,"310":-1.2600018978118896,"311":0.5738257169723511,"312":-1.1108444929122925,"313":1.0177559852600098,"314":2.211599349975586,"315":-0.8210141062736511,"316":-0.8478494882583618,"317":2.1559441089630127,"318":-0.621391236782074,"319":2.9230144023895264,"320":-1.135898470878601,"321":-0.2009137123823166,"322":-1.3539717197418213,"323":-2.2238271236419678,"324":0.1750744730234146,"325":-0.27270928025245667,"326":-0.2942373752593994,"327":-0.35280144214630127,"328":0.9333308935165405,"329":-0.2721021771430969,"330":-2.3047730922698975,"331":-1.4808943271636963,"332":-0.9777580499649048,"333":1.7772269248962402,"334":-1.1757572889328003,"335":-2.006380319595337,"336":4.404574871063232,"337":-1.1770586967468262,"338":-1.7514584064483643,"339":0.8922171592712402,"340":3.3016762733459473,"341":-1.2175735235214233,"342":-0.1900336593389511,"343":-1.6864852905273438,"344":-2.91995906829834,"345":3.6438522338867188,"346":-0.9729489684104919,"347":0.260356605052948,"348":-0.27039024233818054,"349":2.8306312561035156,"350":-1.0095336437225342,"351":-1.8069977760314941,"352":0.7780616879463196,"353":0.14656580984592438,"354":-0.6590139269828796,"355":-1.7600735425949097,"356":-0.26272568106651306,"357":0.015138382092118263,"358":0.12516404688358307,"359":0.6369161009788513,"360":-0.8667731285095215,"361":1.7370887994766235,"362":-1.1747175455093384,"363":1.4708750247955322,"364":-0.5453962087631226,"365":-3.094076156616211,"366":1.8880001306533813,"367":2.3525307178497314,"368":-2.076054334640503,"369":-0.20079509913921356,"370":1.0978472232818604,"371":1.4788925647735596,"372":0.8833782076835632,"373":-1.523126482963562,"374":0.18112924695014954,"375":1.782181978225708,"376":-0.6948785781860352,"377":0.4146559238433838,"378":0.9726549983024597,"379":-1.468738317489624,"380":1.517146110534668,"381":-2.1333768367767334,"382":1.4504320621490479,"383":-0.9797707796096802,"384":-0.24505406618118286,"385":1.1551299095153809,"386":-3.172956705093384,"387":-1.2670631408691406,"388":1.4901471138000488,"389":0.838269054889679,"390":-2.307857036590576,"391":-1.6610784530639648,"392":-0.5530442595481873,"393":0.5413776636123657,"394":0.17997002601623535,"395":-2.6431291103363037,"396":-0.6724668145179749,"397":0.09595171362161636,"398":-1.1957051753997803,"399":0.8306119441986084}},"outputHidden":{"rows":20,"columns":20,"weights":{"0":-1.054036259651184,"1":-0.17973291873931885,"2":-1.3788220882415771,"3":-1.1236103773117065,"4":0.784378170967102,"5":-0.6931471228599548,"6":0.7143546938896179,"7":0.3295968472957611,"8":-2.2185516357421875,"9":-1.3603111505508423,"10":-0.32784906029701233,"11":-1.2156082391738892,"12":-0.5993685126304626,"13":-0.04918116703629494,"14":0.3402053415775299,"15":-0.06441062688827515,"16":-0.2726441025733948,"17":-1.3546403646469116,"18":0.41586628556251526,"19":-0.6606698632240295,"20":-0.23559017479419708,"21":0.2466566413640976,"22":-0.7762196660041809,"23":-0.04277615249156952,"24":-1.6084076166152954,"25":-1.5108330249786377,"26":0.8833712935447693,"27":-0.15706472098827362,"28":-0.5824218392372131,"29":-0.4857022166252136,"30":2.09429931640625,"31":-0.07305771857500076,"32":0.4930599629878998,"33":-1.3904801607131958,"34":1.2475485801696777,"35":-1.155228614807129,"36":-0.4484518766403198,"37":0.469748318195343,"38":-2.059014320373535,"39":-0.14300087094306946,"40":-1.3836240768432617,"41":-1.381120204925537,"42":-2.5348527431488037,"43":-0.33703795075416565,"44":1.2223403453826904,"45":0.4733475148677826,"46":1.9167295694351196,"47":1.54635488986969,"48":-0.0767783522605896,"49":1.874715805053711,"50":-2.093902587890625,"51":0.019354969263076782,"52":-0.9895946979522705,"53":-2.1596896648406982,"54":-3.4889273643493652,"55":1.99379563331604,"56":-0.7226578593254089,"57":-0.6974591612815857,"58":-1.6329370737075806,"59":-2.4476375579833984,"60":-1.1225926876068115,"61":-0.8271393775939941,"62":-1.1817041635513306,"63":0.3222161531448364,"64":1.055848479270935,"65":-1.0338613986968994,"66":0.0872148796916008,"67":0.39840835332870483,"68":-2.533672332763672,"69":-0.22660952806472778,"70":-0.5697146058082581,"71":-1.008963704109192,"72":-2.8474323749542236,"73":-0.8202438950538635,"74":-1.1172429323196411,"75":1.3100719451904297,"76":-0.8308886885643005,"77":-1.197593092918396,"78":-1.9405503273010254,"79":1.1845788955688477,"80":-0.41146132349967957,"81":-1.162081003189087,"82":-1.4977916479110718,"83":-3.824434280395508,"84":-0.1904076188802719,"85":0.8252258896827698,"86":0.7077202796936035,"87":2.238896131515503,"88":-2.978881597518921,"89":-0.012905425392091274,"90":-2.8431782722473145,"91":2.646282434463501,"92":-1.813063383102417,"93":-1.5133981704711914,"94":-1.0294867753982544,"95":1.2276697158813477,"96":1.6627979278564453,"97":0.1559632420539856,"98":-2.456437110900879,"99":-2.3461437225341797,"100":0.7253907322883606,"101":-0.05440260469913483,"102":1.609458565711975,"103":1.5039271116256714,"104":-0.14130666851997375,"105":0.1672966331243515,"106":0.7458643913269043,"107":-0.6298778653144836,"108":0.1876133382320404,"109":-0.32614004611968994,"110":1.0179213285446167,"111":-1.5418485403060913,"112":0.5527330636978149,"113":-1.222876787185669,"114":-0.06991834193468094,"115":-0.69931560754776,"116":-2.5374300479888916,"117":-0.49900951981544495,"118":3.1044254302978516,"119":3.081024169921875,"120":0.624178409576416,"121":-2.8422465324401855,"122":3.2311456203460693,"123":2.123337984085083,"124":-1.2891348600387573,"125":-1.8011683225631714,"126":-0.23755775392055511,"127":-0.17905494570732117,"128":-0.15983568131923676,"129":-0.41142144799232483,"130":1.841860294342041,"131":0.5076409578323364,"132":-0.4833134412765503,"133":-1.7532401084899902,"134":0.8424738645553589,"135":-1.4728409051895142,"136":-0.81351637840271,"137":0.9525756239891052,"138":1.00879967212677,"139":1.1489089727401733,"140":1.2270373106002808,"141":-1.1373791694641113,"142":0.8382667303085327,"143":-2.5392727851867676,"144":-0.43375933170318604,"145":-0.6206972599029541,"146":1.8273284435272217,"147":0.511660635471344,"148":1.113125205039978,"149":0.20598147809505463,"150":-1.3671844005584717,"151":-3.0388400554656982,"152":0.34210047125816345,"153":-3.66959547996521,"154":-1.6600563526153564,"155":0.3170042335987091,"156":-3.002560615539551,"157":-0.9590557813644409,"158":-0.4247410297393799,"159":2.53428053855896,"160":-2.7081334590911865,"161":0.1006636694073677,"162":-1.587053894996643,"163":-1.315712332725525,"164":-0.42348459362983704,"165":-1.0487825870513916,"166":2.1981184482574463,"167":-0.07826732099056244,"168":0.9851459860801697,"169":-2.0907857418060303,"170":1.6945377588272095,"171":-2.3659257888793945,"172":-0.05780000984668732,"173":-2.007681131362915,"174":1.1580190658569336,"175":1.916833519935608,"176":0.3135790526866913,"177":0.3007267415523529,"178":-1.0127859115600586,"179":-0.06304308772087097,"180":2.5639729499816895,"181":-0.40843069553375244,"182":1.493890643119812,"183":0.856701135635376,"184":-2.1193363666534424,"185":1.8772190809249878,"186":0.9546886086463928,"187":-0.6496948003768921,"188":0.5180776119232178,"189":0.3777956962585449,"190":0.48780396580696106,"191":-0.33404865860939026,"192":-0.1365206241607666,"193":-1.7237292528152466,"194":-1.7762912511825562,"195":-1.8194106817245483,"196":-0.5831333994865417,"197":-0.09853270649909973,"198":0.502187967300415,"199":0.2007124125957489,"200":0.7962139248847961,"201":-0.5685884356498718,"202":-2.585602045059204,"203":-1.2240737676620483,"204":-1.191885232925415,"205":1.399851679801941,"206":-2.578064203262329,"207":2.532475709915161,"208":-0.6290200352668762,"209":0.8757489323616028,"210":-0.9588460922241211,"211":-0.6517053246498108,"212":0.07158978283405304,"213":0.19798314571380615,"214":-1.2704975605010986,"215":1.4820200204849243,"216":-0.776050329208374,"217":-2.1048665046691895,"218":-0.6872516870498657,"219":-0.500791072845459,"220":-0.7796638607978821,"221":-2.2204201221466064,"222":0.4898686408996582,"223":0.5057762861251831,"224":-0.31193113327026367,"225":2.5467183589935303,"226":1.6828317642211914,"227":1.2910953760147095,"228":-0.4404808282852173,"229":1.4502447843551636,"230":-0.07912564277648926,"231":-0.43821391463279724,"232":-0.20509223639965057,"233":2.545783042907715,"234":-1.1062960624694824,"235":-0.6270822286605835,"236":-0.19475051760673523,"237":-0.6015700697898865,"238":-0.06451292335987091,"239":2.044776201248169,"240":-1.4009132385253906,"241":-1.4916138648986816,"242":-1.0436887741088867,"243":-1.7282897233963013,"244":1.956659197807312,"245":1.072400450706482,"246":0.04592422768473625,"247":2.264925241470337,"248":-0.49044904112815857,"249":1.7618498802185059,"250":0.1274675577878952,"251":1.9473953247070312,"252":-1.1414453983306885,"253":-1.1661368608474731,"254":-1.560694932937622,"255":0.6608409285545349,"256":0.29927030205726624,"257":-0.11561725288629532,"258":0.24888966977596283,"259":-0.976098358631134,"260":-0.05561545863747597,"261":-0.7625946402549744,"262":-1.2004740238189697,"263":0.18355824053287506,"264":0.3987254202365875,"265":-0.02359260432422161,"266":2.0047600269317627,"267":0.8459752798080444,"268":-1.865959882736206,"269":-0.9204222559928894,"270":-2.123969316482544,"271":-0.11975494772195816,"272":-2.4235775470733643,"273":1.0557034015655518,"274":-0.14172133803367615,"275":1.0649296045303345,"276":0.3513416349887848,"277":-1.397056221961975,"278":0.6177018880844116,"279":-2.4130566120147705,"280":-1.048936128616333,"281":-2.0455198287963867,"282":-1.137783169746399,"283":-0.6658864617347717,"284":0.2191682606935501,"285":1.894910454750061,"286":-2.123256206512451,"287":1.0384776592254639,"288":1.1260398626327515,"289":2.293853521347046,"290":-0.278800368309021,"291":-0.7894442677497864,"292":0.48236924409866333,"293":0.20443803071975708,"294":-1.3226747512817383,"295":0.34833163022994995,"296":0.03432472050189972,"297":1.0226612091064453,"298":-1.3963567018508911,"299":0.8978903293609619,"300":0.6095958948135376,"301":-0.6888472437858582,"302":-0.48448047041893005,"303":1.7112606763839722,"304":-0.20666803419589996,"305":0.500706136226654,"306":-2.866300106048584,"307":-0.55259108543396,"308":1.1529725790023804,"309":1.0041760206222534,"310":-0.25062885880470276,"311":-0.8775101900100708,"312":-0.3404094874858856,"313":0.7522664070129395,"314":1.9395238161087036,"315":0.3419119119644165,"316":-0.8717084527015686,"317":-0.5339300036430359,"318":-0.029216935858130455,"319":1.3637551069259644,"320":-0.666962206363678,"321":0.8473429679870605,"322":-1.04667067527771,"323":-0.3408559560775757,"324":-0.47402405738830566,"325":-0.27505365014076233,"326":0.10690182447433472,"327":-0.8507324457168579,"328":0.3519706726074219,"329":-0.00554203474894166,"330":0.12807133793830872,"331":-1.5121641159057617,"332":-1.3392481803894043,"333":-0.6366407871246338,"334":0.4085741937160492,"335":1.6969126462936401,"336":0.1360577940940857,"337":-0.04900142922997475,"338":-0.09010227769613266,"339":-0.34934139251708984,"340":2.6011080741882324,"341":3.5687856674194336,"342":0.5629528164863586,"343":1.2517449855804443,"344":-0.16877318918704987,"345":-0.6835305690765381,"346":-1.119083046913147,"347":0.5035018920898438,"348":-1.5974962711334229,"349":-0.9455824494361877,"350":1.196380853652954,"351":2.0436911582946777,"352":0.504407525062561,"353":-0.47434815764427185,"354":1.3207883834838867,"355":0.5307838320732117,"356":-2.1480062007904053,"357":-2.946704387664795,"358":0.08536755293607712,"359":-2.3853814601898193,"360":0.5333102345466614,"361":0.17291267216205597,"362":-0.1831933706998825,"363":-0.24596236646175385,"364":-0.7910555601119995,"365":0.4557233452796936,"366":2.4338345527648926,"367":0.16607162356376648,"368":-0.6218805313110352,"369":-0.8681787252426147,"370":-0.09684210270643234,"371":0.2664172947406769,"372":-0.4306758940219879,"373":-0.598810076713562,"374":-0.8456562161445618,"375":1.3742469549179077,"376":0.5464168787002563,"377":-1.6190874576568604,"378":-0.6705179810523987,"379":-0.25066858530044556,"380":-1.6819977760314941,"381":-1.1394026279449463,"382":-1.2126904726028442,"383":0.359577476978302,"384":1.781186580657959,"385":-0.3525744378566742,"386":-1.1176892518997192,"387":-0.21947766840457916,"388":-0.13858720660209656,"389":1.2877047061920166,"390":0.4613156318664551,"391":-1.3853437900543213,"392":-1.7999804019927979,"393":0.2641073763370514,"394":1.0599092245101929,"395":-0.27540427446365356,"396":-0.8341010808944702,"397":-0.159242644906044,"398":0.06548739969730377,"399":1.418853759765625}},"outputBias":{"rows":20,"columns":1,"weights":{"0":-1.1663873195648193,"1":-2.1998085975646973,"2":-0.4194151759147644,"3":-0.5897294282913208,"4":-1.5086473226547241,"5":-0.8679041266441345,"6":-0.3780524432659149,"7":0.11379864066839218,"8":0.7694244980812073,"9":-0.3344672620296478,"10":0.428744375705719,"11":2.2454824447631836,"12":-0.4216207265853882,"13":0.20514969527721405,"14":0.7770573496818542,"15":-1.6080981492996216,"16":-0.5821954607963562,"17":2.013314962387085,"18":-0.2511577606201172,"19":-0.12495429068803787}},"cellActivationMatrix":{"rows":20,"columns":20,"weights":{"0":0.36907240748405457,"1":-0.5124960541725159,"2":-0.7635142803192139,"3":-1.6950750350952148,"4":-1.1274105310440063,"5":-0.415255606174469,"6":0.24048934876918793,"7":1.4583717584609985,"8":-0.09974043816328049,"9":0.44735363125801086,"10":0.48432648181915283,"11":-0.5987380743026733,"12":-0.5503738522529602,"13":0.22492504119873047,"14":-0.2632351815700531,"15":0.4439355731010437,"16":1.0942177772521973,"17":-0.4604659676551819,"18":0.6010912656784058,"19":1.895910382270813,"20":0.8468801975250244,"21":-1.6225138902664185,"22":0.7764565348625183,"23":-0.7333929538726807,"24":-0.8525435924530029,"25":2.9899208545684814,"26":-0.7307283878326416,"27":-1.0084116458892822,"28":-0.1977553516626358,"29":1.1575266122817993,"30":-0.34155961871147156,"31":-0.9726393222808838,"32":-1.5000154972076416,"33":0.7962562441825867,"34":-0.24607358872890472,"35":-1.5874630212783813,"36":0.3922193944454193,"37":-0.18805909156799316,"38":-0.9317197203636169,"39":0.5135552287101746,"40":0.742608904838562,"41":1.1849693059921265,"42":0.44836297631263733,"43":2.1696743965148926,"44":-1.7300379276275635,"45":0.24750682711601257,"46":-0.22852016985416412,"47":0.7894829511642456,"48":-1.9893773794174194,"49":1.4655075073242188,"50":2.1088666915893555,"51":0.6125877499580383,"52":1.0684022903442383,"53":-2.464412212371826,"54":-1.0788393020629883,"55":1.4646832942962646,"56":-0.8538419604301453,"57":-0.4352339208126068,"58":0.09169729799032211,"59":-1.373655915260315,"60":-0.2548244893550873,"61":1.074708342552185,"62":-0.41721299290657043,"63":1.013278603553772,"64":-1.059752345085144,"65":-0.16346770524978638,"66":1.145047903060913,"67":0.9757344722747803,"68":-1.3540942668914795,"69":0.43681269884109497,"70":2.1194424629211426,"71":0.5433613061904907,"72":0.4056130051612854,"73":-1.3082526922225952,"74":-0.5503832101821899,"75":1.6710397005081177,"76":-0.42967504262924194,"77":-0.6631854176521301,"78":-0.17843639850616455,"79":-0.9239192605018616,"80":-0.7685154676437378,"81":1.3362325429916382,"82":-0.6493132710456848,"83":0.32904013991355896,"84":0.802395761013031,"85":-0.8696237802505493,"86":1.8032838106155396,"87":1.352594256401062,"88":-0.6840402483940125,"89":-1.0911200046539307,"90":0.26310479640960693,"91":1.2190887928009033,"92":0.6178831458091736,"93":-0.10704097151756287,"94":-0.007813865318894386,"95":1.160997748374939,"96":-0.2684852182865143,"97":0.5726374983787537,"98":0.2606595754623413,"99":-0.12359325587749481,"100":1.7725942134857178,"101":0.16888578236103058,"102":-0.10745653510093689,"103":1.5005289316177368,"104":-2.7795143127441406,"105":1.0484135150909424,"106":-0.17839258909225464,"107":1.6672968864440918,"108":-1.43916654586792,"109":2.0016958713531494,"110":0.5909633040428162,"111":-0.18221217393875122,"112":0.11781972646713257,"113":-1.0709953308105469,"114":-1.0254408121109009,"115":0.44946402311325073,"116":-1.2603482007980347,"117":-0.06284201145172119,"118":0.6799944043159485,"119":0.6446693539619446,"120":-1.0970417261123657,"121":1.4349676370620728,"122":-0.8711641430854797,"123":-1.7380810976028442,"124":0.11366462707519531,"125":2.375103712081909,"126":1.9682996273040771,"127":-0.18135149776935577,"128":0.7673321962356567,"129":-1.100240707397461,"130":-0.19294460117816925,"131":-0.3630535900592804,"132":0.7612819671630859,"133":-0.2283170223236084,"134":-1.5720235109329224,"135":-1.5236080884933472,"136":0.1858357936143875,"137":-1.3281718492507935,"138":-1.1349923610687256,"139":-0.609054446220398,"140":0.33076661825180054,"141":-1.586000919342041,"142":-0.25317561626434326,"143":-1.4424164295196533,"144":0.6706709265708923,"145":-0.6822277903556824,"146":0.33035194873809814,"147":-0.6823036074638367,"148":1.5705639123916626,"149":-0.40379512310028076,"150":-2.7496132850646973,"151":-1.6450715065002441,"152":-1.217585802078247,"153":1.2724487781524658,"154":-0.12263267487287521,"155":-0.024429362267255783,"156":0.0953814908862114,"157":0.573147714138031,"158":-0.6703168153762817,"159":2.9040863513946533,"160":-0.9654604196548462,"161":2.0027410984039307,"162":-0.38978633284568787,"163":-0.6828764081001282,"164":-1.2693018913269043,"165":-0.9028966426849365,"166":-0.31365451216697693,"167":0.05130194127559662,"168":0.8009541630744934,"169":-0.053776130080223083,"170":-0.43125537037849426,"171":-0.3800584375858307,"172":-0.07198941707611084,"173":0.9113038778305054,"174":-2.034881114959717,"175":-0.8391630053520203,"176":2.0013680458068848,"177":-2.3500847816467285,"178":-0.34362417459487915,"179":-0.693385660648346,"180":-1.0153244733810425,"181":0.4959704577922821,"182":-1.1992794275283813,"183":0.5117232203483582,"184":1.4609488248825073,"185":-0.3690904974937439,"186":1.0703339576721191,"187":0.7022032141685486,"188":-0.7120081782341003,"189":-1.0854368209838867,"190":-0.19096818566322327,"191":2.2861316204071045,"192":-0.07755182683467865,"193":-0.11104931682348251,"194":0.3600500822067261,"195":1.0426931381225586,"196":0.5440363883972168,"197":0.7555313110351562,"198":0.918325662612915,"199":0.22524379193782806,"200":1.5007362365722656,"201":-1.0766130685806274,"202":1.6579499244689941,"203":-1.1898428201675415,"204":-0.456414133310318,"205":1.8622087240219116,"206":-2.5835041999816895,"207":-0.14504066109657288,"208":1.5711621046066284,"209":0.9588240385055542,"210":-2.001939535140991,"211":-2.366410255432129,"212":-0.8386794328689575,"213":1.0228919982910156,"214":-0.8587570190429688,"215":-1.885844349861145,"216":0.12229128181934357,"217":-1.2313108444213867,"218":-1.836788535118103,"219":1.7452412843704224,"220":0.12129803001880646,"221":0.2663377523422241,"222":1.1965986490249634,"223":1.930419683456421,"224":-1.3658030033111572,"225":-0.3018674850463867,"226":0.19738179445266724,"227":2.695115804672241,"228":-2.46317195892334,"229":0.6887139081954956,"230":2.5942327976226807,"231":1.003972053527832,"232":1.3325653076171875,"233":-1.8618353605270386,"234":0.19951589405536652,"235":1.2065613269805908,"236":-1.9879544973373413,"237":-0.3370121121406555,"238":1.0957435369491577,"239":-0.5301154255867004,"240":0.24240729212760925,"241":-0.5789434909820557,"242":0.6087175607681274,"243":-2.1576998233795166,"244":0.23983602225780487,"245":0.534284234046936,"246":-0.8517645597457886,"247":0.25862792134284973,"248":2.2202553749084473,"249":0.25268033146858215,"250":-3.043377161026001,"251":-3.1083672046661377,"252":-1.9486584663391113,"253":2.4505772590637207,"254":-0.6976367831230164,"255":-3.083094596862793,"256":1.3327842950820923,"257":-0.9131708145141602,"258":-2.1350791454315186,"259":1.1942572593688965,"260":1.3328837156295776,"261":0.15238268673419952,"262":-0.9313008189201355,"263":0.49478429555892944,"264":-1.012377142906189,"265":2.0542166233062744,"266":-1.0545021295547485,"267":-0.04737503081560135,"268":-0.665280818939209,"269":1.4454258680343628,"270":-0.9317212700843811,"271":-0.13849447667598724,"272":-0.8146711587905884,"273":0.03077681176364422,"274":0.8674283623695374,"275":-0.7887651324272156,"276":0.3083917200565338,"277":0.4073156714439392,"278":1.2512701749801636,"279":-1.219029426574707,"280":1.1576746702194214,"281":-1.05918288230896,"282":2.3011300563812256,"283":-1.88638174533844,"284":0.31692570447921753,"285":0.10196860134601593,"286":-1.7113703489303589,"287":-0.9826628565788269,"288":1.7803677320480347,"289":0.7224175333976746,"290":-2.4561009407043457,"291":-1.9180169105529785,"292":-1.4857145547866821,"293":1.7057297229766846,"294":-0.654827356338501,"295":-2.1309268474578857,"296":0.8219918608665466,"297":-0.9733641147613525,"298":-1.7917577028274536,"299":1.915178894996643,"300":-0.21330676972866058,"301":2.5848917961120605,"302":-1.7579931020736694,"303":-0.11632677912712097,"304":0.36940470337867737,"305":-2.207216739654541,"306":2.038062572479248,"307":-0.178301602602005,"308":0.8173567056655884,"309":-1.1621153354644775,"310":-1.0262656211853027,"311":1.3314632177352905,"312":-0.33884724974632263,"313":0.7342354655265808,"314":0.4425412714481354,"315":0.09420394897460938,"316":0.9080137610435486,"317":-0.9505718946456909,"318":1.0801676511764526,"319":-1.1280438899993896,"320":1.9495130777359009,"321":-0.06373628228902817,"322":1.266663670539856,"323":0.4666740894317627,"324":-1.311956763267517,"325":0.34597718715667725,"326":-1.560409665107727,"327":-0.7690398097038269,"328":-0.5203767418861389,"329":1.2482794523239136,"330":-0.4351158142089844,"331":-0.3218347430229187,"332":0.03838348388671875,"333":-1.0581799745559692,"334":-1.1375606060028076,"335":-1.2983250617980957,"336":0.5214186310768127,"337":-0.5556456446647644,"338":-1.2404767274856567,"339":0.2243085354566574,"340":2.7421224117279053,"341":-1.1453909873962402,"342":2.085848093032837,"343":-0.5979711413383484,"344":-1.6979554891586304,"345":0.8474004864692688,"346":-2.522416353225708,"347":0.3703596889972687,"348":1.181222677230835,"349":2.513989210128784,"350":-1.2561558485031128,"351":-2.2136244773864746,"352":-0.4991510212421417,"353":0.9357708096504211,"354":-0.8225297927856445,"355":-1.6771938800811768,"356":0.351866215467453,"357":-0.805141031742096,"358":-3.460441827774048,"359":1.6670749187469482,"360":0.13443623483181,"361":-0.8745357990264893,"362":1.2351698875427246,"363":-0.6477356553077698,"364":0.5515486001968384,"365":0.21903270483016968,"366":-0.318252295255661,"367":0.4094153940677643,"368":1.2208610773086548,"369":0.9855687022209167,"370":-0.5397980809211731,"371":-2.420121431350708,"372":-1.0396201610565186,"373":0.8329034447669983,"374":-1.493898868560791,"375":-1.1928471326828003,"376":0.8401750326156616,"377":-2.106110095977783,"378":-1.9470994472503662,"379":0.44900768995285034,"380":0.039083462208509445,"381":0.7733754515647888,"382":-0.993274986743927,"383":-0.7627755999565125,"384":-1.0194838047027588,"385":0.09455303102731705,"386":1.8258835077285767,"387":1.8324834108352661,"388":-0.3449762761592865,"389":-1.0697182416915894,"390":0.5088706016540527,"391":0.5242417454719543,"392":0.7370192408561707,"393":-0.44957366585731506,"394":-2.241297960281372,"395":0.664200484752655,"396":-0.1753307729959488,"397":-0.9032824039459229,"398":-0.5867375135421753,"399":-0.9348092079162598}},"cellActivationHidden":{"rows":20,"columns":20,"weights":{"0":-0.8306965827941895,"1":0.9249047636985779,"2":0.738579511642456,"3":1.3329548835754395,"4":0.14068257808685303,"5":0.29718729853630066,"6":-0.24316483736038208,"7":0.04995827376842499,"8":-2.016913652420044,"9":1.802713394165039,"10":-0.3501676321029663,"11":1.8788561820983887,"12":-2.192955732345581,"13":0.7461278438568115,"14":-0.12608765065670013,"15":0.36899566650390625,"16":1.9788836240768433,"17":0.7761748433113098,"18":-1.4856621026992798,"19":-2.128243923187256,"20":1.5954726934432983,"21":-1.3453925848007202,"22":-1.0242104530334473,"23":1.633408546447754,"24":-2.1289803981781006,"25":-0.6125257015228271,"26":0.4258077144622803,"27":-0.7228526473045349,"28":1.650162935256958,"29":-1.3892110586166382,"30":-0.08457005023956299,"31":-1.1248258352279663,"32":1.563433051109314,"33":-0.3250250220298767,"34":1.7219966650009155,"35":-1.3954052925109863,"36":-1.6471956968307495,"37":0.10589608550071716,"38":3.2338643074035645,"39":1.9981374740600586,"40":-0.5396571159362793,"41":1.4314756393432617,"42":-1.5640451908111572,"43":-2.346515417098999,"44":1.3195704221725464,"45":-0.38494646549224854,"46":-0.18536078929901123,"47":0.16260428726673126,"48":0.7333739399909973,"49":0.8707120418548584,"50":-0.891674280166626,"51":0.08381163328886032,"52":-0.8981990814208984,"53":-0.2502649426460266,"54":0.5855856537818909,"55":-0.0397641696035862,"56":1.5033855438232422,"57":-1.1711146831512451,"58":-0.6092376708984375,"59":-1.8020046949386597,"60":-0.25716856122016907,"61":-0.20882804691791534,"62":-0.6950122714042664,"63":0.1887039691209793,"64":1.970500111579895,"65":-0.08770664036273956,"66":1.196882724761963,"67":0.005008324049413204,"68":-1.6817139387130737,"69":0.5697102546691895,"70":-1.9320436716079712,"71":1.6033378839492798,"72":-2.354806423187256,"73":1.2379220724105835,"74":0.046567417681217194,"75":0.597578227519989,"76":2.873086929321289,"77":1.561650037765503,"78":-0.11449746042490005,"79":-0.20442263782024384,"80":-0.6053364872932434,"81":0.4509124159812927,"82":0.37600985169410706,"83":0.09918920695781708,"84":0.4636026620864868,"85":-1.8144769668579102,"86":1.2647022008895874,"87":-0.3393852114677429,"88":0.78520268201828,"89":-1.0941028594970703,"90":2.362851619720459,"91":-0.44611847400665283,"92":1.4211004972457886,"93":-1.5460178852081299,"94":0.6683813333511353,"95":-0.7911275625228882,"96":-1.1998907327651978,"97":-0.45779088139533997,"98":0.8864778876304626,"99":1.6876381635665894,"100":-1.8672984838485718,"101":0.8662630319595337,"102":-1.4370588064193726,"103":-1.0445480346679688,"104":0.7147051095962524,"105":-1.232270359992981,"106":0.9402363300323486,"107":1.4056161642074585,"108":0.0025650339666754007,"109":0.67434161901474,"110":-1.1782073974609375,"111":0.10833834111690521,"112":-2.562904119491577,"113":0.14663207530975342,"114":-1.6613470315933228,"115":3.3828177452087402,"116":0.016563942655920982,"117":-1.0070035457611084,"118":-2.165435314178467,"119":-0.25277280807495117,"120":-0.824025571346283,"121":0.7583688497543335,"122":-0.5969442129135132,"123":-0.8902026414871216,"124":0.8884725570678711,"125":-0.9802069664001465,"126":0.1750417947769165,"127":1.709769606590271,"128":-1.0357921123504639,"129":-1.7201645374298096,"130":-2.5446174144744873,"131":1.4623442888259888,"132":-1.5581963062286377,"133":-0.04192168638110161,"134":1.255407452583313,"135":-0.5503207445144653,"136":-0.23100438714027405,"137":0.3110077679157257,"138":-2.5371532440185547,"139":-0.5285942554473877,"140":0.23360247910022736,"141":-1.1952317953109741,"142":1.6408027410507202,"143":1.6810717582702637,"144":-0.22810609638690948,"145":-0.8372794985771179,"146":-0.2686125338077545,"147":-0.09429051727056503,"148":0.6318642497062683,"149":-1.510577917098999,"150":4.665104389190674,"151":-2.0201354026794434,"152":3.3910727500915527,"153":-0.862973690032959,"154":0.5385034680366516,"155":-0.5910237431526184,"156":-2.713493585586548,"157":-1.9039397239685059,"158":0.21038620173931122,"159":1.8911240100860596,"160":0.682013213634491,"161":-0.6292141675949097,"162":0.6008368134498596,"163":0.8547157645225525,"164":0.035909004509449005,"165":-0.4692592918872833,"166":-2.06154727935791,"167":-0.8044429421424866,"168":0.8193366527557373,"169":0.8416010737419128,"170":1.5814179182052612,"171":0.4266604483127594,"172":0.3591136336326599,"173":-0.4913032054901123,"174":-0.046238694339990616,"175":-0.5225426554679871,"176":1.1716837882995605,"177":0.6959468722343445,"178":0.6712548136711121,"179":-0.8913781046867371,"180":-0.21838200092315674,"181":0.2563897669315338,"182":0.3346109986305237,"183":-1.7153191566467285,"184":0.9576428532600403,"185":0.5049916505813599,"186":1.0858306884765625,"187":0.8453134894371033,"188":-0.12494011968374252,"189":1.062394380569458,"190":0.05858203396201134,"191":-0.30718520283699036,"192":-0.40763378143310547,"193":0.5541207194328308,"194":-1.197731375694275,"195":-0.6278614401817322,"196":0.6524496674537659,"197":0.9552268981933594,"198":-1.6793910264968872,"199":-1.3503432273864746,"200":-0.7003272175788879,"201":-0.7807945609092712,"202":-0.25795161724090576,"203":-0.306877076625824,"204":0.8781867027282715,"205":0.8567806482315063,"206":-0.4795045554637909,"207":0.6513220071792603,"208":0.2009999305009842,"209":0.6720172166824341,"210":-0.7796146273612976,"211":0.34358471632003784,"212":-1.0450785160064697,"213":1.5596084594726562,"214":0.6469809412956238,"215":-1.049547791481018,"216":-1.120856761932373,"217":0.6343311071395874,"218":1.2298026084899902,"219":-0.18402040004730225,"220":1.2524758577346802,"221":0.4769335091114044,"222":-0.060973670333623886,"223":-0.6784060001373291,"224":0.5753915309906006,"225":-1.3865925073623657,"226":-1.8913426399230957,"227":0.8315158486366272,"228":-1.3246153593063354,"229":1.625655174255371,"230":0.5598227977752686,"231":0.1608995795249939,"232":-0.05781615152955055,"233":0.36600449681282043,"234":-1.7028310298919678,"235":-0.7189885377883911,"236":-0.29242104291915894,"237":-1.3320256471633911,"238":0.18164628744125366,"239":-1.719918966293335,"240":-0.633301854133606,"241":-1.2037612199783325,"242":0.18589915335178375,"243":-0.2880585491657257,"244":0.39079782366752625,"245":0.8761401772499084,"246":-0.1884608268737793,"247":0.6168185472488403,"248":0.08613981306552887,"249":1.1266391277313232,"250":-0.3696880638599396,"251":-0.2821581959724426,"252":0.022200725972652435,"253":0.6899607181549072,"254":0.019151773303747177,"255":-0.6198796033859253,"256":0.1946682184934616,"257":0.5530808568000793,"258":-0.7145441770553589,"259":-0.38936105370521545,"260":-1.5265096426010132,"261":1.560850739479065,"262":-1.5097242593765259,"263":-2.044118642807007,"264":0.4938100576400757,"265":0.03243205323815346,"266":-0.7496951222419739,"267":2.2731869220733643,"268":-2.2966456413269043,"269":-0.31548336148262024,"270":-2.4754252433776855,"271":-0.9456228613853455,"272":-1.744097352027893,"273":-0.9896129965782166,"274":2.099574089050293,"275":3.6517064571380615,"276":1.907894492149353,"277":-0.92423415184021,"278":-0.9987663626670837,"279":-1.6266801357269287,"280":0.9847257137298584,"281":-1.1655528545379639,"282":0.02666725218296051,"283":0.23500816524028778,"284":-0.21420028805732727,"285":0.1743631362915039,"286":-0.6933413743972778,"287":-1.3737189769744873,"288":1.4109231233596802,"289":0.8926114439964294,"290":-0.43416449427604675,"291":0.5712664127349854,"292":0.1055925115942955,"293":0.026792623102664948,"294":0.9453902840614319,"295":0.513538122177124,"296":-0.8861515522003174,"297":0.5181248784065247,"298":0.16105465590953827,"299":0.3060905933380127,"300":-0.6250231266021729,"301":0.13727732002735138,"302":-0.5576698780059814,"303":-0.8034483194351196,"304":0.8823952078819275,"305":-0.7549436688423157,"306":1.5568641424179077,"307":0.0251323152333498,"308":-0.6995904445648193,"309":-0.7444254159927368,"310":-0.7017560601234436,"311":-1.2815873622894287,"312":-0.2980329692363739,"313":-1.159841775894165,"314":0.2455512136220932,"315":1.0133718252182007,"316":-0.7877753973007202,"317":-0.2318667620420456,"318":-1.1655502319335938,"319":1.062606930732727,"320":1.015936255455017,"321":0.5416828393936157,"322":1.748814582824707,"323":0.7884451746940613,"324":-0.32305487990379333,"325":-0.35418620705604553,"326":-1.226840853691101,"327":-1.6755931377410889,"328":1.5986602306365967,"329":-0.3903881311416626,"330":3.1231820583343506,"331":-0.5540785193443298,"332":0.6008967757225037,"333":-0.5511722564697266,"334":-0.4053802192211151,"335":-0.41614630818367004,"336":0.020083922892808914,"337":0.1861901432275772,"338":1.4596319198608398,"339":1.3838328123092651,"340":-2.533132314682007,"341":1.36241614818573,"342":-1.3714072704315186,"343":-2.0352492332458496,"344":0.8546594381332397,"345":0.4830000102519989,"346":0.8997740149497986,"347":1.6780833005905151,"348":0.4952908754348755,"349":1.2789857387542725,"350":-0.04175998270511627,"351":-0.40333619713783264,"352":0.5950494408607483,"353":0.2901444733142853,"354":-0.6840551495552063,"355":1.2632417678833008,"356":-0.9858355522155762,"357":0.44970276951789856,"358":-0.49046406149864197,"359":-0.30677834153175354,"360":-1.5447899103164673,"361":-0.744935154914856,"362":-0.016032006591558456,"363":-0.49889644980430603,"364":0.7509576082229614,"365":0.34165623784065247,"366":-0.5379897356033325,"367":-1.052782654762268,"368":0.03547142818570137,"369":0.6690124273300171,"370":0.4887867271900177,"371":0.2869696021080017,"372":-0.7494189143180847,"373":-1.1989701986312866,"374":-0.43772298097610474,"375":0.4565386474132538,"376":1.3137141466140747,"377":0.3644882142543793,"378":0.5187118053436279,"379":-0.19854149222373962,"380":-1.6166598796844482,"381":-1.515639066696167,"382":-1.5728673934936523,"383":-1.3779577016830444,"384":0.9879705309867859,"385":-0.4034827947616577,"386":-0.19555209577083588,"387":0.16027411818504333,"388":-1.5321290493011475,"389":-0.5113876461982727,"390":-1.2197625637054443,"391":2.300306558609009,"392":-0.6970626711845398,"393":1.216794490814209,"394":0.32581692934036255,"395":0.22530198097229004,"396":1.3635756969451904,"397":1.8259670734405518,"398":-0.657383918762207,"399":-2.0616395473480225}},"cellActivationBias":{"rows":20,"columns":1,"weights":{"0":-0.27973660826683044,"1":0.15238842368125916,"2":-0.5104891657829285,"3":-0.7986024618148804,"4":0.546474277973175,"5":0.8755044937133789,"6":0.619198203086853,"7":0.2333550900220871,"8":-0.7125289440155029,"9":1.021977424621582,"10":-0.588992178440094,"11":-1.681174635887146,"12":-0.16497543454170227,"13":0.07629420608282089,"14":-0.6369979381561279,"15":0.22947506606578827,"16":0.37411507964134216,"17":-2.1289570331573486,"18":-0.4675232470035553,"19":-0.47305676341056824}}},{"inputMatrix":{"rows":20,"columns":20,"weights":{"0":2.315580129623413,"1":-0.9650522470474243,"2":0.8409414887428284,"3":0.027869442477822304,"4":-0.20873303711414337,"5":1.2255069017410278,"6":1.3666481971740723,"7":-3.4270408153533936,"8":3.081420660018921,"9":-0.960881233215332,"10":-1.1509754657745361,"11":-2.4935038089752197,"12":2.41215181350708,"13":-0.03404822200536728,"14":1.7030717134475708,"15":-0.937685489654541,"16":-0.8173412084579468,"17":-0.5128785371780396,"18":-0.04175181686878204,"19":0.7823835611343384,"20":0.8600449562072754,"21":3.1986052989959717,"22":-1.0313760042190552,"23":-0.15260960161685944,"24":-1.1549947261810303,"25":-1.0791631937026978,"26":1.310611367225647,"27":-2.4665634632110596,"28":1.8226823806762695,"29":-1.4120951890945435,"30":-0.8551779389381409,"31":-1.4738826751708984,"32":-1.2155282497406006,"33":-0.36514031887054443,"34":1.1633697748184204,"35":1.816235065460205,"36":-1.3054074048995972,"37":-2.2403135299682617,"38":0.8340246081352234,"39":2.9455254077911377,"40":2.1491141319274902,"41":-1.291456699371338,"42":1.170722484588623,"43":0.840480387210846,"44":-2.3983821868896484,"45":-0.11287061870098114,"46":0.9513108730316162,"47":0.16284416615962982,"48":0.24409237504005432,"49":0.7807434797286987,"50":-0.18059705197811127,"51":1.4242658615112305,"52":-0.47994527220726013,"53":-2.487945556640625,"54":-0.8210331201553345,"55":0.875996470451355,"56":-1.2753047943115234,"57":0.16220183670520782,"58":0.5006052255630493,"59":0.8799788355827332,"60":-0.9883215427398682,"61":-0.4822324514389038,"62":1.773380994796753,"63":0.4193975627422333,"64":1.3686062097549438,"65":-0.10648199915885925,"66":-0.6051017642021179,"67":0.25523048639297485,"68":-0.8562424778938293,"69":-0.6333816051483154,"70":0.48098358511924744,"71":1.1895325183868408,"72":1.09281587600708,"73":-0.39632827043533325,"74":0.3429110050201416,"75":-2.11466121673584,"76":1.7450764179229736,"77":0.7452492117881775,"78":2.3423893451690674,"79":-2.0733695030212402,"80":-2.227097272872925,"81":-1.5966804027557373,"82":1.8327443599700928,"83":-0.3323645293712616,"84":-0.9144065380096436,"85":1.8313816785812378,"86":-0.14973841607570648,"87":-0.18823425471782684,"88":0.04383638873696327,"89":2.1531026363372803,"90":-2.2321813106536865,"91":1.8894912004470825,"92":-1.726535439491272,"93":-0.16694526374340057,"94":-3.0909106731414795,"95":0.07948743551969528,"96":-2.031160831451416,"97":0.4110061526298523,"98":-1.0487582683563232,"99":0.27081161737442017,"100":-0.04585747420787811,"101":-0.383932501077652,"102":-1.738799810409546,"103":1.6530187129974365,"104":0.6921589970588684,"105":2.562204360961914,"106":1.067748785018921,"107":1.381831407546997,"108":-0.25985005497932434,"109":0.8689026832580566,"110":-1.3962897062301636,"111":-0.4217124581336975,"112":-3.918240785598755,"113":0.26278141140937805,"114":-2.6947414875030518,"115":0.9284785389900208,"116":0.06511655449867249,"117":-0.16000476479530334,"118":-0.6091994643211365,"119":-1.2391482591629028,"120":1.1627154350280762,"121":-1.6900233030319214,"122":0.979945719242096,"123":0.7917880415916443,"124":-0.01238485611975193,"125":-1.5330803394317627,"126":1.032360553741455,"127":0.5519915819168091,"128":-0.05150127038359642,"129":-0.5674536824226379,"130":-0.03806132823228836,"131":-1.2598599195480347,"132":-0.3137288987636566,"133":-1.0878394842147827,"134":-1.561926245689392,"135":0.6559611558914185,"136":-0.40959131717681885,"137":-1.472141146659851,"138":-1.8928438425064087,"139":3.4683361053466797,"140":0.5380907654762268,"141":-3.100344657897949,"142":-0.6234848499298096,"143":-2.5303947925567627,"144":0.3423651158809662,"145":-0.22958926856517792,"146":-0.5971662402153015,"147":0.16135573387145996,"148":-2.3248934745788574,"149":0.1532737910747528,"150":-1.5727481842041016,"151":-0.8525331020355225,"152":-0.4609523117542267,"153":-4.4594316482543945,"154":-1.0322891473770142,"155":1.3534033298492432,"156":1.9132142066955566,"157":-1.178261399269104,"158":-0.43436694145202637,"159":-0.7737312912940979,"160":-0.047665663063526154,"161":-0.3873978555202484,"162":0.5670065879821777,"163":-0.5924329161643982,"164":-0.5091785192489624,"165":0.10083170980215073,"166":-1.5631539821624756,"167":-0.26507025957107544,"168":-1.4471685886383057,"169":0.43930304050445557,"170":1.7124179601669312,"171":0.16219137609004974,"172":-2.072918653488159,"173":0.6187185049057007,"174":-2.6293630599975586,"175":-0.6478114128112793,"176":-1.107046127319336,"177":-0.2867806553840637,"178":-1.9350303411483765,"179":-0.6008133292198181,"180":-2.6206045150756836,"181":-3.504606008529663,"182":1.0960842370986938,"183":0.3858776390552521,"184":-0.16481103003025055,"185":0.22826308012008667,"186":-0.5171279907226562,"187":0.9765293002128601,"188":-0.40913769602775574,"189":-0.41292431950569153,"190":5.120389461517334,"191":-0.18228460848331451,"192":0.645634114742279,"193":1.659289836883545,"194":-0.8039631247520447,"195":0.20047515630722046,"196":-1.8155877590179443,"197":-0.13514089584350586,"198":0.8549678921699524,"199":1.7573400735855103,"200":-1.316697359085083,"201":0.47220394015312195,"202":0.9270381331443787,"203":0.6285309791564941,"204":-0.8797711730003357,"205":0.009191867895424366,"206":1.9118014574050903,"207":1.7146662473678589,"208":-3.720954656600952,"209":-0.4625994563102722,"210":-1.5852687358856201,"211":2.372667074203491,